[{"epoch": 1, "layer1": 1, "W1": [[-1.12800833,  1.44174926],
       [-1.17802946,  0.54751385],
       [ 0.02169572,  0.19290414]], "b1": [[-0.17570118],
       [ 0.1555367 ],
       [ 0.00842593]], "layer2": 2, "W2": [[-0.76287572,  1.46740165, -0.76577446],
       [ 0.04748355, -0.25958824,  0.17141609],
       [-1.40592783,  1.28975702,  0.11696481],
       [-0.96677071,  1.2303598 ,  0.08175019],
       [-0.62280966, -0.63355124,  1.13139291]], "b2": [[ 0.05351194],
       [-0.03837635],
       [ 0.03480665],
       [-0.2096525 ],
       [ 0.09258326]], "layer3": 3, "W3": [[-0.77904391,  0.89898708, -0.55110936,  0.27317151, -0.01079955]], "b3": [[0.03095119]]}, {"epoch": 2, "layer1": 1, "W1": [[-1.04243026,  1.34001624],
       [-1.37274312,  0.90942109],
       [ 0.28061601, -0.04172285]], "b1": [[-0.17701235],
       [ 0.15701997],
       [ 0.0143037 ]], "layer2": 2, "W2": [[-0.33299322,  1.80481252, -0.75243948],
       [ 0.02998575, -0.25985573,  0.26784902],
       [-1.38267979,  1.307801  ,  0.04271854],
       [-1.01329656,  1.1829106 ,  0.08142176],
       [-0.62389165, -0.6328679 ,  1.14469508]], "b2": [[ 0.04667862],
       [-0.03146018],
       [ 0.01776828],
       [-0.21008137],
       [ 0.09408942]], "layer3": 3, "W3": [[-1.08847176,  0.9125339 , -0.49435986,  0.24041821,  0.20780782]], "b3": [[0.04680362]]}, {"epoch": 3, "layer1": 1, "W1": [[-1.04057594,  1.31469098],
       [-1.29033067,  1.15345957],
       [ 0.58556507, -0.48976729]], "b1": [[-0.17556152],
       [ 0.14936548],
       [ 0.02212045]], "layer2": 2, "W2": [[-0.20378158,  1.86458114, -0.743461  ],
       [ 0.02217684, -0.26348504,  0.54718112],
       [-1.37121485,  1.29724028, -0.01120606],
       [-1.01896623,  1.18722154,  0.08172732],
       [-0.62749985, -0.63059186,  1.26200984]], "b2": [[ 0.04381019],
       [-0.022336  ],
       [ 0.01163153],
       [-0.20867779],
       [ 0.09821022]], "layer3": 3, "W3": [[-1.14569752,  1.0203774 , -0.42089289,  0.24741709,  0.60213422]], "b3": [[0.06077304]]}, {"epoch": 4, "layer1": 1, "W1": [[-1.05960619,  1.27873468],
       [-1.16453183,  1.33912785],
       [ 0.5478293 , -0.91322474]], "b1": [[-0.17532093],
       [ 0.14111748],
       [ 0.02236557]], "layer2": 2, "W2": [[-0.14170585,  1.88078527, -0.74475502],
       [ 0.02217684, -0.26318152,  0.72407225],
       [-1.35055293,  1.30207013, -0.01227575],
       [-1.02975815,  1.18639639,  0.08174436],
       [-0.62759185, -0.63044963,  1.37897339]], "b2": [[ 0.04013113],
       [-0.02236936],
       [ 0.01215557],
       [-0.20759389],
       [ 0.09764199]], "layer3": 3, "W3": [[-1.15964086,  1.12415322, -0.36586856,  0.2589895 ,  0.81967577]], "b3": [[0.06391997]]}, {"epoch": 5, "layer1": 1, "W1": [[-1.06082127,  1.27347396],
       [-0.95985076,  1.51271941],
       [ 0.53444935, -1.17303287]], "b1": [[-0.1744368 ],
       [ 0.13504637],
       [ 0.02444207]], "layer2": 2, "W2": [[-0.1038089 ,  1.88016671, -0.74499702],
       [ 0.02217684, -0.26282076,  0.86237412],
       [-1.33955306,  1.3013403 , -0.01552206],
       [-1.03892003,  1.18662521,  0.08174436],
       [-0.62759185, -0.6340285 ,  1.48471254]], "b2": [[ 0.03893357],
       [-0.02116739],
       [ 0.0125158 ],
       [-0.20640823],
       [ 0.09519586]], "layer3": 3, "W3": [[-1.15425033,  1.21675137, -0.32114933,  0.26719399,  0.98232873]], "b3": [[0.06594478]]}, {"epoch": 6, "layer1": 1, "W1": [[-1.05772429,  1.27604097],
       [-0.77234225,  1.61486065],
       [ 0.4951774 , -1.35170595]], "b1": [[-0.17362765],
       [ 0.12634312],
       [ 0.02522746]], "layer2": 2, "W2": [[-0.0810994 ,  1.85842697, -0.74641721],
       [ 0.02217684, -0.26192141,  0.9493768 ],
       [-1.33470814,  1.29446357, -0.01682889],
       [-1.04308064,  1.19377021,  0.08174436],
       [-0.62759185, -0.63407488,  1.55631352]], "b2": [[ 0.03588879],
       [-0.0209653 ],
       [ 0.0123395 ],
       [-0.20521969],
       [ 0.09395624]], "layer3": 3, "W3": [[-1.11506115,  1.27925308, -0.26969219,  0.28609632,  1.08484878]], "b3": [[0.06836629]]}, {"epoch": 7, "layer1": 1, "W1": [[-1.05448324,  1.27766791],
       [-0.58436007,  1.72401356],
       [ 0.40598494, -1.48452078]], "b1": [[-0.1733203 ],
       [ 0.12087548],
       [ 0.02434846]], "layer2": 2, "W2": [[-0.03605358,  1.87490939, -0.74768321],
       [ 0.02217684, -0.26077414,  1.00293894],
       [-1.32919168,  1.29327829, -0.01380628],
       [-1.04991067,  1.19457827,  0.08174436],
       [-0.62759185, -0.63603499,  1.6018447 ]], "b2": [[ 0.03343842],
       [-0.02112041],
       [ 0.01219249],
       [-0.20411829],
       [ 0.09209179]], "layer3": 3, "W3": [[-1.13945914,  1.31914281, -0.23576696,  0.29037245,  1.14556029]], "b3": [[0.06995133]]}, {"epoch": 8, "layer1": 1, "W1": [[-1.05430362,  1.278376  ],
       [-0.43554238,  1.78632575],
       [ 0.36655876, -1.58133531]], "b1": [[-0.17329545],
       [ 0.11554992],
       [ 0.02374145]], "layer2": 2, "W2": [[ 0.01328199,  1.8772099 , -0.74708654],
       [ 0.02217684, -0.26249024,  1.04778551],
       [-1.33125261,  1.2835561 , -0.01323377],
       [-1.04861   ,  1.206574  ,  0.08163981],
       [-0.62759185, -0.63744242,  1.64133791]], "b2": [[ 0.03050823],
       [-0.02137236],
       [ 0.01146624],
       [-0.20272834],
       [ 0.09189103]], "layer3": 3, "W3": [[-1.14046906,  1.35387711, -0.1904686 ,  0.30420733,  1.20057145]], "b3": [[0.07281956]]}, {"epoch": 9, "layer1": 1, "W1": [[-1.05825229,  1.27434057],
       [-0.36529433,  1.79933514],
       [ 0.42837544, -1.61648443]], "b1": [[-0.17390129],
       [ 0.11013237],
       [ 0.02420943]], "layer2": 2, "W2": [[ 0.06196519,  1.85755974, -0.74611786],
       [ 0.02217684, -0.26114277,  1.07084404],
       [-1.33542251,  1.27156491, -0.01192477],
       [-1.04411105,  1.22553935,  0.08283605],
       [-0.62759185, -0.63548336,  1.66202065]], "b2": [[ 0.02672553],
       [-0.02103574],
       [ 0.01061826],
       [-0.20101924],
       [ 0.09211608]], "layer3": 3, "W3": [[-1.10778516,  1.37118865, -0.1337793 ,  0.32888837,  1.22847635]], "b3": [[0.07653582]]}, {"epoch": 10, "layer1": 1, "W1": [[-1.06543178,  1.2675389 ],
       [-0.35892709,  1.82509325],
       [ 0.46266887, -1.65503098]], "b1": [[-0.17508157],
       [ 0.10509619],
       [ 0.02525634]], "layer2": 2, "W2": [[ 0.11999806,  1.86659261, -0.74693321],
       [ 0.02217684, -0.25891726,  1.09870527],
       [-1.33743645,  1.26567462, -0.01158741],
       [-1.04203757,  1.23680728,  0.08341941],
       [-0.62759185, -0.63547672,  1.68657546]], "b2": [[ 0.02345831],
       [-0.02039338],
       [ 0.01008661],
       [-0.1994853 ],
       [ 0.09235307]], "layer3": 3, "W3": [[-1.12794096,  1.39235595, -0.0980035 ,  0.33566921,  1.26181953]], "b3": [[0.07951815]]}, {"epoch": 11, "layer1": 1, "W1": [[-1.0745521 ,  1.25747558],
       [-0.4070128 ,  1.83730596],
       [ 0.49086671, -1.68175787]], "b1": [[-0.17678027],
       [ 0.09932891],
       [ 0.02497184]], "layer2": 2, "W2": [[ 0.1713381 ,  1.87034938, -0.74888204],
       [ 0.02217684, -0.25919264,  1.11267779],
       [-1.33913921,  1.26145988, -0.01087279],
       [-1.03891113,  1.24959176,  0.08417143],
       [-0.62759185, -0.63397231,  1.69981481]], "b2": [[ 0.01982962],
       [-0.02069331],
       [ 0.00973943],
       [-0.19787154],
       [ 0.09225312]], "layer3": 3, "W3": [[-1.14075921,  1.40346273, -0.06295639,  0.34312561,  1.27874664]], "b3": [[0.08244901]]}, {"epoch": 12, "layer1": 1, "W1": [[-1.08485418,  1.24252712],
       [-0.4044394 ,  1.84994118],
       [ 0.49213108, -1.70436528]], "b1": [[-0.17892135],
       [ 0.09394171],
       [ 0.02312728]], "layer2": 2, "W2": [[ 0.20951988,  1.8642227 , -0.75170446],
       [ 0.02217684, -0.25327058,  1.11820384],
       [-1.34041583,  1.25842137, -0.01051207],
       [-1.03491774,  1.26254531,  0.08499409],
       [-0.62759185, -0.6316996 ,  1.70418342]], "b2": [[ 0.01626778],
       [-0.02113256],
       [ 0.0095356 ],
       [-0.19636032],
       [ 0.09133318]], "layer3": 3, "W3": [[-1.13863383,  1.4067388 , -0.03129986,  0.35071536,  1.28192427]], "b3": [[0.08458356]]}, {"epoch": 13, "layer1": 1, "W1": [[-1.09718747,  1.22464352],
       [-0.44762611,  1.85926453],
       [ 0.52172014, -1.73003083]], "b1": [[-0.18161133],
       [ 0.08853551],
       [ 0.02235336]], "layer2": 2, "W2": [[ 0.25075229,  1.86298849, -0.75124522],
       [ 0.02217684, -0.25802035,  1.13141392],
       [-1.3408887 ,  1.25694793, -0.01048119],
       [-1.03104208,  1.27451221,  0.08497119],
       [-0.62759185, -0.63491056,  1.71647942]], "b2": [[ 0.0122752 ],
       [-0.02160493],
       [ 0.00942261],
       [-0.19470366],
       [ 0.09111866]], "layer3": 3, "W3": [[-1.14485109,  1.41826209, -0.00352607,  0.35546805,  1.2993607 ]], "b3": [[0.08797637]]}, {"epoch": 14, "layer1": 1, "W1": [[-1.11148016,  1.20238433],
       [-0.43464904,  1.88111529],
       [ 0.47147472, -1.76084021]], "b1": [[-0.18459299],
       [ 0.08373259],
       [ 0.0202742 ]], "layer2": 2, "W2": [[ 0.28642095,  1.8658873 , -0.75253411],
       [ 0.02217684, -0.25770284,  1.13085045],
       [-1.34079635,  1.25686494, -0.01076406],
       [-1.02773393,  1.28330207,  0.0848689 ],
       [-0.62759185, -0.63588997,  1.71549164]], "b2": [[ 0.00875686],
       [-0.02210865],
       [ 0.00942585],
       [-0.19340106],
       [ 0.09042788]], "layer3": 3, "W3": [[-1.15842959,  1.41791083,  0.01587593,  0.3552845 ,  1.29707687]], "b3": [[0.09011707]]}, {"epoch": 15, "layer1": 1, "W1": [[-1.12744212,  1.17763715],
       [-0.42861518,  1.89636413],
       [ 0.5246606 , -1.77426892]], "b1": [[-0.1877698 ],
       [ 0.07923133],
       [ 0.02040581]], "layer2": 2, "W2": [[ 0.32268597,  1.86196221, -0.75336979],
       [ 0.02217684, -0.25572252,  1.14025205],
       [-1.34067168,  1.25682878, -0.01108391],
       [-1.02414864,  1.29384213,  0.08515868],
       [-0.62759185, -0.6364891 ,  1.72359784]], "b2": [[ 0.00515845],
       [-0.02177519],
       [ 0.00951261],
       [-0.19190107],
       [ 0.09016082]], "layer3": 3, "W3": [[-1.16337244,  1.42478921,  0.04082051,  0.35872515,  1.3075836 ]], "b3": [[0.09293151]]}, {"epoch": 16, "layer1": 1, "W1": [[-1.1434047 ,  1.1480471 ],
       [-0.35683911,  1.92619152],
       [ 0.42917632, -1.79720598]], "b1": [[-0.19141544],
       [ 0.07562754],
       [ 0.01522111]], "layer2": 2, "W2": [[ 0.35321701,  1.86394807, -0.75345703],
       [ 0.02217684, -0.25067943,  1.12742631],
       [-1.33984244,  1.25797995, -0.01239532],
       [-1.02052736,  1.30289623,  0.08568675],
       [-0.62759185, -0.63537674,  1.71105535]], "b2": [[ 0.00228619],
       [-0.0230537 ],
       [ 0.0096182 ],
       [-0.19043714],
       [ 0.08822823]], "layer3": 3, "W3": [[-1.17619771,  1.41412311,  0.05781943,  0.35862483,  1.28652214]], "b3": [[0.09434919]]}, {"epoch": 17, "layer1": 1, "W1": [[-1.16267333,  1.11350102],
       [-0.41075954,  1.92247045],
       [ 0.48808369, -1.80590859]], "b1": [[-0.19538308],
       [ 0.07078527],
       [ 0.01539933]], "layer2": 2, "W2": [[ 0.38778899,  1.85167764, -0.75553539],
       [ 0.02217684, -0.24684065,  1.13866242],
       [-1.33871151,  1.26071921, -0.01339401],
       [-1.01676678,  1.31610428,  0.08627252],
       [-0.62759185, -0.63532619,  1.72060486]], "b2": [[-0.00147026],
       [-0.02241542],
       [ 0.00989007],
       [-0.18879004],
       [ 0.08808506]], "layer3": 3, "W3": [[-1.16959087,  1.42201692,  0.08911422,  0.36945264,  1.29896822]], "b3": [[0.09750549]]}, {"epoch": 18, "layer1": 1, "W1": [[-1.1821034 ,  1.07748447],
       [-0.35943566,  1.94496091],
       [ 0.39232263, -1.83605182]], "b1": [[-0.19942299],
       [ 0.06796911],
       [ 0.01324001]], "layer2": 2, "W2": [[ 0.42096772,  1.85054464, -0.7560485 ],
       [ 0.02217684, -0.24768629,  1.13740119],
       [-1.3375376 ,  1.26287012, -0.01525611],
       [-1.01392768,  1.32467137,  0.08663648],
       [-0.62759185, -0.63653643,  1.71960474]], "b2": [[-0.00440436],
       [-0.02321343],
       [ 0.01012765],
       [-0.18739455],
       [ 0.08729684]], "layer3": 3, "W3": [[-1.18100419,  1.42159368,  0.10801588,  0.37007081,  1.29627873]], "b3": [[0.09962864]]}, {"epoch": 19, "layer1": 1, "W1": [[-1.20264636,  1.0396916 ],
       [-0.35141687,  1.96104079],
       [ 0.43337632, -1.8519222 ]], "b1": [[-0.20377091],
       [ 0.0647325 ],
       [ 0.01397081]], "layer2": 2, "W2": [[ 0.45644783,  1.85627591, -0.7565058 ],
       [ 0.02217684, -0.24623111,  1.14895972],
       [-1.33639362,  1.26441857, -0.01690539],
       [-1.01250933,  1.32944669,  0.0866647 ],
       [-0.62759185, -0.63586804,  1.72985396]], "b2": [[-0.00729237],
       [-0.02260887],
       [ 0.01046253],
       [-0.18607046],
       [ 0.08740928]], "layer3": 3, "W3": [[-1.20577386,  1.43014481,  0.122824  ,  0.36332361,  1.31010498]], "b3": [[0.10243255]]}, {"epoch": 20, "layer1": 1, "W1": [[-1.22592342,  0.99828834],
       [-0.36662626,  1.97230364],
       [ 0.42560902, -1.85073633]], "b1": [[-0.2083514 ],
       [ 0.06182818],
       [ 0.01082186]], "layer2": 2, "W2": [[ 0.49639572,  1.8612142 , -0.75794169],
       [ 0.02217684, -0.24056677,  1.14179119],
       [-1.33517918,  1.26716889, -0.01956569],
       [-1.01158145,  1.33679836,  0.08867425],
       [-0.62759185, -0.62912915,  1.7235914 ]], "b2": [[-0.01004913],
       [-0.02368675],
       [ 0.01081112],
       [-0.18448388],
       [ 0.08647317]], "layer3": 3, "W3": [[-1.23138324,  1.42378945,  0.14275539,  0.36403466,  1.29706138]], "b3": [[0.10432449]]}, {"epoch": 21, "layer1": 1, "W1": [[-1.24929093,  0.9494542 ],
       [-0.32484832,  1.9891489 ],
       [ 0.40558296, -1.86998835]], "b1": [[-0.21363502],
       [ 0.0591754 ],
       [ 0.00907102]], "layer2": 2, "W2": [[ 0.5326513 ,  1.85648365, -0.75601246],
       [ 0.02217684, -0.23948537,  1.14852892],
       [-1.33403832,  1.27056017, -0.02250404],
       [-1.01076808,  1.34488034,  0.08935692],
       [-0.62759185, -0.63297397,  1.72851242]], "b2": [[-0.01309835],
       [-0.02368635],
       [ 0.01125689],
       [-0.18305445],
       [ 0.08572872]], "layer3": 3, "W3": [[-1.24025105,  1.42894269,  0.16733667,  0.3704369 ,  1.30393058]], "b3": [[0.10709368]]}, {"epoch": 22, "layer1": 1, "W1": [[-1.27054984,  0.89629285],
       [-0.38584197,  1.97534058],
       [ 0.48483838, -1.87962261]], "b1": [[-0.21913061],
       [ 0.05305759],
       [ 0.01022706]], "layer2": 2, "W2": [[ 0.56411661,  1.83122171, -0.7565574 ],
       [ 0.02217684, -0.23944993,  1.16073064],
       [-1.33265151,  1.27745349, -0.02545068],
       [-1.00967354,  1.35835697,  0.08972791],
       [-0.62759185, -0.63308246,  1.73975017]], "b2": [[-0.01824313],
       [-0.02340023],
       [ 0.01195412],
       [-0.18120774],
       [ 0.0860245 ]], "layer3": 3, "W3": [[-1.21972171,  1.43860981,  0.21012003,  0.38951184,  1.31926058]], "b3": [[0.11125175]]}, {"epoch": 23, "layer1": 1, "W1": [[-1.29410014,  0.85447802],
       [-0.35478819,  2.00603488],
       [ 0.43260844, -1.88913981]], "b1": [[-0.2237526 ],
       [ 0.05101919],
       [ 0.00777129]], "layer2": 2, "W2": [[ 0.60632347,  1.85735449, -0.75918262],
       [ 0.02217684, -0.23681477,  1.15159622],
       [-1.3327712 ,  1.27651918, -0.02996249],
       [-1.01126661,  1.35709431,  0.09112675],
       [-0.62759185, -0.62985646,  1.7316271 ]], "b2": [[-0.02073031],
       [-0.02421245],
       [ 0.01230508],
       [-0.17986772],
       [ 0.08537341]], "layer3": 3, "W3": [[-1.28176671,  1.43109363,  0.20965753,  0.37048905,  1.30570753]], "b3": [[0.11259415]]}, {"epoch": 24, "layer1": 1, "W1": [[-1.31664828,  0.80466386],
       [-0.3538023 ,  2.02252773],
       [ 0.5204104 , -1.89793555]], "b1": [[-0.22895676],
       [ 0.04761754],
       [ 0.00955799]], "layer2": 2, "W2": [[ 0.64410762,  1.86747107, -0.75862246],
       [ 0.02217684, -0.23799842,  1.16579028],
       [-1.3328364 ,  1.27785497, -0.0322467 ],
       [-1.01327175,  1.35901683,  0.09127031],
       [-0.62759185, -0.62922228,  1.74499843]], "b2": [[-0.02422112],
       [-0.0238285 ],
       [ 0.0131053 ],
       [-0.17838788],
       [ 0.0859637 ]], "layer3": 3, "W3": [[-1.317122  ,  1.44251951,  0.22393617,  0.36188602,  1.32409293]], "b3": [[0.11596118]]}, {"epoch": 25, "layer1": 1, "W1": [[-1.3378514 ,  0.75125487],
       [-0.2978327 ,  2.03619147],
       [ 0.4469701 , -1.91050989]], "b1": [[-0.23414505],
       [ 0.0451665 ],
       [ 0.00523161]], "layer2": 2, "W2": [[ 0.67939153,  1.86219394, -0.75824833],
       [ 0.02217684, -0.23738073,  1.15509208],
       [-1.33293921,  1.28166167, -0.03377927],
       [-1.01452686,  1.36558861,  0.09260505],
       [-0.62759185, -0.62625577,  1.73567663]], "b2": [[-0.02735962],
       [-0.0253525 ],
       [ 0.01386817],
       [-0.17691358],
       [ 0.08480869]], "layer3": 3, "W3": [[-1.33014746,  1.43440792,  0.25075694,  0.36879695,  1.3084531 ]], "b3": [[0.11779113]]}, {"epoch": 26, "layer1": 1, "W1": [[-1.35955335,  0.7006518 ],
       [-0.36469633,  2.01933646],
       [ 0.51896348, -1.91791619]], "b1": [[-0.23889955],
       [ 0.0400745 ],
       [ 0.00484592]], "layer2": 2, "W2": [[ 0.71523202,  1.83564789, -0.75905575],
       [ 0.02217684, -0.23568889,  1.16349208],
       [-1.33339813,  1.29000311, -0.03485085],
       [-1.0161731 ,  1.37738903,  0.09414739],
       [-0.62759185, -0.62440517,  1.74348964]], "b2": [[-0.03234713],
       [-0.02538942],
       [ 0.015127  ],
       [-0.17499997],
       [ 0.08480637]], "layer3": 3, "W3": [[-1.3169525 ,  1.44078284,  0.29874346,  0.39112932,  1.31810255]], "b3": [[0.12189642]]}, {"epoch": 27, "layer1": 1, "W1": [[-1.38172529,  0.65009111],
       [-0.31730124,  2.03956532],
       [ 0.44844876, -1.9290691 ]], "b1": [[-0.24366064],
       [ 0.03689158],
       [ 0.0008295 ]], "layer2": 2, "W2": [[ 0.7528304 ,  1.8449287 , -0.76053082],
       [ 0.02217684, -0.23388242,  1.15061226],
       [-1.33506988,  1.29058785, -0.03643727],
       [-1.01918454,  1.37832821,  0.09535433],
       [-0.62759185, -0.62268455,  1.73185613]], "b2": [[-0.03589026],
       [-0.02672765],
       [ 0.01608137],
       [-0.17364658],
       [ 0.08340738]], "layer3": 3, "W3": [[-1.35477574,  1.43070252,  0.31347353,  0.38570439,  1.29930079]], "b3": [[0.12369043]]}, {"epoch": 28, "layer1": 1, "W1": [[-1.40379819,  0.60222664],
       [-0.27978623,  2.05491071],
       [ 0.40414578, -1.94926615]], "b1": [[-0.24803313],
       [ 0.0340625 ],
       [-0.00185915]], "layer2": 2, "W2": [[ 0.78990233,  1.84878527, -0.76219607],
       [ 0.02217684, -0.23054902,  1.15309207],
       [-1.33720767,  1.29223385, -0.04125826],
       [-1.02256216,  1.38095891,  0.09692098],
       [-0.62759185, -0.62441417,  1.73329876]], "b2": [[-0.03965918],
       [-0.02703026],
       [ 0.01691221],
       [-0.17206133],
       [ 0.08231654]], "layer3": 3, "W3": [[-1.38603752,  1.4321949 ,  0.33438828,  0.38362166,  1.30012028]], "b3": [[0.12620846]]}, {"epoch": 29, "layer1": 1, "W1": [[-1.42666915,  0.57238765],
       [-0.29474698,  2.06473341],
       [ 0.37359191, -1.96418552]], "b1": [[-0.25109817],
       [ 0.03033859],
       [-0.00446218]], "layer2": 2, "W2": [[ 0.82889089,  1.85691752, -0.7678476 ],
       [ 0.02217684, -0.22980687,  1.15126406],
       [-1.34007896,  1.29289671, -0.04704345],
       [-1.02625866,  1.38214551,  0.09883656],
       [-0.62759185, -0.62404068,  1.73180528]], "b2": [[-0.04387982],
       [-0.02800009],
       [ 0.01780061],
       [-0.17059862],
       [ 0.08141004]], "layer3": 3, "W3": [[-1.42662583,  1.43101633,  0.35204971,  0.37896457,  1.29641918]], "b3": [[0.12869861]]}, {"epoch": 30, "layer1": 1, "W1": [[-1.44679372,  0.55093752],
       [-0.27791526,  2.07567095],
       [ 0.41917504, -1.98353281]], "b1": [[-0.25373213],
       [ 0.02688495],
       [-0.00426859]], "layer2": 2, "W2": [[ 0.86348201,  1.86244971, -0.76703415],
       [ 0.02217684, -0.23052524,  1.16093026],
       [-1.34283012,  1.29240011, -0.04894198],
       [-1.02961432,  1.38244074,  0.09915475],
       [-0.62759185, -0.62561393,  1.7404515 ]], "b2": [[-0.04777345],
       [-0.02770616],
       [ 0.01920437],
       [-0.16920277],
       [ 0.08172578]], "layer3": 3, "W3": [[-1.45885493,  1.43852323,  0.36894739,  0.37296948,  1.3096187 ]], "b3": [[0.13217522]]}, {"epoch": 31, "layer1": 1, "W1": [[-1.46842269,  0.5216685 ],
       [-0.27821994,  2.07277698],
       [ 0.36517343, -1.99206886]], "b1": [[-0.25648687],
       [ 0.02286585],
       [-0.00852773]], "layer2": 2, "W2": [[ 0.89900031,  1.84761625, -0.76964856],
       [ 0.02217684, -0.22795626,  1.1519669 ],
       [-1.34550252,  1.29896119, -0.04993016],
       [-1.03276367,  1.38925357,  0.10137253],
       [-0.62759185, -0.6232912 ,  1.73263121]], "b2": [[-0.05242659],
       [-0.02921122],
       [ 0.02074808],
       [-0.167582  ],
       [ 0.0801767 ]], "layer3": 3, "W3": [[-1.46821213,  1.43147721,  0.40509551,  0.3857711 ,  1.29578981]], "b3": [[0.13483884]]}, {"epoch": 32, "layer1": 1, "W1": [[-1.48676242,  0.51093922],
       [-0.33255279,  2.05632731],
       [ 0.47555436, -1.99702365]], "b1": [[-0.25791782],
       [ 0.01705405],
       [-0.00646248]], "layer2": 2, "W2": [[ 0.92877165,  1.81749058, -0.77112821],
       [ 0.02217684, -0.2235798 ,  1.16725229],
       [-1.34796875,  1.31011341, -0.05510049],
       [-1.03551927,  1.39943397,  0.10203887],
       [-0.62759185, -0.62112626,  1.74626158]], "b2": [[-0.05823541],
       [-0.02825027],
       [ 0.02239516],
       [-0.16563889],
       [ 0.08050733]], "layer3": 3, "W3": [[-1.45722223,  1.44240619,  0.45253587,  0.40494536,  1.31374882]], "b3": [[0.13934283]]}, {"epoch": 33, "layer1": 1, "W1": [[-1.50697162,  0.5133432 ],
       [-0.23814592,  2.08399117],
       [ 0.39604656, -2.01405888]], "b1": [[-0.25859324],
       [ 0.01424999],
       [-0.01006865]], "layer2": 2, "W2": [[ 0.96030663,  1.83782474, -0.77299895],
       [ 0.02217684, -0.22110262,  1.15941035],
       [-1.35114116,  1.30608458, -0.0561194 ],
       [-1.03864747,  1.39577602,  0.10361414],
       [-0.62759185, -0.6206527 ,  1.73887275]], "b2": [[-0.06166221],
       [-0.02935281],
       [ 0.02382451],
       [-0.16442456],
       [ 0.07943793]], "layer3": 3, "W3": [[-1.50789895,  1.43625961,  0.45543863,  0.38762478,  1.30176048]], "b3": [[0.14140154]]}, {"epoch": 34, "layer1": 1, "W1": [[-1.52481265,  0.49903732],
       [-0.34972909,  2.05229037],
       [ 0.58133028, -1.98599658]], "b1": [[-0.26026159],
       [ 0.00646341],
       [-0.00729957]], "layer2": 2, "W2": [[ 0.98900187,  1.80306805, -0.78132217],
       [ 0.02217684, -0.20606341,  1.1637475 ],
       [-1.3534988 ,  1.31897071, -0.06033677],
       [-1.04084756,  1.40630443,  0.10714945],
       [-0.62759185, -0.60888272,  1.74244925]], "b2": [[-0.06864096],
       [-0.02865018],
       [ 0.02593491],
       [-0.16240935],
       [ 0.07982742]], "layer3": 3, "W3": [[-1.49789809,  1.43707661,  0.50369793,  0.40906957,  1.30161359]], "b3": [[0.14581701]]}, {"epoch": 35, "layer1": 1, "W1": [[-1.54310516,  0.4959297 ],
       [-0.20704062,  2.09028624],
       [ 0.42983464, -2.01316535]], "b1": [[-0.26129795],
       [ 0.00512018],
       [-0.01280566]], "layer2": 2, "W2": [[ 1.01725458,  1.83467085, -0.78084303],
       [ 0.02217684, -0.20401331,  1.14968196],
       [-1.35639013,  1.31054602, -0.06166325],
       [-1.04351829,  1.39995989,  0.10996718],
       [-0.62759185, -0.60898034,  1.72897794]], "b2": [[-0.07148528],
       [-0.02998039],
       [ 0.0272748 ],
       [-0.16122635],
       [ 0.07819716]], "layer3": 3, "W3": [[-1.55812774,  1.42614286,  0.4941578 ,  0.38256415,  1.28052394]], "b3": [[0.147406]]}, {"epoch": 36, "layer1": 1, "W1": [[-1.5614167 ,  0.49722172],
       [-0.28294584,  2.07759784],
       [ 0.47597277, -2.01490082]], "b1": [[-0.26186479],
       [-0.00105829],
       [-0.01255985]], "layer2": 2, "W2": [[ 1.0444759 ,  1.8291052 , -0.78844563],
       [ 0.02217684, -0.19487012,  1.15264333],
       [-1.35894443,  1.31281535, -0.06848538],
       [-1.04571985,  1.40183232,  0.11342747],
       [-0.62759185, -0.60154111,  1.73151984]], "b2": [[-0.07741003],
       [-0.03011642],
       [ 0.02889252],
       [-0.15955677],
       [ 0.07802002]], "layer3": 3, "W3": [[-1.58263046,  1.42719543,  0.51417363,  0.37803056,  1.28037365]], "b3": [[0.15066979]]}, {"epoch": 37, "layer1": 1, "W1": [[-1.57741814,  0.50740173],
       [-0.25758256,  2.07547424],
       [ 0.62325077, -2.00387011]], "b1": [[-0.26187832],
       [-0.00620994],
       [-0.01013404]], "layer2": 2, "W2": [[ 1.06843858,  1.81740793, -0.79398245],
       [ 0.02217684, -0.18438723,  1.16602731],
       [-1.36126117,  1.31873818, -0.07006326],
       [-1.04756907,  1.40658557,  0.11782657],
       [-0.62759185, -0.59284684,  1.7434689 ]], "b2": [[-0.08246681],
       [-0.02932295],
       [ 0.03076125],
       [-0.15794714],
       [ 0.07886194]], "layer3": 3, "W3": [[-1.59563477,  1.43610138,  0.53980621,  0.38313451,  1.29402747]], "b3": [[0.15417886]]}, {"epoch": 38, "layer1": 1, "W1": [[-1.59460274,  0.50382544],
       [-0.24485438,  2.09156387],
       [ 0.42746793, -2.05683124]], "b1": [[-0.26303949],
       [-0.00925493],
       [-0.01438568]], "layer2": 2, "W2": [[ 1.09562496,  1.83872047, -0.79351631],
       [ 0.02217684, -0.18525205,  1.16221611],
       [-1.36386349,  1.31300214, -0.07562307],
       [-1.04964923,  1.40244998,  0.12044077],
       [-0.62759185, -0.59612198,  1.73927553]], "b2": [[-0.08670374],
       [-0.03037005],
       [ 0.03252508],
       [-0.15669034],
       [ 0.07804814]], "layer3": 3, "W3": [[-1.6451459 ,  1.43377159,  0.53904491,  0.3604042 ,  1.28814796]], "b3": [[0.1570088]]}, {"epoch": 39, "layer1": 1, "W1": [[-1.6071438 ,  0.50084864],
       [-0.18236332,  2.08668949],
       [ 0.32696376, -2.06886444]], "b1": [[-0.26424389],
       [-0.01386004],
       [-0.01914937]], "layer2": 2, "W2": [[ 1.11640037,  1.81792855, -0.79772219],
       [ 0.02217684, -0.17510024,  1.1517028 ],
       [-1.36557195,  1.32122414, -0.0832109 ],
       [-1.05097498,  1.40783424,  0.12407152],
       [-0.62759185, -0.59106874,  1.72872711]], "b2": [[-0.09147782],
       [-0.03166834],
       [ 0.0339404 ],
       [-0.15546345],
       [ 0.07684307]], "layer3": 3, "W3": [[-1.64639718,  1.42469354,  0.5684774 ,  0.37115997,  1.26937304]], "b3": [[0.15926769]]}, {"epoch": 40, "layer1": 1, "W1": [[-1.61949992,  0.48956658],
       [-0.24886334,  2.0764778 ],
       [ 0.3387969 , -2.09176767]], "b1": [[-0.2658301 ],
       [-0.02000454],
       [-0.01773247]], "layer2": 2, "W2": [[ 1.13698102,  1.80972399, -0.79979626],
       [ 0.02217684, -0.17523723,  1.16375266],
       [-1.36768875,  1.32470475, -0.08748229],
       [-1.05247461,  1.40998648,  0.12611422],
       [-0.62759185, -0.59065298,  1.73959262]], "b2": [[-0.09772439],
       [-0.03122171],
       [ 0.03636626],
       [-0.15389877],
       [ 0.07766267]], "layer3": 3, "W3": [[-1.66323266,  1.43412352,  0.58830686,  0.36670719,  1.28544941]], "b3": [[0.16380428]]}, {"epoch": 41, "layer1": 1, "W1": [[-1.63127585,  0.49444382],
       [-0.25131101,  2.06912386],
       [ 0.3854981 , -2.10533414]], "b1": [[-0.26644904],
       [-0.02565067],
       [-0.01711825]], "layer2": 2, "W2": [[ 1.15511446,  1.79524487, -0.80027113],
       [ 0.02217684, -0.17193933,  1.1759152 ],
       [-1.36950515,  1.33033415, -0.09651033],
       [-1.05371133,  1.41303355,  0.12873705],
       [-0.62759185, -0.58991746,  1.74981913]], "b2": [[-0.1032045 ],
       [-0.03088836],
       [ 0.03798828],
       [-0.15262134],
       [ 0.07795197]], "layer3": 3, "W3": [[-1.67083712,  1.44329674,  0.61170688,  0.36839696,  1.29961067]], "b3": [[0.1673921]]}, {"epoch": 42, "layer1": 1, "W1": [[-1.64229416,  0.50013695],
       [-0.27068327,  2.06523009],
       [ 0.4098809 , -2.12070813]], "b1": [[-0.26678906],
       [-0.03094176],
       [-0.01729631]], "layer2": 2, "W2": [[ 1.17244065,  1.79468372, -0.80202307],
       [ 0.02217684, -0.16736023,  1.17891249],
       [-1.37133695,  1.3310958 , -0.10035533],
       [-1.05490811,  1.41358487,  0.13147804],
       [-0.62759185, -0.58652341,  1.75216923]], "b2": [[-0.10871463],
       [-0.03097485],
       [ 0.04038433],
       [-0.15119623],
       [ 0.07845317]], "layer3": 3, "W3": [[-1.69375675,  1.44514625,  0.62431044,  0.35872301,  1.30225838]], "b3": [[0.17114826]]}, {"epoch": 43, "layer1": 1, "W1": [[-1.65187379,  0.50368649],
       [-0.26997201,  2.06046421],
       [ 0.51734734, -2.09891272]], "b1": [[-0.2672623 ],
       [-0.03716215],
       [-0.01742292]], "layer2": 2, "W2": [[ 1.18800453,  1.79458437, -0.80769648],
       [ 0.02217684, -0.15607617,  1.1724885 ],
       [-1.37290948,  1.33143323, -0.10352677],
       [-1.05590307,  1.41359783,  0.13531253],
       [-0.62759185, -0.57604044,  1.74615071]], "b2": [[-0.11412663],
       [-0.03135827],
       [ 0.04222639],
       [-0.14999236],
       [ 0.07852503]], "layer3": 3, "W3": [[-1.71796693,  1.43885014,  0.63404872,  0.34948545,  1.28938653]], "b3": [[0.17351901]]}, {"epoch": 44, "layer1": 1, "W1": [[-1.66076013,  0.49737962],
       [-0.24968088,  2.04864089],
       [ 0.45141095, -2.11823298]], "b1": [[-0.26852767],
       [-0.04400312],
       [-0.02042501]], "layer2": 2, "W2": [[ 1.20411938,  1.77566815, -0.81279467],
       [ 0.02217684, -0.14984659,  1.16815835],
       [-1.37439664,  1.33786458, -0.11073152],
       [-1.05679247,  1.41712428,  0.13915695],
       [-0.62759185, -0.573707  ,  1.74145012]], "b2": [[-0.12043349],
       [-0.03244051],
       [ 0.04396836],
       [-0.14875731],
       [ 0.07768396]], "layer3": 3, "W3": [[-1.72496282,  1.43536982,  0.65656978,  0.35364918,  1.28018103]], "b3": [[0.17617897]]}, {"epoch": 45, "layer1": 1, "W1": [[-1.67141597,  0.50047069],
       [-0.23490914,  2.0422611 ],
       [ 0.37657588, -2.13541474]], "b1": [[-0.26900591],
       [-0.05016153],
       [-0.02307218]], "layer2": 2, "W2": [[ 1.22095925,  1.76285396, -0.81791879],
       [ 0.02217684, -0.14307954,  1.16420956],
       [-1.37588194,  1.34272783, -0.1110129 ],
       [-1.05765905,  1.41917062,  0.14293772],
       [-0.62759185, -0.57214675,  1.73693888]], "b2": [[-0.12642915],
       [-0.0329493 ],
       [ 0.0465295 ],
       [-0.14753787],
       [ 0.0770533 ]], "layer3": 3, "W3": [[-1.73804005,  1.43185621,  0.67609893,  0.35377432,  1.27197537]], "b3": [[0.17922486]]}, {"epoch": 46, "layer1": 1, "W1": [[-1.6793888 ,  0.50014057],
       [-0.25885556,  2.05012682],
       [ 0.56322101, -2.1226119 ]], "b1": [[-0.27006736],
       [-0.05602893],
       [-0.01956122]], "layer2": 2, "W2": [[ 1.23648549,  1.79442991, -0.82203488],
       [ 0.02217684, -0.13768459,  1.17501829],
       [-1.37762012,  1.3311228 , -0.11420974],
       [-1.05862233,  1.41272901,  0.14732611],
       [-0.62759185, -0.56695301,  1.74702697]], "b2": [[-0.13174966],
       [-0.03255567],
       [ 0.04854667],
       [-0.14643029],
       [ 0.07782783]], "layer3": 3, "W3": [[-1.79420942,  1.43977187,  0.66327343,  0.32015554,  1.28492689]], "b3": [[0.18234732]]}, {"epoch": 47, "layer1": 1, "W1": [[-1.68738616,  0.49998359],
       [-0.24251543,  2.03757338],
       [ 0.49421729, -2.12958183]], "b1": [[-0.27073852],
       [-0.06277673],
       [-0.02458646]], "layer2": 2, "W2": [[ 1.25001549,  1.78013691, -0.82950551],
       [ 0.02217684, -0.12944995,  1.15718782],
       [-1.37888611,  1.33595531, -0.11525897],
       [-1.05928517,  1.41490867,  0.15227845],
       [-0.62759185, -0.55956012,  1.73084561]], "b2": [[-0.13759476],
       [-0.03483152],
       [ 0.05052255],
       [-0.14546127],
       [ 0.07643619]], "layer3": 3, "W3": [[-1.80656387,  1.42583973,  0.68120322,  0.32174067,  1.25747875]], "b3": [[0.18391251]]}, {"epoch": 48, "layer1": 1, "W1": [[-1.69541275,  0.50139249],
       [-0.21648774,  2.03682369],
       [ 0.46788867, -2.12804687]], "b1": [[-0.27136244],
       [-0.06889142],
       [-0.02708683]], "layer2": 2, "W2": [[ 1.26367611,  1.78851734, -0.8398366 ],
       [ 0.02217684, -0.11658613,  1.13964689],
       [-1.38022286,  1.33200821, -0.12636497],
       [-1.05995521,  1.41293783,  0.15781189],
       [-0.62759185, -0.54904565,  1.71519322]], "b2": [[-0.14260383],
       [-0.03619191],
       [ 0.05151158],
       [-0.14458373],
       [ 0.07563026]], "layer3": 3, "W3": [[-1.84067339,  1.4114066 ,  0.68198873,  0.3080739 ,  1.22981235]], "b3": [[0.1851917]]}, {"epoch": 49, "layer1": 1, "W1": [[-1.70296014,  0.49799058],
       [-0.21949875,  2.0125784 ],
       [ 0.62976208, -2.0918759 ]], "b1": [[-0.27218005],
       [-0.0759905 ],
       [-0.02603901]], "layer2": 2, "W2": [[ 1.27652723,  1.76598222, -0.85654802],
       [ 0.02217684, -0.09283221,  1.13357116],
       [-1.38118247,  1.34054387, -0.12673139],
       [-1.06043893,  1.4162844 ,  0.16389786],
       [-0.62759185, -0.53589503,  1.70832784]], "b2": [[-0.14850982],
       [-0.03615674],
       [ 0.05372457],
       [-0.14364447],
       [ 0.07555845]], "layer3": 3, "W3": [[-1.84944185,  1.40457931,  0.70638239,  0.31658543,  1.21438691]], "b3": [[0.18769406]]}, {"epoch": 50, "layer1": 1, "W1": [[-1.7111146 ,  0.49458357],
       [-0.1632985 ,  2.00703541],
       [ 0.47774874, -2.12888091]], "b1": [[-0.27300322],
       [-0.08140333],
       [-0.03209766]], "layer2": 2, "W2": [[ 1.29003088,  1.75657688, -0.8628805 ],
       [ 0.02217684, -0.09047403,  1.11976313],
       [-1.38222303,  1.34310149, -0.12858127],
       [-1.06095248,  1.41697964,  0.17007405],
       [-0.62759185, -0.53510299,  1.69612949]], "b2": [[-0.15348985],
       [-0.03845754],
       [ 0.05578853],
       [-0.14287985],
       [ 0.07423116]], "layer3": 3, "W3": [[-1.86527489,  1.39495242,  0.71990898,  0.3154777 ,  1.19461826]], "b3": [[0.18955741]]}, {"epoch": 51, "layer1": 1, "W1": [[-1.71919065,  0.4989608 ],
       [-0.18150901,  2.01106218],
       [ 0.50607469, -2.14061554]], "b1": [[-0.27351676],
       [-0.08761485],
       [-0.03197275]], "layer2": 2, "W2": [[ 1.30390395,  1.78385258, -0.87313763],
       [ 0.02217684, -0.08313491,  1.12526481],
       [-1.38354817,  1.33210293, -0.13647174],
       [-1.06156967,  1.41207839,  0.17743973],
       [-0.62759185, -0.52599119,  1.70119194]], "b2": [[-0.15861147],
       [-0.03894352],
       [ 0.05737593],
       [-0.14198439],
       [ 0.07500973]], "layer3": 3, "W3": [[-1.91746721,  1.39933317,  0.70808435,  0.28861899,  1.19917552]], "b3": [[0.19203504]]}, {"epoch": 52, "layer1": 1, "W1": [[-1.72560896,  0.49641336],
       [-0.13864622,  2.0065537 ],
       [ 0.54688094, -2.12904242]], "b1": [[-0.27436873],
       [-0.09425001],
       [-0.03345929]], "layer2": 2, "W2": [[ 1.31559455,  1.79496312, -0.88691631],
       [ 0.02217684, -0.06780021,  1.1125723 ],
       [-1.38450443,  1.32729566, -0.13502427],
       [-1.06200183,  1.4102272 ,  0.18566091],
       [-0.62759185, -0.51039486,  1.69005921]], "b2": [[-0.16367452],
       [-0.04022066],
       [ 0.05937348],
       [-0.14113028],
       [ 0.07511786]], "layer3": 3, "W3": [[-1.95446159,  1.38909239,  0.70654694,  0.27514916,  1.17733123]], "b3": [[0.19323789]]}, {"epoch": 53, "layer1": 1, "W1": [[-1.73336559,  0.4901101 ],
       [-0.18196942,  1.96995768],
       [ 0.59907157, -2.13514064]], "b1": [[-0.27530295],
       [-0.10156999],
       [-0.0351988 ]], "layer2": 2, "W2": [[ 1.32841679,  1.75541565, -0.89766427],
       [ 0.02217684, -0.05328704,  1.11488942],
       [-1.38531505,  1.34148167, -0.13270124],
       [-1.06234229,  1.41543961,  0.19395097],
       [-0.62759185, -0.49769575,  1.69149907]], "b2": [[-0.16997325],
       [-0.04072938],
       [ 0.06222731],
       [-0.14010967],
       [ 0.07546353]], "layer3": 3, "W3": [[-1.94895245,  1.39041893,  0.74222988,  0.29320367,  1.17518259]], "b3": [[0.19619276]]}, {"epoch": 54, "layer1": 1, "W1": [[-1.73982121,  0.48427956],
       [-0.13297702,  1.9719827 ],
       [ 0.54843813, -2.14045788]], "b1": [[-0.27628772],
       [-0.10790056],
       [-0.03894817]], "layer2": 2, "W2": [[ 1.33977182,  1.78072391, -0.91067037],
       [ 0.02217684, -0.03887347,  1.09435054],
       [-1.38630098,  1.32961712, -0.13899436],
       [-1.06274905,  1.41065206,  0.19910475],
       [-0.62759185, -0.48592616,  1.67375677]], "b2": [[-0.17425437],
       [-0.04304268],
       [ 0.06319834],
       [-0.13973311],
       [ 0.07508347]], "layer3": 3, "W3": [[-1.99780286,  1.37561075,  0.72727624,  0.26947872,  1.14378241]], "b3": [[0.19657324]]}, {"epoch": 55, "layer1": 1, "W1": [[-1.74747302,  0.47515765],
       [-0.08032155,  1.94716059],
       [ 0.54473343, -2.14224912]], "b1": [[-0.27734358],
       [-0.11417974],
       [-0.04195505]], "layer2": 2, "W2": [[ 1.35224581,  1.75458739, -0.92423167],
       [ 0.02217684, -0.01490744,  1.08351951],
       [-1.38712524,  1.3389338 , -0.13753208],
       [-1.06308095,  1.41390029,  0.20554772],
       [-0.62759185, -0.47216975,  1.66359992]], "b2": [[-0.17928592],
       [-0.04408007],
       [ 0.06566161],
       [-0.13903401],
       [ 0.07546117]], "layer3": 3, "W3": [[-2.00337973,  1.36739863,  0.75250967,  0.28169764,  1.12402924]], "b3": [[0.19871861]]}, {"epoch": 56, "layer1": 1, "W1": [[-1.75477297,  0.46881929],
       [-0.09946315,  1.91205642],
       [ 0.61949902, -2.1344081 ]], "b1": [[-0.27869513],
       [-0.12276064],
       [-0.04348891]], "layer2": 2, "W2": [[ 1.36469622,  1.72104127, -0.93948799],
       [ 0.02217684,  0.01439178,  1.08141995],
       [-1.38804548,  1.35068022, -0.14117915],
       [-1.06345093,  1.41756919,  0.21226176],
       [-0.62759185, -0.4618519 ,  1.65945281]], "b2": [[-0.18622869],
       [-0.04503929],
       [ 0.06831433],
       [-0.1381766 ],
       [ 0.07593185]], "layer3": 3, "W3": [[-2.00653691,  1.36666611,  0.78330067,  0.29827281,  1.11456833]], "b3": [[0.20188596]]}, {"epoch": 57, "layer1": 1, "W1": [[-1.76221643,  0.4667054 ],
       [-0.08735329,  1.91671953],
       [ 0.60570805, -2.14809983]], "b1": [[-0.27955874],
       [-0.12891792],
       [-0.04707389]], "layer2": 2, "W2": [[ 1.37754084,  1.75629141, -0.95823176],
       [ 0.02060664,  0.03430348,  1.06873507],
       [-1.38917519,  1.33388504, -0.14565242],
       [-1.06388553,  1.41069883,  0.22020335],
       [-0.62759185, -0.44827756,  1.64826077]], "b2": [[-0.19018401],
       [-0.04689933],
       [ 0.06974815],
       [-0.13786238],
       [ 0.07605425]], "layer3": 3, "W3": [[-2.06391751,  1.35886666,  0.76134044,  0.27017512,  1.09246718]], "b3": [[0.20292724]]}, {"epoch": 58, "layer1": 1, "W1": [[-1.77124916,  0.47325979],
       [-0.02662599,  1.92488797],
       [ 0.54093901, -2.1620424 ]], "b1": [[-0.27959083],
       [-0.13274343],
       [-0.05200126]], "layer2": 2, "W2": [[ 1.39033722,  1.79123374, -0.97884713],
       [ 0.0181009 ,  0.02480701,  1.05104518],
       [-1.39013777,  1.31867178, -0.14768575],
       [-1.06424756,  1.40489249,  0.22299403],
       [-0.62759185, -0.43147046,  1.63428198]], "b2": [[-0.19274371],
       [-0.04992772],
       [ 0.07099774],
       [-0.13786576],
       [ 0.07619548]], "layer3": 3, "W3": [[-2.11915442,  1.34796249,  0.74138046,  0.24437405,  1.06504913]], "b3": [[0.20348047]]}, {"epoch": 59, "layer1": 1, "W1": [[-1.77778635,  0.46479539],
       [ 0.00875981,  1.89455128],
       [ 0.61257974, -2.15769226]], "b1": [[-0.28072837],
       [-0.13819243],
       [-0.05460403]], "layer2": 2, "W2": [[ 1.40194692,  1.76303656, -1.00367101],
       [ 0.01626069,  0.02899345,  1.05003101],
       [-1.39086722,  1.32818651, -0.14868439],
       [-1.06452133,  1.40747131,  0.23192508],
       [-0.62759185, -0.41270421,  1.63178895]], "b2": [[-0.19731701],
       [-0.05161752],
       [ 0.07318892],
       [-0.13721795],
       [ 0.07671685]], "layer3": 3, "W3": [[-2.12731439,  1.34890406,  0.76768245,  0.26039588,  1.05528206]], "b3": [[0.20574716]]}, {"epoch": 60, "layer1": 1, "W1": [[-1.787159  ,  0.47197974],
       [ 0.08359027,  1.89235905],
       [ 0.51973932, -2.18378993]], "b1": [[-0.28075508],
       [-0.14140612],
       [-0.06095487]], "layer2": 2, "W2": [[ 1.41517132,  1.77962075, -1.01833068],
       [ 0.01493253,  0.02946519,  1.0419959 ],
       [-1.39177231,  1.32027985, -0.15090971],
       [-1.06485863,  1.40429327,  0.23502346],
       [-0.62759185, -0.40060115,  1.62469516]], "b2": [[-0.199649  ],
       [-0.05453272],
       [ 0.07503698],
       [-0.13713304],
       [ 0.07691962]], "layer3": 3, "W3": [[-2.16345679,  1.34596307,  0.76246671,  0.24725801,  1.04018446]], "b3": [[0.20724728]]}, {"epoch": 61, "layer1": 1, "W1": [[-1.79540248e+00,  4.76920360e-01],
       [-1.64371048e-03,  1.85050909e+00],
       [ 8.31680361e-01, -2.13197644e+00]], "b1": [[-0.28088857],
       [-0.14911722],
       [-0.05998198]], "layer2": 2, "W2": [[ 1.42702811,  1.74869646, -1.05546188],
       [ 0.01359362,  0.04601186,  1.04392823],
       [-1.392575  ,  1.32677367, -0.14437146],
       [-1.06514463,  1.40552148,  0.23788939],
       [-0.62759185, -0.36439081,  1.62462974]], "b2": [[-0.20480269],
       [-0.05605693],
       [ 0.07779516],
       [-0.13696138],
       [ 0.0785119 ]], "layer3": 3, "W3": [[-2.17815232,  1.34902297,  0.78432216,  0.25965361,  1.03058894]], "b3": [[0.20973083]]}, {"epoch": 62, "layer1": 1, "W1": [[-1.80413184,  0.47763145],
       [ 0.00315451,  1.80010797],
       [ 0.83053117, -2.13625046]], "b1": [[-0.28116578],
       [-0.15616159],
       [-0.0651321 ]], "layer2": 2, "W2": [[ 1.43905671,  1.7012335 , -1.08160086],
       [ 0.01258095,  0.05810419,  1.02184169],
       [-1.39326385,  1.33865631, -0.14420277],
       [-1.06537788,  1.40842448,  0.2304364 ],
       [-0.62759185, -0.35403343,  1.60482756]], "b2": [[-0.20959514],
       [-0.0587886 ],
       [ 0.08065868],
       [-0.13722281],
       [ 0.07858978]], "layer3": 3, "W3": [[-2.17479541,  1.33540732,  0.81548311,  0.27755524,  0.99631927]], "b3": [[0.21213291]]}, {"epoch": 63, "layer1": 1, "W1": [[-1.81056837,  0.47488121],
       [ 0.11563159,  1.83380893],
       [ 0.68304126, -2.18602895]], "b1": [[-0.28209385],
       [-0.1580576 ],
       [-0.07262143]], "layer2": 2, "W2": [[ 1.4507328 ,  1.78092488, -1.09755079],
       [ 0.01126595,  0.03270084,  1.00566434],
       [-1.39424758,  1.30521204, -0.1559568 ],
       [-1.06571075,  1.39705006,  0.22883524],
       [-0.62759185, -0.34085156,  1.59293412]], "b2": [[-0.20993647],
       [-0.06258623],
       [ 0.08151293],
       [-0.13773368],
       [ 0.07912697]], "layer3": 3, "W3": [[-2.25311009,  1.32737702,  0.76701338,  0.22573143,  0.97408105]], "b3": [[0.21261118]]}, {"epoch": 64, "layer1": 1, "W1": [[-1.81714388,  0.47426949],
       [ 0.07865775,  1.77349424],
       [ 0.71312018, -2.18331146]], "b1": [[-0.2824707 ],
       [-0.16719515],
       [-0.07733809]], "layer2": 2, "W2": [[ 1.46034364,  1.740634  , -1.12799942],
       [ 0.01042385,  0.03470867,  0.98516104],
       [-1.39482709,  1.31052509, -0.16108254],
       [-1.0658865 ,  1.39798946,  0.22426798],
       [-0.62759185, -0.31446656,  1.57821104]], "b2": [[-0.21511441],
       [-0.06590684],
       [ 0.08395278],
       [-0.13798882],
       [ 0.07984101]], "layer3": 3, "W3": [[-2.25742024,  1.31623012,  0.78685348,  0.23459547,  0.94310811]], "b3": [[0.21464065]]}, {"epoch": 65, "layer1": 1, "W1": [[-1.82255597,  0.4652976 ],
       [ 0.10372118,  1.76317808],
       [ 0.70808719, -2.2055339 ]], "b1": [[-0.28370151],
       [-0.17202707],
       [-0.08375187]], "layer2": 2, "W2": [[ 1.47076307,  1.76190037, -1.15525338],
       [ 0.00963412,  0.0424422 ,  0.98094599],
       [-1.39556267,  1.29510881, -0.1620925 ],
       [-1.0661103 ,  1.39272259,  0.2257696 ],
       [-0.62759185, -0.29118049,  1.57530939]], "b2": [[-0.21706787],
       [-0.06910195],
       [ 0.08564187],
       [-0.13829273],
       [ 0.08072431]], "layer3": 3, "W3": [[-2.29980806,  1.31808192,  0.769767  ,  0.2131457 ,  0.93353415]], "b3": [[0.2158695]]}, {"epoch": 66, "layer1": 1, "W1": [[-1.82890638,  0.46585803],
       [ 0.15443792,  1.73536645],
       [ 0.65127506, -2.22963997]], "b1": [[-0.28406257],
       [-0.17828955],
       [-0.08958203]], "layer2": 2, "W2": [[ 1.48027385,  1.76431929, -1.1806489 ],
       [ 0.00917409,  0.03821572,  0.97216701],
       [-1.39617104,  1.2875008 , -0.16467296],
       [-1.06628376,  1.38993636,  0.22417721],
       [-0.62759185, -0.28208695,  1.5693457 ]], "b2": [[-0.22041433],
       [-0.07228121],
       [ 0.08777571],
       [-0.13859941],
       [ 0.08158553]], "layer3": 3, "W3": [[-2.32960848,  1.31641735,  0.76683253,  0.202843  ,  0.92334677]], "b3": [[0.21777591]]}, {"epoch": 67, "layer1": 1, "W1": [[-1.83530896,  0.4680147 ],
       [ 0.14061275,  1.70212892],
       [ 0.7126742 , -2.23194471]], "b1": [[-0.28474363],
       [-0.18556778],
       [-0.09369236]], "layer2": 2, "W2": [[ 1.48997341,  1.76023123, -1.21612226],
       [ 0.00843178,  0.05180719,  0.96258948],
       [-1.39678393,  1.28018748, -0.16882387],
       [-1.06645307,  1.38747102,  0.22345306],
       [-0.62759185, -0.26485021,  1.561597  ]], "b2": [[-0.22426607],
       [-0.07499401],
       [ 0.08988223],
       [-0.13883883],
       [ 0.08300162]], "layer3": 3, "W3": [[-2.36164951,  1.31409042,  0.76453411,  0.19333564,  0.90913918]], "b3": [[0.21969414]]}, {"epoch": 68, "layer1": 1, "W1": [[-1.84197623,  0.4674623 ],
       [ 0.18544415,  1.65469042],
       [ 0.63082841, -2.2532694 ]], "b1": [[-0.28514766],
       [-0.191954  ],
       [-0.10220243]], "layer2": 2, "W2": [[ 1.49979039,  1.74700035, -1.23695716],
       [ 0.00770884,  0.04935192,  0.94725016],
       [-1.39733587,  1.27672154, -0.19087123],
       [-1.06659506,  1.38605648,  0.21828815],
       [-0.62759185, -0.24081804,  1.55126267]], "b2": [[-0.22676574],
       [-0.07856449],
       [ 0.09135071],
       [-0.13922665],
       [ 0.08456174]], "layer3": 3, "W3": [[-2.37677173,  1.30879468,  0.77106945,  0.18826221,  0.88971816]], "b3": [[0.22173341]]}, {"epoch": 69, "layer1": 1, "W1": [[-1.84765742,  0.47532669],
       [ 0.19996212,  1.65422521],
       [ 0.69708607, -2.26304858]], "b1": [[-0.28527336],
       [-0.19779661],
       [-0.10649861]], "layer2": 2, "W2": [[ 1.50905107,  1.78511555, -1.26423491],
       [ 0.00675745,  0.05556919,  0.94379113],
       [-1.39808806,  1.2565841 , -0.19274275],
       [-1.06678895,  1.38084668,  0.21835375],
       [-0.62759185, -0.21364163,  1.54812507]], "b2": [[-0.22888631],
       [-0.08174832],
       [ 0.09292595],
       [-0.13966504],
       [ 0.08654809]], "layer3": 3, "W3": [[-2.43079614,  1.31210329,  0.74581243,  0.16210245,  0.88362637]], "b3": [[0.22279933]]}, {"epoch": 70, "layer1": 1, "W1": [[-1.85379795,  0.47914716],
       [ 0.18243452,  1.60811203],
       [ 0.78260146, -2.26431541]], "b1": [[-0.2855444 ],
       [-0.20409681],
       [-0.1131058 ]], "layer2": 2, "W2": [[ 1.51867968,  1.75398276, -1.29050567],
       [ 0.00586628,  0.07166477,  0.93431844],
       [-1.39869971,  1.26001961, -0.2047094 ],
       [-1.066935  ,  1.3803913 ,  0.21280903],
       [-0.62759185, -0.16770165,  1.54110434]], "b2": [[-0.23124247],
       [-0.08485879],
       [ 0.09484476],
       [-0.14010641],
       [ 0.08954916]], "layer3": 3, "W3": [[-2.43311879,  1.31063676,  0.76535625,  0.17137572,  0.87156961]], "b3": [[0.22528258]]}, {"epoch": 71, "layer1": 1, "W1": [[-1.85739164,  0.46673483],
       [ 0.19168249,  1.5656741 ],
       [ 0.82024718, -2.26954189]], "b1": [[-0.28737403],
       [-0.20992356],
       [-0.12002114]], "layer2": 2, "W2": [[ 1.52737134,  1.73845725, -1.31731464],
       [ 0.00499634,  0.07356154,  0.93308061],
       [-1.39920678,  1.25892559, -0.22171848],
       [-1.06705044,  1.37954826,  0.2101898 ],
       [-0.62752221, -0.11723073,  1.53995936]], "b2": [[-0.2334293 ],
       [-0.08800733],
       [ 0.09659861],
       [-0.14038836],
       [ 0.09346882]], "layer3": 3, "W3": [[-2.44743894,  1.31579678,  0.77663785,  0.17306881,  0.87402774]], "b3": [[0.22793022]]}, {"epoch": 72, "layer1": 1, "W1": [[-1.86265797,  0.46966834],
       [ 0.17639692,  1.56678914],
       [ 0.8984355 , -2.28314872]], "b1": [[-0.28773971],
       [-0.21530653],
       [-0.12309543]], "layer2": 2, "W2": [[ 1.53614749,  1.77177299, -1.35225819],
       [ 0.00439564,  0.08116669,  0.94472932],
       [-1.39991944,  1.2386361 , -0.23162634],
       [-1.06720963,  1.3748701 ,  0.21025646],
       [-0.62747027, -0.10003012,  1.54734768]], "b2": [[-0.23492121],
       [-0.09017084],
       [ 0.09782337],
       [-0.14079416],
       [ 0.09613369]], "layer3": 3, "W3": [[-2.49856125,  1.32902254,  0.75254329,  0.14902274,  0.89343662]], "b3": [[0.22967099]]}, {"epoch": 73, "layer1": 1, "W1": [[-1.86876045,  0.48825545],
       [ 0.2009583 ,  1.55583226],
       [ 0.81968739, -2.32100098]], "b1": [[-0.2869998 ],
       [-0.2208347 ],
       [-0.13152928]], "layer2": 2, "W2": [[ 1.54431291,  1.79878511, -1.38183629],
       [ 0.00396749,  0.07668244,  0.93325176],
       [-1.40048374,  1.21657013, -0.25192937],
       [-1.06731848,  1.37024592,  0.20745039],
       [-0.62747027, -0.09967661,  1.53999861]], "b2": [[-0.23607505],
       [-0.0941295 ],
       [ 0.09847685],
       [-0.14126897],
       [ 0.09785582]], "layer3": 3, "W3": [[-2.54149843,  1.32905521,  0.72723878,  0.11955464,  0.88647107]], "b3": [[0.23083286]]}, {"epoch": 74, "layer1": 1, "W1": [[-1.87279158,  0.48420665],
       [ 0.12775073,  1.48031074],
       [ 0.85588551, -2.34145382]], "b1": [[-0.28766972],
       [-0.2300308 ],
       [-0.13673865]], "layer2": 2, "W2": [[ 1.55141301,  1.75009711, -1.41061255],
       [ 0.00369923,  0.08298235,  0.94625781],
       [-1.40085835,  1.22115462, -0.2747399 ],
       [-1.06738277,  1.37041258,  0.20654306],
       [-0.62738788, -0.08942787,  1.54934345]], "b2": [[-0.24016089],
       [-0.09685242],
       [ 0.10001386],
       [-0.14145258],
       [ 0.10111372]], "layer3": 3, "W3": [[-2.53737247,  1.34450463,  0.75021663,  0.13425284,  0.91247816]], "b3": [[0.2343856]]}, {"epoch": 75, "layer1": 1, "W1": [[-1.87650624,  0.48376333],
       [ 0.21308283,  1.46307225],
       [ 0.90598095, -2.33480013]], "b1": [[-0.28820008],
       [-0.23476493],
       [-0.14149153]], "layer2": 2, "W2": [[ 1.55840548,  1.76890842, -1.44066433],
       [ 0.00301783,  0.09877306,  0.92987409],
       [-1.40128614,  1.20752464, -0.27963576],
       [-1.06745416,  1.36763447,  0.20373568],
       [-0.627317  , -0.08603709,  1.53798731]], "b2": [[-0.24156598],
       [-0.09969178],
       [ 0.10159309],
       [-0.14184768],
       [ 0.10284358]], "layer3": 3, "W3": [[-2.57585922,  1.34020798,  0.73827131,  0.11693102,  0.8996484 ]], "b3": [[0.23572739]]}, {"epoch": 76, "layer1": 1, "W1": [[-1.88048453,  0.485119  ],
       [ 0.28423433,  1.45570451],
       [ 0.87227049, -2.35616968]], "b1": [[-0.28862245],
       [-0.23922888],
       [-0.14821967]], "layer2": 2, "W2": [[ 1.56563983,  1.80060505, -1.46510806],
       [ 0.00245438,  0.09132938,  0.91372902],
       [-1.40177363,  1.1869867 , -0.28821523],
       [-1.06752585,  1.36409715,  0.20168459],
       [-0.62728247, -0.09589221,  1.52761498]], "b2": [[-0.24242168],
       [-0.10411173],
       [ 0.10281002],
       [-0.14223114],
       [ 0.10415182]], "layer3": 3, "W3": [[-2.61785652,  1.3388715 ,  0.71478635,  0.08963519,  0.88771629]], "b3": [[0.23681321]]}, {"epoch": 77, "layer1": 1, "W1": [[-1.88411451,  0.48657748],
       [ 0.30108903,  1.45390553],
       [ 0.84213511, -2.37808434]], "b1": [[-0.28907306],
       [-0.2445667 ],
       [-0.15554757]], "layer2": 2, "W2": [[ 1.57260493,  1.82628711, -1.50048885],
       [ 0.00217214,  0.08936866,  0.89110219],
       [-1.40221088,  1.16465799, -0.30643807],
       [-1.06757914,  1.36117874,  0.19947811],
       [-0.62722582, -0.10908956,  1.51292016]], "b2": [[-0.24340686],
       [-0.10881495],
       [ 0.1033662 ],
       [-0.14257123],
       [ 0.10510554]], "layer3": 3, "W3": [[-2.6612597 ,  1.33468201,  0.68956974,  0.05833531,  0.86768339]], "b3": [[0.23744264]]}, {"epoch": 78, "layer1": 1, "W1": [[-1.88769413,  0.48691131],
       [ 0.26333974,  1.397474  ],
       [ 0.82287737, -2.40978297]], "b1": [[-0.28957233],
       [-0.25095766],
       [-0.16250401]], "layer2": 2, "W2": [[ 1.57948436,  1.79680665, -1.53707413],
       [ 0.00197107,  0.09547887,  0.88763401],
       [-1.40260768,  1.16363666, -0.3141614 ],
       [-1.06761715,  1.36040457,  0.19826596],
       [-0.62716738, -0.11402501,  1.51048955]], "b2": [[-0.24591202],
       [-0.1119839 ],
       [ 0.10512297],
       [-0.14274941],
       [ 0.10724523]], "layer3": 3, "W3": [[-2.67316744,  1.34020306,  0.70153686,  0.06135227,  0.87323624]], "b3": [[0.23992109]]}, {"epoch": 79, "layer1": 1, "W1": [[-1.88964258,  0.47149968],
       [ 0.20558578,  1.35233187],
       [ 0.95374204, -2.38963064]], "b1": [[-0.29116028],
       [-0.25939344],
       [-0.16503878]], "layer2": 2, "W2": [[ 1.58598718,  1.79651562, -1.58413115],
       [ 0.00181121,  0.10030878,  0.86815309],
       [-1.40298802,  1.14439287, -0.33918176],
       [-1.06764523,  1.35879834,  0.19677109],
       [-0.62712404, -0.11797055,  1.49784238]], "b2": [[-0.24889561],
       [-0.11557934],
       [ 0.10580262],
       [-0.14291989],
       [ 0.10921659]], "layer3": 3, "W3": [[-2.71215057,  1.33639716,  0.68566432,  0.03308078,  0.8605243 ]], "b3": [[0.24146099]]}, {"epoch": 80, "layer1": 1, "W1": [[-1.89310392,  0.46865993],
       [ 0.34765699,  1.34590802],
       [ 0.93872108, -2.41249213]], "b1": [[-0.29174948],
       [-0.26142023],
       [-0.17187657]], "layer2": 2, "W2": [[ 1.59232453e+00,  1.82019508e+00, -1.61378313e+00],
       [ 1.58379769e-03,  1.13131845e-01,  8.67492378e-01],
       [-1.40337780e+00,  1.13297300e+00, -3.42822648e-01],
       [-1.06766153e+00,  1.35797149e+00,  1.96496980e-01],
       [-6.27107374e-01, -1.12807328e-01,  1.49786744e+00]], "b2": [[-0.24905855],
       [-0.11877005],
       [ 0.10758966],
       [-0.14300953],
       [ 0.11176092]], "layer3": 3, "W3": [[-2.74831155,  1.34573844,  0.67774519,  0.02022798,  0.86947858]], "b3": [[0.2437543]]}, {"epoch": 81, "layer1": 1, "W1": [[-1.8979031 ,  0.48780299],
       [ 0.24794394,  1.28145812],
       [ 1.03022077, -2.39338712]], "b1": [[-0.29102945],
       [-0.26953495],
       [-0.17646301]], "layer2": 2, "W2": [[ 1.59923254e+00,  1.79307380e+00, -1.67291818e+00],
       [ 1.35563300e-03,  1.20727435e-01,  8.22646823e-01],
       [-1.40379724e+00,  1.12041890e+00, -3.68527307e-01],
       [-1.06766482e+00,  1.35731634e+00,  1.95967482e-01],
       [-6.27108759e-01, -1.13305538e-01,  1.46940121e+00]], "b2": [[-0.25217171],
       [-0.12320701],
       [ 0.10872537],
       [-0.14305464],
       [ 0.11369066]], "layer3": 3, "W3": [[-2.77799758e+00,  1.32918040e+00,  6.77288948e-01,
        -5.74735637e-04,  8.29188133e-01]], "b3": [[0.24537058]]}, {"epoch": 82, "layer1": 1, "W1": [[-1.90104738,  0.49037329],
       [ 0.41666011,  1.29115264],
       [ 0.87389146, -2.45637535]], "b1": [[-0.29140797],
       [-0.2709375 ],
       [-0.18656649]], "layer2": 2, "W2": [[ 1.60555188e+00,  1.84636489e+00, -1.70658181e+00],
       [ 1.26827041e-03,  1.04624810e-01,  8.14101300e-01],
       [-1.40416092e+00,  1.09642723e+00, -3.85439569e-01],
       [-1.06765160e+00,  1.35805262e+00,  1.96745384e-01],
       [-6.27081204e-01, -1.33072466e-01,  1.46387095e+00]], "b2": [[-0.25167302],
       [-0.12720871],
       [ 0.1095923 ],
       [-0.14296092],
       [ 0.11565608]], "layer3": 3, "W3": [[-2.83461969,  1.33412922,  0.65227499, -0.04420742,  0.83124508]], "b3": [[0.24716994]]}, {"epoch": 83, "layer1": 1, "W1": [[-1.90303597,  0.48061449],
       [ 0.42504553,  1.25789792],
       [ 0.93466071, -2.46718896]], "b1": [[-0.29272304],
       [-0.27415338],
       [-0.19396505]], "layer2": 2, "W2": [[ 1.61218613e+00,  1.83314968e+00, -1.75656678e+00],
       [ 1.19685784e-03,  1.14867863e-01,  8.11554104e-01],
       [-1.40450868e+00,  1.08670588e+00, -3.99484337e-01],
       [-1.06762691e+00,  1.35867411e+00,  1.97595647e-01],
       [-6.27036314e-01, -1.31510358e-01,  1.46241475e+00]], "b2": [[-0.25242667],
       [-0.13046562],
       [ 0.11090441],
       [-0.14283183],
       [ 0.11840653]], "layer3": 3, "W3": [[-2.86052833,  1.3426077 ,  0.65235057, -0.0588839 ,  0.84078098]], "b3": [[0.24981667]]}, {"epoch": 84, "layer1": 1, "W1": [[-1.90648062,  0.48432589],
       [ 0.38578205,  1.30463724],
       [ 0.98297002, -2.48399894]], "b1": [[-0.29305846],
       [-0.2755973 ],
       [-0.20032541]], "layer2": 2, "W2": [[ 1.61892211e+00,  1.83149485e+00, -1.79032713e+00],
       [ 7.53645320e-04,  1.32375285e-01,  7.55976782e-01],
       [-1.40499393e+00,  1.07417963e+00, -4.12641472e-01],
       [-1.06758629e+00,  1.35851701e+00,  1.99968358e-01],
       [-6.27032912e-01, -1.49555336e-01,  1.42821529e+00]], "b2": [[-0.25187524],
       [-0.13561804],
       [ 0.11202622],
       [-0.1425976 ],
       [ 0.11881852]], "layer3": 3, "W3": [[-2.87855081,  1.32530478,  0.64863549, -0.07991033,  0.78542329]], "b3": [[0.25013422]]}, {"epoch": 85, "layer1": 1, "W1": [[-1.90930762,  0.48212229],
       [ 0.49076866,  1.27362732],
       [ 0.92880292, -2.53050517]], "b1": [[-0.29363475],
       [-0.27804402],
       [-0.20837003]], "layer2": 2, "W2": [[ 1.62462036e+00,  1.85130309e+00, -1.82298228e+00],
       [ 6.83626664e-04,  1.22883457e-01,  7.65463554e-01],
       [-1.40531341e+00,  1.05803357e+00, -4.31509187e-01],
       [-1.06753573e+00,  1.36073309e+00,  2.01035729e-01],
       [-6.27022076e-01, -1.52494392e-01,  1.43404829e+00]], "b2": [[-0.25225624],
       [-0.13894904],
       [ 0.11317755],
       [-0.14232035],
       [ 0.12152496]], "layer3": 3, "W3": [[-2.91582591,  1.33928863,  0.64189148, -0.10631796,  0.81043489]], "b3": [[0.25280085]]}, {"epoch": 86, "layer1": 1, "W1": [[-1.91229572,  0.48544425],
       [ 0.48626095,  1.24417852],
       [ 1.00230722, -2.53247969]], "b1": [[-0.29397667],
       [-0.28085917],
       [-0.21251402]], "layer2": 2, "W2": [[ 1.63092261e+00,  1.84490568e+00, -1.86226773e+00],
       [ 6.67383179e-04,  1.23110547e-01,  7.64091596e-01],
       [-1.40565728e+00,  1.04550772e+00, -4.47842371e-01],
       [-1.06746673e+00,  1.36366364e+00,  2.03686473e-01],
       [-6.26997778e-01, -1.56493622e-01,  1.43292941e+00]], "b2": [[-0.25317278],
       [-0.14176479],
       [ 0.11475405],
       [-0.14197885],
       [ 0.12459622]], "layer3": 3, "W3": [[-2.94242845,  1.34723783,  0.6419864 , -0.13382596,  0.82427992]], "b3": [[0.25584243]]}, {"epoch": 87, "layer1": 1, "W1": [[-1.91514899,  0.49203185],
       [ 0.49663497,  1.22427953],
       [ 0.99302478, -2.54592859]], "b1": [[-0.29420143],
       [-0.28362428],
       [-0.21840736]], "layer2": 2, "W2": [[ 1.63735769e+00,  1.85039050e+00, -1.90591843e+00],
       [ 6.67383179e-04,  1.10630014e-01,  7.33008103e-01],
       [-1.40597631e+00,  1.02568544e+00, -4.63919917e-01],
       [-1.06736992e+00,  1.37017593e+00,  2.10301981e-01],
       [-6.26950440e-01, -1.72438733e-01,  1.41335573e+00]], "b2": [[-0.25428677],
       [-0.14592149],
       [ 0.11611184],
       [-0.14132598],
       [ 0.12673461]], "layer3": 3, "W3": [[-2.97996024,  1.34132007,  0.6299104 , -0.18338838,  0.80492804]], "b3": [[0.25758735]]}, {"epoch": 88, "layer1": 1, "W1": [[-1.91631981,  0.48458182],
       [ 0.46032991,  1.17700674],
       [ 1.10106271, -2.5425919 ]], "b1": [[-0.29538706],
       [-0.28731225],
       [-0.22214839]], "layer2": 2, "W2": [[ 1.64314122e+00,  1.82581530e+00, -1.97047824e+00],
       [ 6.67383179e-04,  1.05492913e-01,  7.23814795e-01],
       [-1.40626388e+00,  1.01320624e+00, -4.69501334e-01],
       [-1.06725325e+00,  1.37667462e+00,  2.15528437e-01],
       [-6.26907584e-01, -1.78526962e-01,  1.40787299e+00]], "b2": [[-0.25633755],
       [-0.14941011],
       [ 0.1179438 ],
       [-0.14064461],
       [ 0.12955653]], "layer3": 3, "W3": [[-3.0149716 ,  1.34770102,  0.62526023, -0.21852421,  0.81129867]], "b3": [[0.26016301]]}, {"epoch": 89, "layer1": 1, "W1": [[-1.91911249,  0.48996361],
       [ 0.5602864 ,  1.17716952],
       [ 0.98746795, -2.59885168]], "b1": [[-0.29564516],
       [-0.28822345],
       [-0.22946669]], "layer2": 2, "W2": [[ 1.64928350e+00,  1.85314158e+00, -2.01062023e+00],
       [ 6.67383179e-04,  8.11403716e-02,  6.97915273e-01],
       [-1.40658512e+00,  9.91979313e-01, -4.77865781e-01],
       [-1.06710760e+00,  1.38801684e+00,  2.23483505e-01],
       [-6.26894451e-01, -1.94330204e-01,  1.39276433e+00]], "b2": [[-0.25704853],
       [-0.1539115 ],
       [ 0.11949173],
       [-0.13963443],
       [ 0.13189812]], "layer3": 3, "W3": [[-3.06214825,  1.34743576,  0.6074638 , -0.27249328,  0.80153911]], "b3": [[0.26214158]]}, {"epoch": 90, "layer1": 1, "W1": [[-1.92200638,  0.49662285],
       [ 0.55529571,  1.15174287],
       [ 1.05067181, -2.61747829]], "b1": [[-0.29586133],
       [-0.28924906],
       [-0.23551299]], "layer2": 2, "W2": [[ 1.65569264e+00,  1.82105610e+00, -2.05111719e+00],
       [ 6.67383179e-04,  8.21639977e-02,  6.85891388e-01],
       [-1.40690595e+00,  9.83252239e-01, -4.94290324e-01],
       [-1.06693459e+00,  1.39392983e+00,  2.29922733e-01],
       [-6.26867513e-01, -2.05497613e-01,  1.38658144e+00]], "b2": [[-0.25778322],
       [-0.15778459],
       [ 0.12096519],
       [-0.13872116],
       [ 0.13480844]], "layer3": 3, "W3": [[-3.07316057,  1.35394587,  0.6169836 , -0.29619743,  0.80913497]], "b3": [[0.26506594]]}, {"epoch": 91, "layer1": 1, "W1": [[-1.92330049,  0.49660124],
       [ 0.54672015,  1.13510382],
       [ 1.11859994, -2.65963087]], "b1": [[-0.29671881],
       [-0.28876942],
       [-0.24430017]], "layer2": 2, "W2": [[ 1.66201657e+00,  1.79228615e+00, -2.11417071e+00],
       [ 6.67383179e-04,  8.52414647e-02,  6.97451502e-01],
       [-1.40721982e+00,  9.71482752e-01, -5.09387115e-01],
       [-1.06675289e+00,  1.40022687e+00,  2.31178535e-01],
       [-6.26836051e-01, -2.02650335e-01,  1.39373473e+00]], "b2": [[-0.2574735 ],
       [-0.16128577],
       [ 0.12220887],
       [-0.13777111],
       [ 0.13809019]], "layer3": 3, "W3": [[-3.10033253,  1.37069631,  0.61963767, -0.31693754,  0.83854278]], "b3": [[0.26809799]]}, {"epoch": 92, "layer1": 1, "W1": [[-1.92505035,  0.49613882],
       [ 0.54301984,  1.11516986],
       [ 1.1757136 , -2.68427817]], "b1": [[-0.29759512],
       [-0.28904415],
       [-0.2512608 ]], "layer2": 2, "W2": [[ 1.66872642e+00,  1.76220982e+00, -2.16872420e+00],
       [ 6.67383179e-04,  8.32663829e-02,  6.85765267e-01],
       [-1.40756492e+00,  9.63728525e-01, -5.16353925e-01],
       [-1.06652925e+00,  1.40876638e+00,  2.37942140e-01],
       [-6.26791446e-01, -2.03796401e-01,  1.38710994e+00]], "b2": [[-0.25809926],
       [-0.16500357],
       [ 0.12399034],
       [-0.13668649],
       [ 0.14118532]], "layer3": 3, "W3": [[-3.12436868,  1.37563403,  0.62660138, -0.34807595,  0.84591906]], "b3": [[0.27082748]]}, {"epoch": 93, "layer1": 1, "W1": [[-1.92756038,  0.50363849],
       [ 0.54839932,  1.09500066],
       [ 1.25250052, -2.67884182]], "b1": [[-0.29788419],
       [-0.28907428],
       [-0.25631422]], "layer2": 2, "W2": [[ 1.67532772e+00,  1.73953676e+00, -2.21297882e+00],
       [ 6.67383179e-04,  7.27919570e-02,  6.67970408e-01],
       [-1.40788194e+00,  9.52031783e-01, -5.31096638e-01],
       [-1.06629275e+00,  1.42105138e+00,  2.46658365e-01],
       [-6.26726293e-01, -2.09399087e-01,  1.37725978e+00]], "b2": [[-0.2589575 ],
       [-0.16903783],
       [ 0.12555386],
       [-0.13542531],
       [ 0.14434776]], "layer3": 3, "W3": [[-3.1473694 ,  1.38047237,  0.63142611, -0.38747445,  0.84860265]], "b3": [[0.27354901]]}, {"epoch": 94, "layer1": 1, "W1": [[-1.93002695,  0.51675389],
       [ 0.5836188 ,  1.08366044],
       [ 1.27834859, -2.69489665]], "b1": [[-0.2980077 ],
       [-0.28827624],
       [-0.26271415]], "layer2": 2, "W2": [[ 1.68245650e+00,  1.72458974e+00, -2.25833831e+00],
       [ 6.67383179e-04,  6.44404580e-02,  6.51853189e-01],
       [-1.40825005e+00,  9.40846854e-01, -5.39224087e-01],
       [-1.06601235e+00,  1.43506586e+00,  2.55155094e-01],
       [-6.26639977e-01, -2.14572314e-01,  1.36841963e+00]], "b2": [[-0.25955561],
       [-0.17279912],
       [ 0.12738404],
       [-0.13411154],
       [ 0.14772549]], "layer3": 3, "W3": [[-3.17521834,  1.38523133,  0.63378454, -0.42980421,  0.85444913]], "b3": [[0.27645015]]}, {"epoch": 95, "layer1": 1, "W1": [[-1.93227949,  0.52666789],
       [ 0.56549589,  1.04697987],
       [ 1.37246604, -2.69244637]], "b1": [[-0.29818177],
       [-0.29062477],
       [-0.2655269 ]], "layer2": 2, "W2": [[ 1.68896611e+00,  1.69110942e+00, -2.30524006e+00],
       [ 6.67383179e-04,  4.44351778e-02,  6.43666164e-01],
       [-1.40856801e+00,  9.25067592e-01, -5.58562307e-01],
       [-1.06572101e+00,  1.45170736e+00,  2.60876022e-01],
       [-6.26551200e-01, -2.25063179e-01,  1.36496487e+00]], "b2": [[-0.26195264],
       [-0.17658769],
       [ 0.1290398 ],
       [-0.13299928],
       [ 0.15129253]], "layer3": 3, "W3": [[-3.19861654,  1.39449329,  0.63774951, -0.47615963,  0.87085461]], "b3": [[0.27971588]]}, {"epoch": 96, "layer1": 1, "W1": [[-1.93458043,  0.53753536],
       [ 0.78386835,  1.07943471],
       [ 1.14274743, -2.78313499]], "b1": [[-0.29828767],
       [-0.28582104],
       [-0.27718536]], "layer2": 2, "W2": [[ 1.69554215e+00,  1.75304199e+00, -2.32256088e+00],
       [ 6.67383179e-04,  5.18838872e-03,  6.33657196e-01],
       [-1.40886643e+00,  9.03497459e-01, -5.72194348e-01],
       [-1.06541956e+00,  1.47865938e+00,  2.69282573e-01],
       [-6.26450143e-01, -2.49607463e-01,  1.35941695e+00]], "b2": [[-0.2607319 ],
       [-0.18077169],
       [ 0.13056563],
       [-0.13148318],
       [ 0.1545641 ]], "layer3": 3, "W3": [[-3.24409577,  1.40451775,  0.62950911, -0.54596688,  0.8874332 ]], "b3": [[0.28252368]]}, {"epoch": 97, "layer1": 1, "W1": [[-1.93697862,  0.55397795],
       [ 0.75889626,  1.04148438],
       [ 1.2668045 , -2.77855317]], "b1": [[-0.29821921],
       [-0.28489164],
       [-0.28265583]], "layer2": 2, "W2": [[ 1.70314299e+00,  1.69770035e+00, -2.36162846e+00],
       [ 6.67383179e-04,  1.91584830e-02,  6.45459598e-01],
       [-1.40919297e+00,  9.05663778e-01, -5.77883574e-01],
       [-1.06506762e+00,  1.48536938e+00,  2.68986136e-01],
       [-6.26285495e-01, -2.41301641e-01,  1.36850364e+00]], "b2": [[-0.2615326 ],
       [-0.18369955],
       [ 0.13269688],
       [-0.13038802],
       [ 0.15880648]], "layer3": 3, "W3": [[-3.24757389,  1.42042419,  0.65240382, -0.55736975,  0.92193754]], "b3": [[0.28633263]]}, {"epoch": 98, "layer1": 1, "W1": [[-1.93683258,  0.54140831],
       [ 0.81803212,  1.08255487],
       [ 1.29928421, -2.81850619]], "b1": [[-0.30052011],
       [-0.28149422],
       [-0.29117508]], "layer2": 2, "W2": [[ 1.70955439e+00,  1.67545464e+00, -2.40246694e+00],
       [ 6.67383179e-04,  5.99432821e-03,  5.70334529e-01],
       [-1.40950440e+00,  8.84284817e-01, -6.08741470e-01],
       [-1.06469813e+00,  1.51025758e+00,  3.02564953e-01],
       [-6.26027386e-01, -2.64098060e-01,  1.31845397e+00]], "b2": [[-0.26139684],
       [-0.1892169 ],
       [ 0.13349421],
       [-0.12802296],
       [ 0.16050595]], "layer3": 3, "W3": [[-3.26137738,  1.40477892,  0.65627251, -0.62826541,  0.86113884]], "b3": [[0.28749544]]}, {"epoch": 99, "layer1": 1, "W1": [[-1.93868093,  0.55424922],
       [ 0.74770145,  1.02208639],
       [ 1.49805606, -2.80021822]], "b1": [[-0.30069683],
       [-0.28301889],
       [-0.29340399]], "layer2": 2, "W2": [[ 1.71678678e+00,  1.60370878e+00, -2.46469903e+00],
       [ 6.67383179e-04,  2.36300569e-02,  6.15806133e-01],
       [-1.40981811e+00,  8.90281451e-01, -6.10489698e-01],
       [-1.06432877e+00,  1.51151241e+00,  2.85464570e-01],
       [-6.25828791e-01, -2.48818207e-01,  1.34889038e+00]], "b2": [[-0.26369614],
       [-0.19192723],
       [ 0.13568197],
       [-0.12729503],
       [ 0.16502732]], "layer3": 3, "W3": [[-3.28014274,  1.43378539,  0.67963148, -0.62026393,  0.92705775]], "b3": [[0.29181443]]}, {"epoch": 100, "layer1": 1, "W1": [[-1.94039392,  0.56779713],
       [ 0.84870577,  1.02934262],
       [ 1.42255   , -2.84016349]], "b1": [[-0.30085757],
       [-0.27964677],
       [-0.29996447]], "layer2": 2, "W2": [[ 1.72405472e+00,  1.61532101e+00, -2.48903073e+00],
       [ 6.67383179e-04, -1.34048516e-02,  5.95342348e-01],
       [-1.41014712e+00,  8.73892052e-01, -6.27206952e-01],
       [-1.06390867e+00,  1.53973163e+00,  2.98539685e-01],
       [-6.25590453e-01, -2.72314657e-01,  1.33590413e+00]], "b2": [[-0.26382069],
       [-0.19662929],
       [ 0.13712272],
       [-0.12561986],
       [ 0.1683489 ]], "layer3": 3, "W3": [[-3.30741356,  1.44275587,  0.68276768, -0.68355003,  0.93303938]], "b3": [[0.29461246]]}]
[{"epoch": 1, "layer1": 1, "W1": [[-1.12800833,  1.44174926],
       [-1.17802946,  0.54751385],
       [ 0.02169572,  0.19290414]], "b1": [[-0.17570118],
       [ 0.1555367 ],
       [ 0.00842593]], "layer2": 2, "W2": [[-0.76287572,  1.46740165, -0.76577446],
       [ 0.04748355, -0.25958824,  0.17141609],
       [-1.40592783,  1.28975702,  0.11696481],
       [-0.96677071,  1.2303598 ,  0.08175019],
       [-0.62280966, -0.63355124,  1.13139291]], "b2": [[ 0.05351194],
       [-0.03837635],
       [ 0.03480665],
       [-0.2096525 ],
       [ 0.09258326]], "layer3": 3, "W3": [[-0.77904391,  0.89898708, -0.55110936,  0.27317151, -0.01079955]], "b3": [[0.03095119]]}, {"epoch": 2, "layer1": 1, "W1": [[-1.04243026,  1.34001624],
       [-1.37274312,  0.90942109],
       [ 0.28061601, -0.04172285]], "b1": [[-0.17701235],
       [ 0.15701997],
       [ 0.0143037 ]], "layer2": 2, "W2": [[-0.33299322,  1.80481252, -0.75243948],
       [ 0.02998575, -0.25985573,  0.26784902],
       [-1.38267979,  1.307801  ,  0.04271854],
       [-1.01329656,  1.1829106 ,  0.08142176],
       [-0.62389165, -0.6328679 ,  1.14469508]], "b2": [[ 0.04667862],
       [-0.03146018],
       [ 0.01776828],
       [-0.21008137],
       [ 0.09408942]], "layer3": 3, "W3": [[-1.08847176,  0.9125339 , -0.49435986,  0.24041821,  0.20780782]], "b3": [[0.04680362]]}, {"epoch": 3, "layer1": 1, "W1": [[-1.04057594,  1.31469098],
       [-1.29033067,  1.15345957],
       [ 0.58556507, -0.48976729]], "b1": [[-0.17556152],
       [ 0.14936548],
       [ 0.02212045]], "layer2": 2, "W2": [[-0.20378158,  1.86458114, -0.743461  ],
       [ 0.02217684, -0.26348504,  0.54718112],
       [-1.37121485,  1.29724028, -0.01120606],
       [-1.01896623,  1.18722154,  0.08172732],
       [-0.62749985, -0.63059186,  1.26200984]], "b2": [[ 0.04381019],
       [-0.022336  ],
       [ 0.01163153],
       [-0.20867779],
       [ 0.09821022]], "layer3": 3, "W3": [[-1.14569752,  1.0203774 , -0.42089289,  0.24741709,  0.60213422]], "b3": [[0.06077304]]}, {"epoch": 4, "layer1": 1, "W1": [[-1.05960619,  1.27873468],
       [-1.16453183,  1.33912785],
       [ 0.5478293 , -0.91322474]], "b1": [[-0.17532093],
       [ 0.14111748],
       [ 0.02236557]], "layer2": 2, "W2": [[-0.14170585,  1.88078527, -0.74475502],
       [ 0.02217684, -0.26318152,  0.72407225],
       [-1.35055293,  1.30207013, -0.01227575],
       [-1.02975815,  1.18639639,  0.08174436],
       [-0.62759185, -0.63044963,  1.37897339]], "b2": [[ 0.04013113],
       [-0.02236936],
       [ 0.01215557],
       [-0.20759389],
       [ 0.09764199]], "layer3": 3, "W3": [[-1.15964086,  1.12415322, -0.36586856,  0.2589895 ,  0.81967577]], "b3": [[0.06391997]]}, {"epoch": 5, "layer1": 1, "W1": [[-1.06082127,  1.27347396],
       [-0.95985076,  1.51271941],
       [ 0.53444935, -1.17303287]], "b1": [[-0.1744368 ],
       [ 0.13504637],
       [ 0.02444207]], "layer2": 2, "W2": [[-0.1038089 ,  1.88016671, -0.74499702],
       [ 0.02217684, -0.26282076,  0.86237412],
       [-1.33955306,  1.3013403 , -0.01552206],
       [-1.03892003,  1.18662521,  0.08174436],
       [-0.62759185, -0.6340285 ,  1.48471254]], "b2": [[ 0.03893357],
       [-0.02116739],
       [ 0.0125158 ],
       [-0.20640823],
       [ 0.09519586]], "layer3": 3, "W3": [[-1.15425033,  1.21675137, -0.32114933,  0.26719399,  0.98232873]], "b3": [[0.06594478]]}, {"epoch": 6, "layer1": 1, "W1": [[-1.05772429,  1.27604097],
       [-0.77234225,  1.61486065],
       [ 0.4951774 , -1.35170595]], "b1": [[-0.17362765],
       [ 0.12634312],
       [ 0.02522746]], "layer2": 2, "W2": [[-0.0810994 ,  1.85842697, -0.74641721],
       [ 0.02217684, -0.26192141,  0.9493768 ],
       [-1.33470814,  1.29446357, -0.01682889],
       [-1.04308064,  1.19377021,  0.08174436],
       [-0.62759185, -0.63407488,  1.55631352]], "b2": [[ 0.03588879],
       [-0.0209653 ],
       [ 0.0123395 ],
       [-0.20521969],
       [ 0.09395624]], "layer3": 3, "W3": [[-1.11506115,  1.27925308, -0.26969219,  0.28609632,  1.08484878]], "b3": [[0.06836629]]}, {"epoch": 7, "layer1": 1, "W1": [[-1.05448324,  1.27766791],
       [-0.58436007,  1.72401356],
       [ 0.40598494, -1.48452078]], "b1": [[-0.1733203 ],
       [ 0.12087548],
       [ 0.02434846]], "layer2": 2, "W2": [[-0.03605358,  1.87490939, -0.74768321],
       [ 0.02217684, -0.26077414,  1.00293894],
       [-1.32919168,  1.29327829, -0.01380628],
       [-1.04991067,  1.19457827,  0.08174436],
       [-0.62759185, -0.63603499,  1.6018447 ]], "b2": [[ 0.03343842],
       [-0.02112041],
       [ 0.01219249],
       [-0.20411829],
       [ 0.09209179]], "layer3": 3, "W3": [[-1.13945914,  1.31914281, -0.23576696,  0.29037245,  1.14556029]], "b3": [[0.06995133]]}, {"epoch": 8, "layer1": 1, "W1": [[-1.05430362,  1.278376  ],
       [-0.43554238,  1.78632575],
       [ 0.36655876, -1.58133531]], "b1": [[-0.17329545],
       [ 0.11554992],
       [ 0.02374145]], "layer2": 2, "W2": [[ 0.01328199,  1.8772099 , -0.74708654],
       [ 0.02217684, -0.26249024,  1.04778551],
       [-1.33125261,  1.2835561 , -0.01323377],
       [-1.04861   ,  1.206574  ,  0.08163981],
       [-0.62759185, -0.63744242,  1.64133791]], "b2": [[ 0.03050823],
       [-0.02137236],
       [ 0.01146624],
       [-0.20272834],
       [ 0.09189103]], "layer3": 3, "W3": [[-1.14046906,  1.35387711, -0.1904686 ,  0.30420733,  1.20057145]], "b3": [[0.07281956]]}, {"epoch": 9, "layer1": 1, "W1": [[-1.05825229,  1.27434057],
       [-0.36529433,  1.79933514],
       [ 0.42837544, -1.61648443]], "b1": [[-0.17390129],
       [ 0.11013237],
       [ 0.02420943]], "layer2": 2, "W2": [[ 0.06196519,  1.85755974, -0.74611786],
       [ 0.02217684, -0.26114277,  1.07084404],
       [-1.33542251,  1.27156491, -0.01192477],
       [-1.04411105,  1.22553935,  0.08283605],
       [-0.62759185, -0.63548336,  1.66202065]], "b2": [[ 0.02672553],
       [-0.02103574],
       [ 0.01061826],
       [-0.20101924],
       [ 0.09211608]], "layer3": 3, "W3": [[-1.10778516,  1.37118865, -0.1337793 ,  0.32888837,  1.22847635]], "b3": [[0.07653582]]}, {"epoch": 10, "layer1": 1, "W1": [[-1.06543178,  1.2675389 ],
       [-0.35892709,  1.82509325],
       [ 0.46266887, -1.65503098]], "b1": [[-0.17508157],
       [ 0.10509619],
       [ 0.02525634]], "layer2": 2, "W2": [[ 0.11999806,  1.86659261, -0.74693321],
       [ 0.02217684, -0.25891726,  1.09870527],
       [-1.33743645,  1.26567462, -0.01158741],
       [-1.04203757,  1.23680728,  0.08341941],
       [-0.62759185, -0.63547672,  1.68657546]], "b2": [[ 0.02345831],
       [-0.02039338],
       [ 0.01008661],
       [-0.1994853 ],
       [ 0.09235307]], "layer3": 3, "W3": [[-1.12794096,  1.39235595, -0.0980035 ,  0.33566921,  1.26181953]], "b3": [[0.07951815]]}, {"epoch": 11, "layer1": 1, "W1": [[-1.0745521 ,  1.25747558],
       [-0.4070128 ,  1.83730596],
       [ 0.49086671, -1.68175787]], "b1": [[-0.17678027],
       [ 0.09932891],
       [ 0.02497184]], "layer2": 2, "W2": [[ 0.1713381 ,  1.87034938, -0.74888204],
       [ 0.02217684, -0.25919264,  1.11267779],
       [-1.33913921,  1.26145988, -0.01087279],
       [-1.03891113,  1.24959176,  0.08417143],
       [-0.62759185, -0.63397231,  1.69981481]], "b2": [[ 0.01982962],
       [-0.02069331],
       [ 0.00973943],
       [-0.19787154],
       [ 0.09225312]], "layer3": 3, "W3": [[-1.14075921,  1.40346273, -0.06295639,  0.34312561,  1.27874664]], "b3": [[0.08244901]]}, {"epoch": 12, "layer1": 1, "W1": [[-1.08485418,  1.24252712],
       [-0.4044394 ,  1.84994118],
       [ 0.49213108, -1.70436528]], "b1": [[-0.17892135],
       [ 0.09394171],
       [ 0.02312728]], "layer2": 2, "W2": [[ 0.20951988,  1.8642227 , -0.75170446],
       [ 0.02217684, -0.25327058,  1.11820384],
       [-1.34041583,  1.25842137, -0.01051207],
       [-1.03491774,  1.26254531,  0.08499409],
       [-0.62759185, -0.6316996 ,  1.70418342]], "b2": [[ 0.01626778],
       [-0.02113256],
       [ 0.0095356 ],
       [-0.19636032],
       [ 0.09133318]], "layer3": 3, "W3": [[-1.13863383,  1.4067388 , -0.03129986,  0.35071536,  1.28192427]], "b3": [[0.08458356]]}, {"epoch": 13, "layer1": 1, "W1": [[-1.09718747,  1.22464352],
       [-0.44762611,  1.85926453],
       [ 0.52172014, -1.73003083]], "b1": [[-0.18161133],
       [ 0.08853551],
       [ 0.02235336]], "layer2": 2, "W2": [[ 0.25075229,  1.86298849, -0.75124522],
       [ 0.02217684, -0.25802035,  1.13141392],
       [-1.3408887 ,  1.25694793, -0.01048119],
       [-1.03104208,  1.27451221,  0.08497119],
       [-0.62759185, -0.63491056,  1.71647942]], "b2": [[ 0.0122752 ],
       [-0.02160493],
       [ 0.00942261],
       [-0.19470366],
       [ 0.09111866]], "layer3": 3, "W3": [[-1.14485109,  1.41826209, -0.00352607,  0.35546805,  1.2993607 ]], "b3": [[0.08797637]]}, {"epoch": 14, "layer1": 1, "W1": [[-1.11148016,  1.20238433],
       [-0.43464904,  1.88111529],
       [ 0.47147472, -1.76084021]], "b1": [[-0.18459299],
       [ 0.08373259],
       [ 0.0202742 ]], "layer2": 2, "W2": [[ 0.28642095,  1.8658873 , -0.75253411],
       [ 0.02217684, -0.25770284,  1.13085045],
       [-1.34079635,  1.25686494, -0.01076406],
       [-1.02773393,  1.28330207,  0.0848689 ],
       [-0.62759185, -0.63588997,  1.71549164]], "b2": [[ 0.00875686],
       [-0.02210865],
       [ 0.00942585],
       [-0.19340106],
       [ 0.09042788]], "layer3": 3, "W3": [[-1.15842959,  1.41791083,  0.01587593,  0.3552845 ,  1.29707687]], "b3": [[0.09011707]]}, {"epoch": 15, "layer1": 1, "W1": [[-1.12744212,  1.17763715],
       [-0.42861518,  1.89636413],
       [ 0.5246606 , -1.77426892]], "b1": [[-0.1877698 ],
       [ 0.07923133],
       [ 0.02040581]], "layer2": 2, "W2": [[ 0.32268597,  1.86196221, -0.75336979],
       [ 0.02217684, -0.25572252,  1.14025205],
       [-1.34067168,  1.25682878, -0.01108391],
       [-1.02414864,  1.29384213,  0.08515868],
       [-0.62759185, -0.6364891 ,  1.72359784]], "b2": [[ 0.00515845],
       [-0.02177519],
       [ 0.00951261],
       [-0.19190107],
       [ 0.09016082]], "layer3": 3, "W3": [[-1.16337244,  1.42478921,  0.04082051,  0.35872515,  1.3075836 ]], "b3": [[0.09293151]]}, {"epoch": 16, "layer1": 1, "W1": [[-1.1434047 ,  1.1480471 ],
       [-0.35683911,  1.92619152],
       [ 0.42917632, -1.79720598]], "b1": [[-0.19141544],
       [ 0.07562754],
       [ 0.01522111]], "layer2": 2, "W2": [[ 0.35321701,  1.86394807, -0.75345703],
       [ 0.02217684, -0.25067943,  1.12742631],
       [-1.33984244,  1.25797995, -0.01239532],
       [-1.02052736,  1.30289623,  0.08568675],
       [-0.62759185, -0.63537674,  1.71105535]], "b2": [[ 0.00228619],
       [-0.0230537 ],
       [ 0.0096182 ],
       [-0.19043714],
       [ 0.08822823]], "layer3": 3, "W3": [[-1.17619771,  1.41412311,  0.05781943,  0.35862483,  1.28652214]], "b3": [[0.09434919]]}, {"epoch": 17, "layer1": 1, "W1": [[-1.16267333,  1.11350102],
       [-0.41075954,  1.92247045],
       [ 0.48808369, -1.80590859]], "b1": [[-0.19538308],
       [ 0.07078527],
       [ 0.01539933]], "layer2": 2, "W2": [[ 0.38778899,  1.85167764, -0.75553539],
       [ 0.02217684, -0.24684065,  1.13866242],
       [-1.33871151,  1.26071921, -0.01339401],
       [-1.01676678,  1.31610428,  0.08627252],
       [-0.62759185, -0.63532619,  1.72060486]], "b2": [[-0.00147026],
       [-0.02241542],
       [ 0.00989007],
       [-0.18879004],
       [ 0.08808506]], "layer3": 3, "W3": [[-1.16959087,  1.42201692,  0.08911422,  0.36945264,  1.29896822]], "b3": [[0.09750549]]}, {"epoch": 18, "layer1": 1, "W1": [[-1.1821034 ,  1.07748447],
       [-0.35943566,  1.94496091],
       [ 0.39232263, -1.83605182]], "b1": [[-0.19942299],
       [ 0.06796911],
       [ 0.01324001]], "layer2": 2, "W2": [[ 0.42096772,  1.85054464, -0.7560485 ],
       [ 0.02217684, -0.24768629,  1.13740119],
       [-1.3375376 ,  1.26287012, -0.01525611],
       [-1.01392768,  1.32467137,  0.08663648],
       [-0.62759185, -0.63653643,  1.71960474]], "b2": [[-0.00440436],
       [-0.02321343],
       [ 0.01012765],
       [-0.18739455],
       [ 0.08729684]], "layer3": 3, "W3": [[-1.18100419,  1.42159368,  0.10801588,  0.37007081,  1.29627873]], "b3": [[0.09962864]]}, {"epoch": 19, "layer1": 1, "W1": [[-1.20264636,  1.0396916 ],
       [-0.35141687,  1.96104079],
       [ 0.43337632, -1.8519222 ]], "b1": [[-0.20377091],
       [ 0.0647325 ],
       [ 0.01397081]], "layer2": 2, "W2": [[ 0.45644783,  1.85627591, -0.7565058 ],
       [ 0.02217684, -0.24623111,  1.14895972],
       [-1.33639362,  1.26441857, -0.01690539],
       [-1.01250933,  1.32944669,  0.0866647 ],
       [-0.62759185, -0.63586804,  1.72985396]], "b2": [[-0.00729237],
       [-0.02260887],
       [ 0.01046253],
       [-0.18607046],
       [ 0.08740928]], "layer3": 3, "W3": [[-1.20577386,  1.43014481,  0.122824  ,  0.36332361,  1.31010498]], "b3": [[0.10243255]]}, {"epoch": 20, "layer1": 1, "W1": [[-1.22592342,  0.99828834],
       [-0.36662626,  1.97230364],
       [ 0.42560902, -1.85073633]], "b1": [[-0.2083514 ],
       [ 0.06182818],
       [ 0.01082186]], "layer2": 2, "W2": [[ 0.49639572,  1.8612142 , -0.75794169],
       [ 0.02217684, -0.24056677,  1.14179119],
       [-1.33517918,  1.26716889, -0.01956569],
       [-1.01158145,  1.33679836,  0.08867425],
       [-0.62759185, -0.62912915,  1.7235914 ]], "b2": [[-0.01004913],
       [-0.02368675],
       [ 0.01081112],
       [-0.18448388],
       [ 0.08647317]], "layer3": 3, "W3": [[-1.23138324,  1.42378945,  0.14275539,  0.36403466,  1.29706138]], "b3": [[0.10432449]]}, {"epoch": 21, "layer1": 1, "W1": [[-1.24929093,  0.9494542 ],
       [-0.32484832,  1.9891489 ],
       [ 0.40558296, -1.86998835]], "b1": [[-0.21363502],
       [ 0.0591754 ],
       [ 0.00907102]], "layer2": 2, "W2": [[ 0.5326513 ,  1.85648365, -0.75601246],
       [ 0.02217684, -0.23948537,  1.14852892],
       [-1.33403832,  1.27056017, -0.02250404],
       [-1.01076808,  1.34488034,  0.08935692],
       [-0.62759185, -0.63297397,  1.72851242]], "b2": [[-0.01309835],
       [-0.02368635],
       [ 0.01125689],
       [-0.18305445],
       [ 0.08572872]], "layer3": 3, "W3": [[-1.24025105,  1.42894269,  0.16733667,  0.3704369 ,  1.30393058]], "b3": [[0.10709368]]}, {"epoch": 22, "layer1": 1, "W1": [[-1.27054984,  0.89629285],
       [-0.38584197,  1.97534058],
       [ 0.48483838, -1.87962261]], "b1": [[-0.21913061],
       [ 0.05305759],
       [ 0.01022706]], "layer2": 2, "W2": [[ 0.56411661,  1.83122171, -0.7565574 ],
       [ 0.02217684, -0.23944993,  1.16073064],
       [-1.33265151,  1.27745349, -0.02545068],
       [-1.00967354,  1.35835697,  0.08972791],
       [-0.62759185, -0.63308246,  1.73975017]], "b2": [[-0.01824313],
       [-0.02340023],
       [ 0.01195412],
       [-0.18120774],
       [ 0.0860245 ]], "layer3": 3, "W3": [[-1.21972171,  1.43860981,  0.21012003,  0.38951184,  1.31926058]], "b3": [[0.11125175]]}, {"epoch": 23, "layer1": 1, "W1": [[-1.29410014,  0.85447802],
       [-0.35478819,  2.00603488],
       [ 0.43260844, -1.88913981]], "b1": [[-0.2237526 ],
       [ 0.05101919],
       [ 0.00777129]], "layer2": 2, "W2": [[ 0.60632347,  1.85735449, -0.75918262],
       [ 0.02217684, -0.23681477,  1.15159622],
       [-1.3327712 ,  1.27651918, -0.02996249],
       [-1.01126661,  1.35709431,  0.09112675],
       [-0.62759185, -0.62985646,  1.7316271 ]], "b2": [[-0.02073031],
       [-0.02421245],
       [ 0.01230508],
       [-0.17986772],
       [ 0.08537341]], "layer3": 3, "W3": [[-1.28176671,  1.43109363,  0.20965753,  0.37048905,  1.30570753]], "b3": [[0.11259415]]}, {"epoch": 24, "layer1": 1, "W1": [[-1.31664828,  0.80466386],
       [-0.3538023 ,  2.02252773],
       [ 0.5204104 , -1.89793555]], "b1": [[-0.22895676],
       [ 0.04761754],
       [ 0.00955799]], "layer2": 2, "W2": [[ 0.64410762,  1.86747107, -0.75862246],
       [ 0.02217684, -0.23799842,  1.16579028],
       [-1.3328364 ,  1.27785497, -0.0322467 ],
       [-1.01327175,  1.35901683,  0.09127031],
       [-0.62759185, -0.62922228,  1.74499843]], "b2": [[-0.02422112],
       [-0.0238285 ],
       [ 0.0131053 ],
       [-0.17838788],
       [ 0.0859637 ]], "layer3": 3, "W3": [[-1.317122  ,  1.44251951,  0.22393617,  0.36188602,  1.32409293]], "b3": [[0.11596118]]}, {"epoch": 25, "layer1": 1, "W1": [[-1.3378514 ,  0.75125487],
       [-0.2978327 ,  2.03619147],
       [ 0.4469701 , -1.91050989]], "b1": [[-0.23414505],
       [ 0.0451665 ],
       [ 0.00523161]], "layer2": 2, "W2": [[ 0.67939153,  1.86219394, -0.75824833],
       [ 0.02217684, -0.23738073,  1.15509208],
       [-1.33293921,  1.28166167, -0.03377927],
       [-1.01452686,  1.36558861,  0.09260505],
       [-0.62759185, -0.62625577,  1.73567663]], "b2": [[-0.02735962],
       [-0.0253525 ],
       [ 0.01386817],
       [-0.17691358],
       [ 0.08480869]], "layer3": 3, "W3": [[-1.33014746,  1.43440792,  0.25075694,  0.36879695,  1.3084531 ]], "b3": [[0.11779113]]}, {"epoch": 26, "layer1": 1, "W1": [[-1.35955335,  0.7006518 ],
       [-0.36469633,  2.01933646],
       [ 0.51896348, -1.91791619]], "b1": [[-0.23889955],
       [ 0.0400745 ],
       [ 0.00484592]], "layer2": 2, "W2": [[ 0.71523202,  1.83564789, -0.75905575],
       [ 0.02217684, -0.23568889,  1.16349208],
       [-1.33339813,  1.29000311, -0.03485085],
       [-1.0161731 ,  1.37738903,  0.09414739],
       [-0.62759185, -0.62440517,  1.74348964]], "b2": [[-0.03234713],
       [-0.02538942],
       [ 0.015127  ],
       [-0.17499997],
       [ 0.08480637]], "layer3": 3, "W3": [[-1.3169525 ,  1.44078284,  0.29874346,  0.39112932,  1.31810255]], "b3": [[0.12189642]]}, {"epoch": 27, "layer1": 1, "W1": [[-1.38172529,  0.65009111],
       [-0.31730124,  2.03956532],
       [ 0.44844876, -1.9290691 ]], "b1": [[-0.24366064],
       [ 0.03689158],
       [ 0.0008295 ]], "layer2": 2, "W2": [[ 0.7528304 ,  1.8449287 , -0.76053082],
       [ 0.02217684, -0.23388242,  1.15061226],
       [-1.33506988,  1.29058785, -0.03643727],
       [-1.01918454,  1.37832821,  0.09535433],
       [-0.62759185, -0.62268455,  1.73185613]], "b2": [[-0.03589026],
       [-0.02672765],
       [ 0.01608137],
       [-0.17364658],
       [ 0.08340738]], "layer3": 3, "W3": [[-1.35477574,  1.43070252,  0.31347353,  0.38570439,  1.29930079]], "b3": [[0.12369043]]}, {"epoch": 28, "layer1": 1, "W1": [[-1.40379819,  0.60222664],
       [-0.27978623,  2.05491071],
       [ 0.40414578, -1.94926615]], "b1": [[-0.24803313],
       [ 0.0340625 ],
       [-0.00185915]], "layer2": 2, "W2": [[ 0.78990233,  1.84878527, -0.76219607],
       [ 0.02217684, -0.23054902,  1.15309207],
       [-1.33720767,  1.29223385, -0.04125826],
       [-1.02256216,  1.38095891,  0.09692098],
       [-0.62759185, -0.62441417,  1.73329876]], "b2": [[-0.03965918],
       [-0.02703026],
       [ 0.01691221],
       [-0.17206133],
       [ 0.08231654]], "layer3": 3, "W3": [[-1.38603752,  1.4321949 ,  0.33438828,  0.38362166,  1.30012028]], "b3": [[0.12620846]]}, {"epoch": 29, "layer1": 1, "W1": [[-1.42666915,  0.57238765],
       [-0.29474698,  2.06473341],
       [ 0.37359191, -1.96418552]], "b1": [[-0.25109817],
       [ 0.03033859],
       [-0.00446218]], "layer2": 2, "W2": [[ 0.82889089,  1.85691752, -0.7678476 ],
       [ 0.02217684, -0.22980687,  1.15126406],
       [-1.34007896,  1.29289671, -0.04704345],
       [-1.02625866,  1.38214551,  0.09883656],
       [-0.62759185, -0.62404068,  1.73180528]], "b2": [[-0.04387982],
       [-0.02800009],
       [ 0.01780061],
       [-0.17059862],
       [ 0.08141004]], "layer3": 3, "W3": [[-1.42662583,  1.43101633,  0.35204971,  0.37896457,  1.29641918]], "b3": [[0.12869861]]}, {"epoch": 30, "layer1": 1, "W1": [[-1.44679372,  0.55093752],
       [-0.27791526,  2.07567095],
       [ 0.41917504, -1.98353281]], "b1": [[-0.25373213],
       [ 0.02688495],
       [-0.00426859]], "layer2": 2, "W2": [[ 0.86348201,  1.86244971, -0.76703415],
       [ 0.02217684, -0.23052524,  1.16093026],
       [-1.34283012,  1.29240011, -0.04894198],
       [-1.02961432,  1.38244074,  0.09915475],
       [-0.62759185, -0.62561393,  1.7404515 ]], "b2": [[-0.04777345],
       [-0.02770616],
       [ 0.01920437],
       [-0.16920277],
       [ 0.08172578]], "layer3": 3, "W3": [[-1.45885493,  1.43852323,  0.36894739,  0.37296948,  1.3096187 ]], "b3": [[0.13217522]]}, {"epoch": 31, "layer1": 1, "W1": [[-1.46842269,  0.5216685 ],
       [-0.27821994,  2.07277698],
       [ 0.36517343, -1.99206886]], "b1": [[-0.25648687],
       [ 0.02286585],
       [-0.00852773]], "layer2": 2, "W2": [[ 0.89900031,  1.84761625, -0.76964856],
       [ 0.02217684, -0.22795626,  1.1519669 ],
       [-1.34550252,  1.29896119, -0.04993016],
       [-1.03276367,  1.38925357,  0.10137253],
       [-0.62759185, -0.6232912 ,  1.73263121]], "b2": [[-0.05242659],
       [-0.02921122],
       [ 0.02074808],
       [-0.167582  ],
       [ 0.0801767 ]], "layer3": 3, "W3": [[-1.46821213,  1.43147721,  0.40509551,  0.3857711 ,  1.29578981]], "b3": [[0.13483884]]}, {"epoch": 32, "layer1": 1, "W1": [[-1.48676242,  0.51093922],
       [-0.33255279,  2.05632731],
       [ 0.47555436, -1.99702365]], "b1": [[-0.25791782],
       [ 0.01705405],
       [-0.00646248]], "layer2": 2, "W2": [[ 0.92877165,  1.81749058, -0.77112821],
       [ 0.02217684, -0.2235798 ,  1.16725229],
       [-1.34796875,  1.31011341, -0.05510049],
       [-1.03551927,  1.39943397,  0.10203887],
       [-0.62759185, -0.62112626,  1.74626158]], "b2": [[-0.05823541],
       [-0.02825027],
       [ 0.02239516],
       [-0.16563889],
       [ 0.08050733]], "layer3": 3, "W3": [[-1.45722223,  1.44240619,  0.45253587,  0.40494536,  1.31374882]], "b3": [[0.13934283]]}, {"epoch": 33, "layer1": 1, "W1": [[-1.50697162,  0.5133432 ],
       [-0.23814592,  2.08399117],
       [ 0.39604656, -2.01405888]], "b1": [[-0.25859324],
       [ 0.01424999],
       [-0.01006865]], "layer2": 2, "W2": [[ 0.96030663,  1.83782474, -0.77299895],
       [ 0.02217684, -0.22110262,  1.15941035],
       [-1.35114116,  1.30608458, -0.0561194 ],
       [-1.03864747,  1.39577602,  0.10361414],
       [-0.62759185, -0.6206527 ,  1.73887275]], "b2": [[-0.06166221],
       [-0.02935281],
       [ 0.02382451],
       [-0.16442456],
       [ 0.07943793]], "layer3": 3, "W3": [[-1.50789895,  1.43625961,  0.45543863,  0.38762478,  1.30176048]], "b3": [[0.14140154]]}, {"epoch": 34, "layer1": 1, "W1": [[-1.52481265,  0.49903732],
       [-0.34972909,  2.05229037],
       [ 0.58133028, -1.98599658]], "b1": [[-0.26026159],
       [ 0.00646341],
       [-0.00729957]], "layer2": 2, "W2": [[ 0.98900187,  1.80306805, -0.78132217],
       [ 0.02217684, -0.20606341,  1.1637475 ],
       [-1.3534988 ,  1.31897071, -0.06033677],
       [-1.04084756,  1.40630443,  0.10714945],
       [-0.62759185, -0.60888272,  1.74244925]], "b2": [[-0.06864096],
       [-0.02865018],
       [ 0.02593491],
       [-0.16240935],
       [ 0.07982742]], "layer3": 3, "W3": [[-1.49789809,  1.43707661,  0.50369793,  0.40906957,  1.30161359]], "b3": [[0.14581701]]}, {"epoch": 35, "layer1": 1, "W1": [[-1.54310516,  0.4959297 ],
       [-0.20704062,  2.09028624],
       [ 0.42983464, -2.01316535]], "b1": [[-0.26129795],
       [ 0.00512018],
       [-0.01280566]], "layer2": 2, "W2": [[ 1.01725458,  1.83467085, -0.78084303],
       [ 0.02217684, -0.20401331,  1.14968196],
       [-1.35639013,  1.31054602, -0.06166325],
       [-1.04351829,  1.39995989,  0.10996718],
       [-0.62759185, -0.60898034,  1.72897794]], "b2": [[-0.07148528],
       [-0.02998039],
       [ 0.0272748 ],
       [-0.16122635],
       [ 0.07819716]], "layer3": 3, "W3": [[-1.55812774,  1.42614286,  0.4941578 ,  0.38256415,  1.28052394]], "b3": [[0.147406]]}, {"epoch": 36, "layer1": 1, "W1": [[-1.5614167 ,  0.49722172],
       [-0.28294584,  2.07759784],
       [ 0.47597277, -2.01490082]], "b1": [[-0.26186479],
       [-0.00105829],
       [-0.01255985]], "layer2": 2, "W2": [[ 1.0444759 ,  1.8291052 , -0.78844563],
       [ 0.02217684, -0.19487012,  1.15264333],
       [-1.35894443,  1.31281535, -0.06848538],
       [-1.04571985,  1.40183232,  0.11342747],
       [-0.62759185, -0.60154111,  1.73151984]], "b2": [[-0.07741003],
       [-0.03011642],
       [ 0.02889252],
       [-0.15955677],
       [ 0.07802002]], "layer3": 3, "W3": [[-1.58263046,  1.42719543,  0.51417363,  0.37803056,  1.28037365]], "b3": [[0.15066979]]}, {"epoch": 37, "layer1": 1, "W1": [[-1.57741814,  0.50740173],
       [-0.25758256,  2.07547424],
       [ 0.62325077, -2.00387011]], "b1": [[-0.26187832],
       [-0.00620994],
       [-0.01013404]], "layer2": 2, "W2": [[ 1.06843858,  1.81740793, -0.79398245],
       [ 0.02217684, -0.18438723,  1.16602731],
       [-1.36126117,  1.31873818, -0.07006326],
       [-1.04756907,  1.40658557,  0.11782657],
       [-0.62759185, -0.59284684,  1.7434689 ]], "b2": [[-0.08246681],
       [-0.02932295],
       [ 0.03076125],
       [-0.15794714],
       [ 0.07886194]], "layer3": 3, "W3": [[-1.59563477,  1.43610138,  0.53980621,  0.38313451,  1.29402747]], "b3": [[0.15417886]]}, {"epoch": 38, "layer1": 1, "W1": [[-1.59460274,  0.50382544],
       [-0.24485438,  2.09156387],
       [ 0.42746793, -2.05683124]], "b1": [[-0.26303949],
       [-0.00925493],
       [-0.01438568]], "layer2": 2, "W2": [[ 1.09562496,  1.83872047, -0.79351631],
       [ 0.02217684, -0.18525205,  1.16221611],
       [-1.36386349,  1.31300214, -0.07562307],
       [-1.04964923,  1.40244998,  0.12044077],
       [-0.62759185, -0.59612198,  1.73927553]], "b2": [[-0.08670374],
       [-0.03037005],
       [ 0.03252508],
       [-0.15669034],
       [ 0.07804814]], "layer3": 3, "W3": [[-1.6451459 ,  1.43377159,  0.53904491,  0.3604042 ,  1.28814796]], "b3": [[0.1570088]]}, {"epoch": 39, "layer1": 1, "W1": [[-1.6071438 ,  0.50084864],
       [-0.18236332,  2.08668949],
       [ 0.32696376, -2.06886444]], "b1": [[-0.26424389],
       [-0.01386004],
       [-0.01914937]], "layer2": 2, "W2": [[ 1.11640037,  1.81792855, -0.79772219],
       [ 0.02217684, -0.17510024,  1.1517028 ],
       [-1.36557195,  1.32122414, -0.0832109 ],
       [-1.05097498,  1.40783424,  0.12407152],
       [-0.62759185, -0.59106874,  1.72872711]], "b2": [[-0.09147782],
       [-0.03166834],
       [ 0.0339404 ],
       [-0.15546345],
       [ 0.07684307]], "layer3": 3, "W3": [[-1.64639718,  1.42469354,  0.5684774 ,  0.37115997,  1.26937304]], "b3": [[0.15926769]]}, {"epoch": 40, "layer1": 1, "W1": [[-1.61949992,  0.48956658],
       [-0.24886334,  2.0764778 ],
       [ 0.3387969 , -2.09176767]], "b1": [[-0.2658301 ],
       [-0.02000454],
       [-0.01773247]], "layer2": 2, "W2": [[ 1.13698102,  1.80972399, -0.79979626],
       [ 0.02217684, -0.17523723,  1.16375266],
       [-1.36768875,  1.32470475, -0.08748229],
       [-1.05247461,  1.40998648,  0.12611422],
       [-0.62759185, -0.59065298,  1.73959262]], "b2": [[-0.09772439],
       [-0.03122171],
       [ 0.03636626],
       [-0.15389877],
       [ 0.07766267]], "layer3": 3, "W3": [[-1.66323266,  1.43412352,  0.58830686,  0.36670719,  1.28544941]], "b3": [[0.16380428]]}, {"epoch": 41, "layer1": 1, "W1": [[-1.63127585,  0.49444382],
       [-0.25131101,  2.06912386],
       [ 0.3854981 , -2.10533414]], "b1": [[-0.26644904],
       [-0.02565067],
       [-0.01711825]], "layer2": 2, "W2": [[ 1.15511446,  1.79524487, -0.80027113],
       [ 0.02217684, -0.17193933,  1.1759152 ],
       [-1.36950515,  1.33033415, -0.09651033],
       [-1.05371133,  1.41303355,  0.12873705],
       [-0.62759185, -0.58991746,  1.74981913]], "b2": [[-0.1032045 ],
       [-0.03088836],
       [ 0.03798828],
       [-0.15262134],
       [ 0.07795197]], "layer3": 3, "W3": [[-1.67083712,  1.44329674,  0.61170688,  0.36839696,  1.29961067]], "b3": [[0.1673921]]}, {"epoch": 42, "layer1": 1, "W1": [[-1.64229416,  0.50013695],
       [-0.27068327,  2.06523009],
       [ 0.4098809 , -2.12070813]], "b1": [[-0.26678906],
       [-0.03094176],
       [-0.01729631]], "layer2": 2, "W2": [[ 1.17244065,  1.79468372, -0.80202307],
       [ 0.02217684, -0.16736023,  1.17891249],
       [-1.37133695,  1.3310958 , -0.10035533],
       [-1.05490811,  1.41358487,  0.13147804],
       [-0.62759185, -0.58652341,  1.75216923]], "b2": [[-0.10871463],
       [-0.03097485],
       [ 0.04038433],
       [-0.15119623],
       [ 0.07845317]], "layer3": 3, "W3": [[-1.69375675,  1.44514625,  0.62431044,  0.35872301,  1.30225838]], "b3": [[0.17114826]]}, {"epoch": 43, "layer1": 1, "W1": [[-1.65187379,  0.50368649],
       [-0.26997201,  2.06046421],
       [ 0.51734734, -2.09891272]], "b1": [[-0.2672623 ],
       [-0.03716215],
       [-0.01742292]], "layer2": 2, "W2": [[ 1.18800453,  1.79458437, -0.80769648],
       [ 0.02217684, -0.15607617,  1.1724885 ],
       [-1.37290948,  1.33143323, -0.10352677],
       [-1.05590307,  1.41359783,  0.13531253],
       [-0.62759185, -0.57604044,  1.74615071]], "b2": [[-0.11412663],
       [-0.03135827],
       [ 0.04222639],
       [-0.14999236],
       [ 0.07852503]], "layer3": 3, "W3": [[-1.71796693,  1.43885014,  0.63404872,  0.34948545,  1.28938653]], "b3": [[0.17351901]]}, {"epoch": 44, "layer1": 1, "W1": [[-1.66076013,  0.49737962],
       [-0.24968088,  2.04864089],
       [ 0.45141095, -2.11823298]], "b1": [[-0.26852767],
       [-0.04400312],
       [-0.02042501]], "layer2": 2, "W2": [[ 1.20411938,  1.77566815, -0.81279467],
       [ 0.02217684, -0.14984659,  1.16815835],
       [-1.37439664,  1.33786458, -0.11073152],
       [-1.05679247,  1.41712428,  0.13915695],
       [-0.62759185, -0.573707  ,  1.74145012]], "b2": [[-0.12043349],
       [-0.03244051],
       [ 0.04396836],
       [-0.14875731],
       [ 0.07768396]], "layer3": 3, "W3": [[-1.72496282,  1.43536982,  0.65656978,  0.35364918,  1.28018103]], "b3": [[0.17617897]]}, {"epoch": 45, "layer1": 1, "W1": [[-1.67141597,  0.50047069],
       [-0.23490914,  2.0422611 ],
       [ 0.37657588, -2.13541474]], "b1": [[-0.26900591],
       [-0.05016153],
       [-0.02307218]], "layer2": 2, "W2": [[ 1.22095925,  1.76285396, -0.81791879],
       [ 0.02217684, -0.14307954,  1.16420956],
       [-1.37588194,  1.34272783, -0.1110129 ],
       [-1.05765905,  1.41917062,  0.14293772],
       [-0.62759185, -0.57214675,  1.73693888]], "b2": [[-0.12642915],
       [-0.0329493 ],
       [ 0.0465295 ],
       [-0.14753787],
       [ 0.0770533 ]], "layer3": 3, "W3": [[-1.73804005,  1.43185621,  0.67609893,  0.35377432,  1.27197537]], "b3": [[0.17922486]]}, {"epoch": 46, "layer1": 1, "W1": [[-1.6793888 ,  0.50014057],
       [-0.25885556,  2.05012682],
       [ 0.56322101, -2.1226119 ]], "b1": [[-0.27006736],
       [-0.05602893],
       [-0.01956122]], "layer2": 2, "W2": [[ 1.23648549,  1.79442991, -0.82203488],
       [ 0.02217684, -0.13768459,  1.17501829],
       [-1.37762012,  1.3311228 , -0.11420974],
       [-1.05862233,  1.41272901,  0.14732611],
       [-0.62759185, -0.56695301,  1.74702697]], "b2": [[-0.13174966],
       [-0.03255567],
       [ 0.04854667],
       [-0.14643029],
