[{"epoch": 1, "layer1": 1, "Wmean1": -0.1945383651710789, "Wmax1": 2.06395070941053, "Wmin1": -1.9774054944629826, "Wstd1": 1.0424504471640008, "bmean1": -0.25171741426094646, "bmax1": 0.7172185274318811, "bmin1": -0.9365412647333685, "bstd1": 0.704400512411718, "A1": [[0.9998649491339227, 0.9997936152166491, 2.8171815448163366e-10, 2.002653647674532e-08, 1.1742019367117709e-05, 5.664726797635964e-11, 0.001211265736701202, 0.0008139119916351515, 0.9997689841959315, 1.1296585167435232e-05, 0.9985959060592229, 0.9984028743510909, 0.9998226074386166, 1.253643025770469e-11, 0.001299864934444491, 0.000774767384679697, 0.00022805997736163983, 2.1807434380793377e-06, 0.9999098691415884, 0.00022684123734769925, 0.9998261139576331, 0.999910721545691, 0.9995475541520364, 0.9996267081236991, 0.0035803591616564868, 0.9998808956806859],
 [0.00013505086603641484, 0.0002063847833290263, 8.239356864544121e-06, 0.002097580499984373, 0.021151133054764834, 4.826685799342948e-06, 0.9987885035353681, 0.9991860701796096, 0.00023101580404069622, 0.54374010598736, 0.0014040939401471653, 0.0015971256479072958, 0.00017739256137589034, 0.00036190498708128495, 0.9942645419017876, 0.9782739762656131, 0.9648938622642531, 0.008518970335942674, 9.013085841050246e-05, 0.9997728800783864, 0.0001738860423648585, 8.927845427001636e-05, 0.00045244584793302327, 0.0003732918761553147, 0.9964195797022308, 0.00011910431930760593],
 [4.085471128131086e-14, 2.1906084486433804e-14, 0.9999917603614172, 0.9979023994734791, 0.9788371249258682, 0.9999951732575533, 2.3072793066647965e-07, 1.782875521923206e-08, 2.796435448435272e-14, 0.45624859742747265, 6.299803187654944e-13, 1.0018698176504455e-12, 7.471186930152594e-15, 0.9996380950003823, 0.004435593163767952, 0.020951256349707324, 0.03487807775838517, 0.9914788489206193, 1.1408543973427047e-15, 2.7868426569603775e-07, 2.094502970943095e-15, 3.8864705725898896e-14, 3.0562326609679735e-14, 1.4546384318382631e-13, 6.113611275876678e-08, 6.414153499767798e-15]],
 "Z1": [[10.013909328539997, 10.130579885718156, -13.847748768115132, -12.882973322160451, -8.600065106660066, -14.911417071210757, -1.7825943774022877, -1.616521921963102, 10.122486021389435, -9.880960682195635, 8.340982444834852, 8.551684351046157, 10.564839000802941, -18.80135288692913, -4.214304992505434, -5.209497420453395, -6.574937548275711, -9.555965264839518, 11.27315486900432, -3.297886477170032, 10.934438271679666, 9.984431120154866, 9.664754784874626, 9.209194754513835, -0.7777300716509578, 10.771643143877748],
 [1.1041853234895296, 1.6450180405460744, -3.564223038654922, -1.3237364444965558, -1.10379015832024, -3.5585902109575853, 4.932282794405104, 5.496322132987066, 1.749692629859621, 0.9007655006632279, 1.7740244587591198, 2.113733018077983, 1.9278709887675398, -1.623099444450184, 2.425437954987995, 1.9314847931634684, 1.7752271857411603, -1.2855803502148322, 1.9589970426208363, 5.093146557230388, 2.2775017705949803, 0.6607700298297171, 1.9643648580452173, 1.3164181815590337, 4.850975242122333, 1.7362514392566704],
 [-20.814709860484705, -21.321225674443415, 8.14235698918094, 4.841134493275834, 2.730881625163458, 8.682755458018722, -10.348531584561314, -12.345316827120321, -21.085128686005778, 0.7253319450716061, -19.750700290628647, -19.07587029075123, -21.962706106362475, 6.300667432261959, -2.986904002117641, -1.9121063634406892, -1.54493243487373, 3.4713217841635835, -23.133753937939677, -9.999812657164718, -22.864847942214983, -20.894169461361933, -21.453800967887506, -20.349280723554404, -11.755601014385597, -21.908507106648045]],
 "W1": [[-0.2951972324824378, 1.3818614507139266, -1.2414418980901074, -0.5012649384009807, 0.47613931455206204, -0.4729031438274058, -0.5060437354158513, 1.1869476074193346, 0.5766125061757457, -1.868410002499559],
 [0.5497448041752363, -0.6618308779519283, -0.9735903666046979, -0.9888101307048169, 0.11475069973298312, -0.7730089153593803, -0.22312022795994135, 0.573429484144882, -1.2637695477366082, 0.9668584207573123],
 [-1.1685923889891685, -0.49775712250522425, 0.8678411477930613, 1.7555058634315726, -1.9774054944629826, 2.06395070941053, -0.39600889610799017, -1.9103614662137556, -0.00031417394266135214, -0.629962404183517]],
 "b1": [[-0.5358295054813519],
 [0.7172185274318811],
 [-0.9365412647333685]],
 "layer2": 2, "Wmean2": -0.1945383651710789, "Wmax2": 2.06395070941053, "Wmin2": -1.9774054944629826, "Wstd2": 1.0424504471640008, "bmean2": -0.25171741426094646, "bmax2": 0.7172185274318811, "bmin2": -0.9365412647333685, "bstd2": 0.704400512411718, "A2": [[0.9998649491339227, 0.9997936152166491, 2.8171815448163366e-10, 2.002653647674532e-08, 1.1742019367117709e-05, 5.664726797635964e-11, 0.001211265736701202, 0.0008139119916351515, 0.9997689841959315, 1.1296585167435232e-05, 0.9985959060592229, 0.9984028743510909, 0.9998226074386166, 1.253643025770469e-11, 0.001299864934444491, 0.000774767384679697, 0.00022805997736163983, 2.1807434380793377e-06, 0.9999098691415884, 0.00022684123734769925, 0.9998261139576331, 0.999910721545691, 0.9995475541520364, 0.9996267081236991, 0.0035803591616564868, 0.9998808956806859],
 [0.00013505086603641484, 0.0002063847833290263, 8.239356864544121e-06, 0.002097580499984373, 0.021151133054764834, 4.826685799342948e-06, 0.9987885035353681, 0.9991860701796096, 0.00023101580404069622, 0.54374010598736, 0.0014040939401471653, 0.0015971256479072958, 0.00017739256137589034, 0.00036190498708128495, 0.9942645419017876, 0.9782739762656131, 0.9648938622642531, 0.008518970335942674, 9.013085841050246e-05, 0.9997728800783864, 0.0001738860423648585, 8.927845427001636e-05, 0.00045244584793302327, 0.0003732918761553147, 0.9964195797022308, 0.00011910431930760593],
 [4.085471128131086e-14, 2.1906084486433804e-14, 0.9999917603614172, 0.9979023994734791, 0.9788371249258682, 0.9999951732575533, 2.3072793066647965e-07, 1.782875521923206e-08, 2.796435448435272e-14, 0.45624859742747265, 6.299803187654944e-13, 1.0018698176504455e-12, 7.471186930152594e-15, 0.9996380950003823, 0.004435593163767952, 0.020951256349707324, 0.03487807775838517, 0.9914788489206193, 1.1408543973427047e-15, 2.7868426569603775e-07, 2.094502970943095e-15, 3.8864705725898896e-14, 3.0562326609679735e-14, 1.4546384318382631e-13, 6.113611275876678e-08, 6.414153499767798e-15]],
 "Z2": [[10.013909328539997, 10.130579885718156, -13.847748768115132, -12.882973322160451, -8.600065106660066, -14.911417071210757, -1.7825943774022877, -1.616521921963102, 10.122486021389435, -9.880960682195635, 8.340982444834852, 8.551684351046157, 10.564839000802941, -18.80135288692913, -4.214304992505434, -5.209497420453395, -6.574937548275711, -9.555965264839518, 11.27315486900432, -3.297886477170032, 10.934438271679666, 9.984431120154866, 9.664754784874626, 9.209194754513835, -0.7777300716509578, 10.771643143877748],
 [1.1041853234895296, 1.6450180405460744, -3.564223038654922, -1.3237364444965558, -1.10379015832024, -3.5585902109575853, 4.932282794405104, 5.496322132987066, 1.749692629859621, 0.9007655006632279, 1.7740244587591198, 2.113733018077983, 1.9278709887675398, -1.623099444450184, 2.425437954987995, 1.9314847931634684, 1.7752271857411603, -1.2855803502148322, 1.9589970426208363, 5.093146557230388, 2.2775017705949803, 0.6607700298297171, 1.9643648580452173, 1.3164181815590337, 4.850975242122333, 1.7362514392566704],
 [-20.814709860484705, -21.321225674443415, 8.14235698918094, 4.841134493275834, 2.730881625163458, 8.682755458018722, -10.348531584561314, -12.345316827120321, -21.085128686005778, 0.7253319450716061, -19.750700290628647, -19.07587029075123, -21.962706106362475, 6.300667432261959, -2.986904002117641, -1.9121063634406892, -1.54493243487373, 3.4713217841635835, -23.133753937939677, -9.999812657164718, -22.864847942214983, -20.894169461361933, -21.453800967887506, -20.349280723554404, -11.755601014385597, -21.908507106648045]],
 "W2": [[-0.2951972324824378, 1.3818614507139266, -1.2414418980901074, -0.5012649384009807, 0.47613931455206204, -0.4729031438274058, -0.5060437354158513, 1.1869476074193346, 0.5766125061757457, -1.868410002499559],
 [0.5497448041752363, -0.6618308779519283, -0.9735903666046979, -0.9888101307048169, 0.11475069973298312, -0.7730089153593803, -0.22312022795994135, 0.573429484144882, -1.2637695477366082, 0.9668584207573123],
 [-1.1685923889891685, -0.49775712250522425, 0.8678411477930613, 1.7555058634315726, -1.9774054944629826, 2.06395070941053, -0.39600889610799017, -1.9103614662137556, -0.00031417394266135214, -0.629962404183517]],
 "b2": [[-0.5358295054813519],
 [0.7172185274318811],
 [-0.9365412647333685]]}, 
 
 {"epoch": 2, "layer1": 1, "Wmean1": -0.1952373749219919, "Wmax1": 2.061333249238114, "Wmin1": -1.9782447372844008, "Wstd1": 1.043710601612656, "bmean1": -0.252118832491058, "bmax1": 0.7205129811825929, "bmin1": -0.9405286308749403, "bstd1": 0.7072724249906375, "A1": [[0.9994700632685457, 4.783106919436635e-10, 7.22744509854671e-11, 4.978830905175464e-10, 1.1296409835103207e-09, 0.9998114709544986, 0.0029253798820921117, 7.54342705737285e-13, 0.999912968576907, 2.625613216294943e-06, 7.878566198090139e-06, 0.001366273240122858, 7.450879555466118e-05, 0.0011528653588825054, 0.999763935252113, 0.9999117949816874, 1.735849182199901e-11, 0.006293075209028026, 0.9998063556590738, 0.9997778765594231, 0.98998212603857, 4.7217936640110785e-08, 0.0017042397714566043, 1.198683922614467e-10, 3.6383939706545743e-10, 0.0034677629157406293],
 [0.0005299367313282438, 0.0043103526586712685, 7.207440028040744e-06, 6.406162437881605e-06, 6.755844479982014e-05, 0.0001885290454966216, 0.996322917619917, 7.683149431004269e-06, 8.703142305186843e-05, 0.011592156232451087, 0.9916428500693584, 0.9986185719009011, 0.9998919016535588, 0.9988469363286359, 0.0002360647478807175, 8.820501831142211e-05, 0.000615378072145529, 0.9655741163443843, 0.0001936443408820636, 0.00022212344056357302, 0.010017873961425701, 0.001537676348793839, 0.9904135786589985, 1.420593836661404e-05, 1.2621843379977526e-05, 0.996532182807269],
 [1.261159626684004e-13, 0.9956896468630181, 0.9999927924876976, 0.999993593339679, 0.9999324404255592, 4.8298412339368776e-15, 0.0007517024979909558, 0.9999923168498147, 4.1090409438426684e-14, 0.9884052181543326, 0.008349271364443604, 1.5154858976131707e-05, 3.358955088661084e-05, 1.9831248152976387e-07, 6.234985704817426e-15, 1.1348952236949318e-15, 0.9993846219104959, 0.028132808446587783, 4.4133656518184763e-14, 1.3351997969171109e-14, 4.235077930225088e-15, 0.9984622764332696, 0.007882181569544879, 0.999985793941765, 0.9999873777927807, 5.4276990396870995e-08]],
 "Z1": [[9.480202874254699, -16.56776019554387, -14.901129434602497, -13.124605323002712, -13.660491042087441, 10.375634942925812, -3.0202201387834657, -19.302620411492573, 9.9723834262591, -9.548273396967215, -9.112562829806407, -2.5750964459646153, -5.700210169027914, -1.7801762827699592, 10.55416852172588, 11.275946598915707, -18.775694397011364, -3.4531541578154137, 10.056041845202772, 9.844913319372003, 8.749903810793825, -12.092366250710622, -4.068181178135932, -14.804998608567567, -13.838965246163873, -0.7700224001643822],
 [1.9379800180560296, -0.5537351389611892, -3.390975738598669, -3.6621996484940698, -2.6616425595063857, 1.7995650143139121, 2.8104269342623844, -3.166171810924666, 0.6232291414527691, -1.1555039104173672, 2.6304095287052007, 4.019189679349061, 3.8042751051936343, 4.9841748073864025, 2.2030001792009726, 1.9401881082091115, -1.3920288375119512, 1.5801188501409058, 1.5067481324309568, 1.4328581754361365, 4.1565878159797, -1.701357114188986, 2.2968223045211005, -3.122222388360928, -3.384738327028233, 4.890749341624863],
 [-20.220841621120794, 4.888680746405154, 8.449413782102841, 8.296044094777205, 6.940807364467402, -22.588139308861837, -4.379059132935923, 8.610301518599021, -20.850531186165416, 3.2902601605412585, -2.1467792102692766, -7.076617290433246, -6.496912315495553, -10.448093324392879, -22.15419549417165, -23.136201254339372, 6.000629322559615, -1.955667557860938, -20.695318208887922, -22.101974893164748, -24.335402464189254, 4.774586845192434, -2.5366955931116992, 8.039613891424102, 7.895330694058988, -11.834942263778041]],
 "W1": [[-0.2953669822763719, 1.3825850482655242, -1.2418538022915342, -0.5016407418637366, 0.4767738861240351, -0.4729397827108108, -0.5061173371044634, 1.1882013116362837, 0.577417432398469, -1.870744286905582],
 [0.5515138898138054, -0.6625092297664257, -0.9689395002109279, -0.9889368905614825, 0.11413924476624905, -0.7702470764201587, -0.22177971596349935, 0.5763439520742955, -1.2644315362542433, 0.9764645276216809],
 [-1.1787367005685703, -0.49885153356941536, 0.8633807256859118, 1.755844644874862, -1.9782447372844008, 2.061333249238114, -0.4016249056612898, -1.918286583944344, -0.0006710885289066558, -0.639196728272824]],
 "b1": [[-0.5363408477808265],
 [0.7205129811825929],
 [-0.9405286308749403]],
 "layer2": 2, "Wmean2": -0.1952373749219919, "Wmax2": 2.061333249238114, "Wmin2": -1.9782447372844008, "Wstd2": 1.043710601612656, "bmean2": -0.252118832491058, "bmax2": 0.7205129811825929, "bmin2": -0.9405286308749403, "bstd2": 0.7072724249906375, "A2": [[0.9994700632685457, 4.783106919436635e-10, 7.22744509854671e-11, 4.978830905175464e-10, 1.1296409835103207e-09, 0.9998114709544986, 0.0029253798820921117, 7.54342705737285e-13, 0.999912968576907, 2.625613216294943e-06, 7.878566198090139e-06, 0.001366273240122858, 7.450879555466118e-05, 0.0011528653588825054, 0.999763935252113, 0.9999117949816874, 1.735849182199901e-11, 0.006293075209028026, 0.9998063556590738, 0.9997778765594231, 0.98998212603857, 4.7217936640110785e-08, 0.0017042397714566043, 1.198683922614467e-10, 3.6383939706545743e-10, 0.0034677629157406293],
 [0.0005299367313282438, 0.0043103526586712685, 7.207440028040744e-06, 6.406162437881605e-06, 6.755844479982014e-05, 0.0001885290454966216, 0.996322917619917, 7.683149431004269e-06, 8.703142305186843e-05, 0.011592156232451087, 0.9916428500693584, 0.9986185719009011, 0.9998919016535588, 0.9988469363286359, 0.0002360647478807175, 8.820501831142211e-05, 0.000615378072145529, 0.9655741163443843, 0.0001936443408820636, 0.00022212344056357302, 0.010017873961425701, 0.001537676348793839, 0.9904135786589985, 1.420593836661404e-05, 1.2621843379977526e-05, 0.996532182807269],
 [1.261159626684004e-13, 0.9956896468630181, 0.9999927924876976, 0.999993593339679, 0.9999324404255592, 4.8298412339368776e-15, 0.0007517024979909558, 0.9999923168498147, 4.1090409438426684e-14, 0.9884052181543326, 0.008349271364443604, 1.5154858976131707e-05, 3.358955088661084e-05, 1.9831248152976387e-07, 6.234985704817426e-15, 1.1348952236949318e-15, 0.9993846219104959, 0.028132808446587783, 4.4133656518184763e-14, 1.3351997969171109e-14, 4.235077930225088e-15, 0.9984622764332696, 0.007882181569544879, 0.999985793941765, 0.9999873777927807, 5.4276990396870995e-08]],
 "Z2": [[9.480202874254699, -16.56776019554387, -14.901129434602497, -13.124605323002712, -13.660491042087441, 10.375634942925812, -3.0202201387834657, -19.302620411492573, 9.9723834262591, -9.548273396967215, -9.112562829806407, -2.5750964459646153, -5.700210169027914, -1.7801762827699592, 10.55416852172588, 11.275946598915707, -18.775694397011364, -3.4531541578154137, 10.056041845202772, 9.844913319372003, 8.749903810793825, -12.092366250710622, -4.068181178135932, -14.804998608567567, -13.838965246163873, -0.7700224001643822],
 [1.9379800180560296, -0.5537351389611892, -3.390975738598669, -3.6621996484940698, -2.6616425595063857, 1.7995650143139121, 2.8104269342623844, -3.166171810924666, 0.6232291414527691, -1.1555039104173672, 2.6304095287052007, 4.019189679349061, 3.8042751051936343, 4.9841748073864025, 2.2030001792009726, 1.9401881082091115, -1.3920288375119512, 1.5801188501409058, 1.5067481324309568, 1.4328581754361365, 4.1565878159797, -1.701357114188986, 2.2968223045211005, -3.122222388360928, -3.384738327028233, 4.890749341624863],
 [-20.220841621120794, 4.888680746405154, 8.449413782102841, 8.296044094777205, 6.940807364467402, -22.588139308861837, -4.379059132935923, 8.610301518599021, -20.850531186165416, 3.2902601605412585, -2.1467792102692766, -7.076617290433246, -6.496912315495553, -10.448093324392879, -22.15419549417165, -23.136201254339372, 6.000629322559615, -1.955667557860938, -20.695318208887922, -22.101974893164748, -24.335402464189254, 4.774586845192434, -2.5366955931116992, 8.039613891424102, 7.895330694058988, -11.834942263778041]],
 "W2": [[-0.2953669822763719, 1.3825850482655242, -1.2418538022915342, -0.5016407418637366, 0.4767738861240351, -0.4729397827108108, -0.5061173371044634, 1.1882013116362837, 0.577417432398469, -1.870744286905582],
 [0.5515138898138054, -0.6625092297664257, -0.9689395002109279, -0.9889368905614825, 0.11413924476624905, -0.7702470764201587, -0.22177971596349935, 0.5763439520742955, -1.2644315362542433, 0.9764645276216809],
 [-1.1787367005685703, -0.49885153356941536, 0.8633807256859118, 1.755844644874862, -1.9782447372844008, 2.061333249238114, -0.4016249056612898, -1.918286583944344, -0.0006710885289066558, -0.639196728272824]],
 "b2": [[-0.5363408477808265],
 [0.7205129811825929],
 [-0.9405286308749403]]}, 
 
 {"epoch": 3, "layer1": 1, "Wmean1": -0.19592057692981524, "Wmax1": 2.0608169740546547, "Wmin1": -1.978919874076464, "Wstd1": 1.0453958061737343, "bmean1": -0.2524215054327746, "bmax1": 0.7229195238922049, "bmin1": -0.9433773159631563, "bstd1": 0.7093623916962938, "A1": [[3.1157601019863833e-09, 0.9998963597883911, 0.00020699682368018166, 0.9999755598386105, 0.9998111405752755, 0.9998559627788579, 0.015348088612165639, 7.256720567791495e-05, 0.0011885992486587002, 0.9998857456973025, 0.00011592157465548741, 0.9997617316409986, 0.0006884035273163243, 0.9997701646757207, 0.0001492469131230346, 1.469334705607954e-07, 0.9996436796445168, 3.5049327903301584e-09, 0.00029082899767449714, 1.0421342674866785e-11, 0.9997701646757207, 0.0013233691598248532, 0.99991419097335, 0.999830960197438, 0.013374929856491462, 0.0033652805959547625],
 [0.0009064682943297649, 0.00010364021157545524, 0.9997928077013899, 2.4440161389328757e-05, 0.0001888594246816537, 0.0001440372211318141, 0.9836196473662929, 0.24586648895774482, 0.9955555874374067, 0.00011425430269136365, 0.9893447884928984, 0.0002382683589796711, 0.9832291556509906, 0.000229835324273426, 0.9994118355561301, 0.0019985031146871174, 0.00035632035533781573, 1.015547483884531e-05, 0.9987029576222692, 0.0005586550228177916, 0.000229835324273426, 0.9986631660094194, 8.58090266490066e-05, 0.000169039802554837, 0.9856034734165613, 0.9966346966735188],
 [0.9990935285899102, 3.340741315168816e-14, 1.954749298133399e-07, 2.415006989771572e-16, 4.2738787942791094e-14, 1.042215475645226e-14, 0.0010322640215413216, 0.7540609438365773, 0.0032558133139345773, 6.116156257524e-15, 0.010539289932446063, 2.1780753408810787e-14, 0.016082440821693102, 5.9048272263910164e-15, 0.0004389175307467346, 0.9980013499518423, 1.453212261672993e-13, 0.9999898410202284, 0.0010062133800562783, 0.9994413449667608, 5.9048272263910164e-15, 1.346483075564887e-05, 1.0732024956549079e-15, 7.161108279248857e-15, 0.0010215967269472253, 2.2730526369593613e-08]],
 "Z1": [[-14.118154057250067, 9.766010728926501, -3.257228907346267, 11.521480646948447, 10.067109928865587, 10.449911288068627, -1.725728321870563, -7.9651646390780915, -4.189957427389135, 10.785935675894036, -6.663730839302016, 10.167468453448258, -5.2134309235991, 10.571902685764108, -5.342854970780634, -11.210728622461524, 9.212506531631808, -11.696190041723801, -5.397007735041385, -19.161373341231638, 10.571902685764108, -2.5640754823556433, 11.293780245178434, 10.580581295865835, -1.9453522399723713, -0.6770848001049649],
 [-1.5373158605550667, 0.5915292136825999, 5.225370988244652, 0.9022222672171769, 1.4927912017235974, 1.6046165239576742, 2.434520017327731, 0.1628661933397697, 2.5405680214404964, 1.708966068143444, 2.388153451992877, 1.8255937894260863, 2.0507913787721357, 2.193985060606501, 3.4664651802371194, -1.6927995099306457, 1.2731825582722924, -3.7245931546175695, 2.7444694810697543, -1.364186516899728, 2.193985060606501, 4.06216118969616, 1.9304797065821777, 1.8953739972619652, 2.3545198285713576, 5.013788153947161],
 [5.467731761240853, -21.263884194396958, -10.22225549998231, -24.438154219080527, -20.716370698144367, -21.744787253853065, -4.424964798604289, 1.2835507246625686, -3.1822908287350984, -21.941792621472143, -2.153779270218881, -21.29004293603371, -2.062322788250079, -22.19087365705172, -4.264145501887846, 4.52055666135659, -20.346966834403748, 7.772894291257957, -4.155793757049375, 6.1252330799803145, -22.19087365705172, -7.151930482938676, -23.174263172023966, -21.989361288354676, -4.5173674664847825, -12.582397909223516]],
 "W1": [[-0.2955228090484909, 1.3834534766999576, -1.2423298820988962, -0.502064309924419, 0.47764216906333135, -0.4729770921468261, -0.5061914211786798, 1.1900089844407062, 0.5784621709918993, -1.8732272271656922],
 [0.5532305861815003, -0.6633655664050896, -0.9674649430638074, -0.9910721774820394, 0.11325799504072223, -0.7696940859659056, -0.22039847203285579, 0.578642105394281, -1.2653910022304347, 0.9828806418048879],
 [-1.188623360772171, -0.4996299076636269, 0.8620513293416785, 1.7583531847972482, -1.978919874076464, 2.0608169740546547, -0.40741829411908337, -1.9260373241502031, -0.0009249381388036409, -0.6451642380418361]],
 "b1": [[-0.5368067242273724],
 [0.7229195238922049],
 [-0.9433773159631563]],
 "layer2": 2, "Wmean2": -0.19592057692981524, "Wmax2": 2.0608169740546547, "Wmin2": -1.978919874076464, "Wstd2": 1.0453958061737343, "bmean2": -0.2524215054327746, "bmax2": 0.7229195238922049, "bmin2": -0.9433773159631563, "bstd2": 0.7093623916962938, "A2": [[3.1157601019863833e-09, 0.9998963597883911, 0.00020699682368018166, 0.9999755598386105, 0.9998111405752755, 0.9998559627788579, 0.015348088612165639, 7.256720567791495e-05, 0.0011885992486587002, 0.9998857456973025, 0.00011592157465548741, 0.9997617316409986, 0.0006884035273163243, 0.9997701646757207, 0.0001492469131230346, 1.469334705607954e-07, 0.9996436796445168, 3.5049327903301584e-09, 0.00029082899767449714, 1.0421342674866785e-11, 0.9997701646757207, 0.0013233691598248532, 0.99991419097335, 0.999830960197438, 0.013374929856491462, 0.0033652805959547625],
 [0.0009064682943297649, 0.00010364021157545524, 0.9997928077013899, 2.4440161389328757e-05, 0.0001888594246816537, 0.0001440372211318141, 0.9836196473662929, 0.24586648895774482, 0.9955555874374067, 0.00011425430269136365, 0.9893447884928984, 0.0002382683589796711, 0.9832291556509906, 0.000229835324273426, 0.9994118355561301, 0.0019985031146871174, 0.00035632035533781573, 1.015547483884531e-05, 0.9987029576222692, 0.0005586550228177916, 0.000229835324273426, 0.9986631660094194, 8.58090266490066e-05, 0.000169039802554837, 0.9856034734165613, 0.9966346966735188],
 [0.9990935285899102, 3.340741315168816e-14, 1.954749298133399e-07, 2.415006989771572e-16, 4.2738787942791094e-14, 1.042215475645226e-14, 0.0010322640215413216, 0.7540609438365773, 0.0032558133139345773, 6.116156257524e-15, 0.010539289932446063, 2.1780753408810787e-14, 0.016082440821693102, 5.9048272263910164e-15, 0.0004389175307467346, 0.9980013499518423, 1.453212261672993e-13, 0.9999898410202284, 0.0010062133800562783, 0.9994413449667608, 5.9048272263910164e-15, 1.346483075564887e-05, 1.0732024956549079e-15, 7.161108279248857e-15, 0.0010215967269472253, 2.2730526369593613e-08]],
 "Z2": [[-14.118154057250067, 9.766010728926501, -3.257228907346267, 11.521480646948447, 10.067109928865587, 10.449911288068627, -1.725728321870563, -7.9651646390780915, -4.189957427389135, 10.785935675894036, -6.663730839302016, 10.167468453448258, -5.2134309235991, 10.571902685764108, -5.342854970780634, -11.210728622461524, 9.212506531631808, -11.696190041723801, -5.397007735041385, -19.161373341231638, 10.571902685764108, -2.5640754823556433, 11.293780245178434, 10.580581295865835, -1.9453522399723713, -0.6770848001049649],
 [-1.5373158605550667, 0.5915292136825999, 5.225370988244652, 0.9022222672171769, 1.4927912017235974, 1.6046165239576742, 2.434520017327731, 0.1628661933397697, 2.5405680214404964, 1.708966068143444, 2.388153451992877, 1.8255937894260863, 2.0507913787721357, 2.193985060606501, 3.4664651802371194, -1.6927995099306457, 1.2731825582722924, -3.7245931546175695, 2.7444694810697543, -1.364186516899728, 2.193985060606501, 4.06216118969616, 1.9304797065821777, 1.8953739972619652, 2.3545198285713576, 5.013788153947161],
 [5.467731761240853, -21.263884194396958, -10.22225549998231, -24.438154219080527, -20.716370698144367, -21.744787253853065, -4.424964798604289, 1.2835507246625686, -3.1822908287350984, -21.941792621472143, -2.153779270218881, -21.29004293603371, -2.062322788250079, -22.19087365705172, -4.264145501887846, 4.52055666135659, -20.346966834403748, 7.772894291257957, -4.155793757049375, 6.1252330799803145, -22.19087365705172, -7.151930482938676, -23.174263172023966, -21.989361288354676, -4.5173674664847825, -12.582397909223516]],
 "W2": [[-0.2955228090484909, 1.3834534766999576, -1.2423298820988962, -0.502064309924419, 0.47764216906333135, -0.4729770921468261, -0.5061914211786798, 1.1900089844407062, 0.5784621709918993, -1.8732272271656922],
 [0.5532305861815003, -0.6633655664050896, -0.9674649430638074, -0.9910721774820394, 0.11325799504072223, -0.7696940859659056, -0.22039847203285579, 0.578642105394281, -1.2653910022304347, 0.9828806418048879],
 [-1.188623360772171, -0.4996299076636269, 0.8620513293416785, 1.7583531847972482, -1.978919874076464, 2.0608169740546547, -0.40741829411908337, -1.9260373241502031, -0.0009249381388036409, -0.6451642380418361]],
 "b2": [[-0.5368067242273724],
 [0.7229195238922049],
 [-0.9433773159631563]]}, 
 
 {"epoch": 4, "layer1": 1, "Wmean1": -0.19630358598159742, "Wmax1": 2.0644882588484563, "Wmin1": -1.9791529477295402, "Wstd1": 1.0476075270935112, "bmean1": -0.25254221857815135, "bmax1": 0.7235884278894088, "bmin1": -0.9439215432838747, "bstd1": 0.7099107279202628, "A1": [[0.0011858641502631756, 4.799344426214032e-10, 0.999696324256122, 0.9998201570621964, 0.9997830398061749, 0.0016283300609418844, 1.3161442278587977e-10, 0.9994878671191836, 7.074816297809897e-13, 0.9997879011700004, 0.9986768564842584, 0.9997655931489917, 1.1010582653684484e-05, 0.00014874877527151304, 2.9157727349131846e-10, 1.0947276858939475e-09, 1.8084681421530098e-11, 0.9996490000903618, 0.00019731530216182764, 4.607844700438583e-08, 0.0002035502641400935, 7.385041225968017e-06, 1.2467219168254878e-07, 3.368691419770489e-07, 0.00020658438544893498, 0.9984772262284612],
 [0.9954374420155969, 0.004624992083174837, 0.0003036757438708281, 0.0001798429377995784, 0.00021696019380154681, 0.9909309488046723, 0.0005643969590732868, 0.0005121328807112156, 2.4090738575649812e-05, 0.00021209882998848227, 0.0013231435151996652, 0.00023440685098934883, 0.6477418682032144, 0.9994025084955658, 0.00022103176861821164, 6.89785180065935e-05, 1.2537856996859695e-05, 0.0003509999095116878, 0.9926319244049656, 0.001566089681412297, 0.9738245204250654, 0.9925660967688765, 0.07000584153672272, 0.13855118481349038, 0.9997932212550851, 0.0015227737706903163],
 [0.0033766938341398133, 0.9953750074368907, 7.14731988416843e-15, 3.971723999508983e-15, 2.3609665505725688e-14, 0.007440721134385802, 0.9994356029093123, 1.0521538157839271e-13, 0.9999759092607169, 1.1095682348526915e-14, 5.41881262056701e-13, 1.8870929407709685e-14, 0.35224712121413193, 0.0004487427291627227, 0.9997789679398045, 0.9999310203872658, 0.9999874621249185, 1.2653051473931207e-13, 0.00717076029287254, 0.9984338642401407, 0.025971929310794464, 0.007426518189897491, 0.9299940337910855, 0.8614484783173676, 1.9435946596838799e-07, 8.48512993742125e-13]],
 "Z1": [[-4.205186370196451, -16.603407892095056, 10.37984028831419, 10.431084014900021, 10.17231998924711, -4.08840757677633, -16.991421503948, 9.528970699644331, -19.765138431534265, 9.896354993929947, 8.383465113226862, 10.205642093840801, -9.899235833494286, -5.356910070184916, -15.459366868016064, -13.706198843435729, -16.483722374265056, 9.248638585097055, -5.937970209660699, -12.12811679668176, -6.57141191758828, -9.130538231431421, -13.049133714721165, -12.741207869870363, -3.2626894195911964, 8.596248902566792],
 [2.5275241610166876, -0.5223169126339572, 2.280593952358233, 1.8078372182484594, 1.7367403130269028, 2.3226822896583483, -1.7200297224358492, 1.9525565297515404, -2.421756783623375, 1.4381089025270157, 1.7570442102346182, 1.8474242552511098, 1.0831548411971625, 3.455744006782719, -1.9208549292859844, -2.6551540852273425, -3.0345244387222055, 1.2942650543216783, 2.585342026503261, -1.6943696886226087, 1.9016615123552776, 2.678054155775131, 0.189267706261665, 0.18584795868457626, 5.221905363076724, 2.1105510789367634],
 [-3.158761044536511, 4.849327986198155, -22.19189493967352, -22.728312263659006, -21.20458323841645, -2.5689947931312944, 5.759158447034432, -20.353283928862766, 8.211902208140522, -22.235653224617913, -19.85894035829741, -21.39527725538297, 0.4739955539270174, -4.252719143859614, 6.496128131596437, 6.926492367859764, 8.25222095407992, -20.44930324597551, -2.345006211492227, 4.763236363174274, -1.7225532983253422, -2.2171823170019835, 2.7758671880178176, 2.0132233854460178, -10.231444311850723, -19.197518159637223]],
 "W1": [[-0.2957121076552033, 1.3844253197351644, -1.2428058601360783, -0.5024731348668368, 0.47860616360938824, -0.4730213944377916, -0.5062698557057822, 1.1920181839216473, 0.5796657827527779, -1.8760745011522089],
 [0.5537352924801175, -0.6644153078617911, -0.9729402701961599, -0.998604870502559, 0.11223093242942765, -0.7735410721167243, -0.21913312601268364, 0.5802585972617177, -1.2666813329971318, 0.9812125588244662],
 [-1.190527269837923, -0.4993419503349135, 0.8675389117447155, 1.7666115287831228, -1.9791529477295402, 2.0644882588484563, -0.4126720564285747, -1.9328421268243663, -0.0008310181905659425, -0.6428589068520887]],
 "b1": [[-0.5372935403399881],
 [0.7235884278894088],
 [-0.9439215432838747]],
 "layer2": 2, "Wmean2": -0.19630358598159742, "Wmax2": 2.0644882588484563, "Wmin2": -1.9791529477295402, "Wstd2": 1.0476075270935112, "bmean2": -0.25254221857815135, "bmax2": 0.7235884278894088, "bmin2": -0.9439215432838747, "bstd2": 0.7099107279202628, "A2": [[0.0011858641502631756, 4.799344426214032e-10, 0.999696324256122, 0.9998201570621964, 0.9997830398061749, 0.0016283300609418844, 1.3161442278587977e-10, 0.9994878671191836, 7.074816297809897e-13, 0.9997879011700004, 0.9986768564842584, 0.9997655931489917, 1.1010582653684484e-05, 0.00014874877527151304, 2.9157727349131846e-10, 1.0947276858939475e-09, 1.8084681421530098e-11, 0.9996490000903618, 0.00019731530216182764, 4.607844700438583e-08, 0.0002035502641400935, 7.385041225968017e-06, 1.2467219168254878e-07, 3.368691419770489e-07, 0.00020658438544893498, 0.9984772262284612],
 [0.9954374420155969, 0.004624992083174837, 0.0003036757438708281, 0.0001798429377995784, 0.00021696019380154681, 0.9909309488046723, 0.0005643969590732868, 0.0005121328807112156, 2.4090738575649812e-05, 0.00021209882998848227, 0.0013231435151996652, 0.00023440685098934883, 0.6477418682032144, 0.9994025084955658, 0.00022103176861821164, 6.89785180065935e-05, 1.2537856996859695e-05, 0.0003509999095116878, 0.9926319244049656, 0.001566089681412297, 0.9738245204250654, 0.9925660967688765, 0.07000584153672272, 0.13855118481349038, 0.9997932212550851, 0.0015227737706903163],
 [0.0033766938341398133, 0.9953750074368907, 7.14731988416843e-15, 3.971723999508983e-15, 2.3609665505725688e-14, 0.007440721134385802, 0.9994356029093123, 1.0521538157839271e-13, 0.9999759092607169, 1.1095682348526915e-14, 5.41881262056701e-13, 1.8870929407709685e-14, 0.35224712121413193, 0.0004487427291627227, 0.9997789679398045, 0.9999310203872658, 0.9999874621249185, 1.2653051473931207e-13, 0.00717076029287254, 0.9984338642401407, 0.025971929310794464, 0.007426518189897491, 0.9299940337910855, 0.8614484783173676, 1.9435946596838799e-07, 8.48512993742125e-13]],
 "Z2": [[-4.205186370196451, -16.603407892095056, 10.37984028831419, 10.431084014900021, 10.17231998924711, -4.08840757677633, -16.991421503948, 9.528970699644331, -19.765138431534265, 9.896354993929947, 8.383465113226862, 10.205642093840801, -9.899235833494286, -5.356910070184916, -15.459366868016064, -13.706198843435729, -16.483722374265056, 9.248638585097055, -5.937970209660699, -12.12811679668176, -6.57141191758828, -9.130538231431421, -13.049133714721165, -12.741207869870363, -3.2626894195911964, 8.596248902566792],
 [2.5275241610166876, -0.5223169126339572, 2.280593952358233, 1.8078372182484594, 1.7367403130269028, 2.3226822896583483, -1.7200297224358492, 1.9525565297515404, -2.421756783623375, 1.4381089025270157, 1.7570442102346182, 1.8474242552511098, 1.0831548411971625, 3.455744006782719, -1.9208549292859844, -2.6551540852273425, -3.0345244387222055, 1.2942650543216783, 2.585342026503261, -1.6943696886226087, 1.9016615123552776, 2.678054155775131, 0.189267706261665, 0.18584795868457626, 5.221905363076724, 2.1105510789367634],
 [-3.158761044536511, 4.849327986198155, -22.19189493967352, -22.728312263659006, -21.20458323841645, -2.5689947931312944, 5.759158447034432, -20.353283928862766, 8.211902208140522, -22.235653224617913, -19.85894035829741, -21.39527725538297, 0.4739955539270174, -4.252719143859614, 6.496128131596437, 6.926492367859764, 8.25222095407992, -20.44930324597551, -2.345006211492227, 4.763236363174274, -1.7225532983253422, -2.2171823170019835, 2.7758671880178176, 2.0132233854460178, -10.231444311850723, -19.197518159637223]],
 "W2": [[-0.2957121076552033, 1.3844253197351644, -1.2428058601360783, -0.5024731348668368, 0.47860616360938824, -0.4730213944377916, -0.5062698557057822, 1.1920181839216473, 0.5796657827527779, -1.8760745011522089],
 [0.5537352924801175, -0.6644153078617911, -0.9729402701961599, -0.998604870502559, 0.11223093242942765, -0.7735410721167243, -0.21913312601268364, 0.5802585972617177, -1.2666813329971318, 0.9812125588244662],
 [-1.190527269837923, -0.4993419503349135, 0.8675389117447155, 1.7666115287831228, -1.9791529477295402, 2.0644882588484563, -0.4126720564285747, -1.9328421268243663, -0.0008310181905659425, -0.6428589068520887]],
 "b2": [[-0.5372935403399881],
 [0.7235884278894088],
 [-0.9439215432838747]]}, 
 
 {"epoch": 5, "layer1": 1, "Wmean1": -0.19675750121667773, "Wmax1": 2.068015827044663, "Wmin1": -1.979499658676631, "Wstd1": 1.0499447097231527, "bmean1": -0.25266891699544186, "bmax1": 0.7243316234466879, "bmin1": -0.944576480417799, "bstd1": 0.7105265976469549, "A1": [[0.015216827340727657, 0.9984983418465122, 0.00029204857537391696, 2.620607575743309e-09, 4.126345396641228e-08, 0.9997017515403404, 0.9995534048359166, 0.9998173049671977, 1.1804412070663239e-07, 0.9998857751951706, 0.00834875619983813, 6.2763683724716514e-06, 6.853553016442294e-06, 1.067686435155539e-09, 0.9998406079894878, 2.3819578589953444e-09, 0.9986975409343618, 4.176622345307332e-10, 1.255852317005402e-05, 0.0033441908802151078, 0.9999766037514117, 7.556307934352664e-12, 7.342434066772083e-06, 6.264287140448621e-08, 1.900641681850827e-08, 2.3093042089203052e-08],
 [0.9837559583957379, 0.0015016581527290815, 0.998604540434995, 6.892084548528849e-06, 0.0013608669920985297, 0.00029824845965342403, 0.00044659516406255194, 0.00018269503277011217, 0.0014936021222072423, 0.0001142248048278235, 0.8732559205363482, 0.006416267892829631, 0.9999775613312796, 0.0003889666623366862, 0.0001593920105108374, 0.0006424903725169363, 0.0013024590651585291, 5.367971057516921e-06, 0.02528302843575206, 0.9966557877420277, 2.3396248588030082e-05, 0.00037266517037015965, 0.9922217526793041, 4.1495693213415166e-05, 0.9952377740034747, 0.00297185238388417],
 [0.0010272142635343706, 7.587544685632535e-13, 0.0011034109896309531, 0.999993105294844, 0.9986390917444475, 6.3032665505857854e-15, 2.0786307153995943e-14, 3.2214288189283306e-14, 0.998506279833672, 1.5240452942295364e-15, 0.1183953232638137, 0.993577455738798, 1.558511570384686e-05, 0.9996110322699768, 1.469888933486293e-15, 0.9993575072455252, 4.795032343938067e-13, 0.9999946316112803, 0.974704413041078, 2.137775719881954e-08, 1.7504617920832417e-16, 0.9996273348220734, 0.007770904886629094, 0.9999584416639152, 0.0047622069901084, 0.9970281245230738]],
 "Z1": [[-1.7338819254452524, 8.625343660289428, -5.430941560683052, -11.76676898281315, -12.158329659835331, 10.41382672361172, 9.94277158930215, 10.141793251250323, -11.266240109155845, 10.943102601768658, -4.017952802496383, -8.55540257338551, -7.736940787674403, -14.539073795473396, 11.035745543024042, -14.190067255738082, 8.414949267935754, -13.205373589811646, -8.643824132664545, -0.675579062330168, 11.607123616728597, -19.253238659710213, -9.15419343913954, -10.052527941023438, -14.657164932348959, -12.94436228395022],
 [2.4350940536859804, 2.1256611007967416, 2.7062524207025227, -3.8920463076344807, -1.754674327410751, 2.2965413549412013, 2.229360237260911, 1.5342836801209323, -1.8205972759543787, 1.8658747539169662, 0.6321632913904186, -1.625602199411658, 4.153780125035944, -1.7333189748667577, 2.2917610326087248, -1.6848829238471668, 1.7727513632064782, -3.7440860783756453, -1.0363350679853232, 5.021601625020466, 0.9442121480473082, -1.5394304542428205, 2.6598380587730723, -3.556632908602538, 3.1165506536337895, -1.1791976332085945],
 [-4.429433263149653, -19.280251716117828, -4.101700142558778, 7.993083769377112, 4.843597125614217, -22.283583379238646, -21.56126365066901, -20.92439034522018, 4.684472432037726, -23.174191384367187, -1.3660361499518219, 3.4168731984738128, -6.915391656764346, 6.11830890068798, -23.117684604687188, 5.664633102628045, -19.94977317932469, 8.390969103200378, 2.61566583311491, -12.635963397030116, -24.67433484033852, 6.355027019154635, -2.189721947913242, 6.533246446300732, -2.225719809650581, 4.636395888832727]],
 "W1": [[-0.2959065364131177, 1.3854197694979655, -1.2432925127568362, -0.5028719655029841, 0.47954421552318266, -0.47306681581648247, -0.5063451536332799, 1.193945351116486, 0.5808516182081814, -1.8790608086118021],
 [0.5545694124316587, -0.6654744101411525, -0.9779220670070053, -1.0060666280668886, 0.11124281444898723, -0.7772358312308999, -0.21793115572901392, 0.582151125946284, -1.2679245083125996, 0.9806978976197392],
 [-1.1944777028171876, -0.4992381615788115, 0.8725456022954466, 1.7747854453861251, -1.979499658676631, 2.068015827044663, -0.4176577035584144, -1.9400267763830872, -0.0007971562262591139, -0.6416985635565976]],
 "b1": [[-0.5377618940152145],
 [0.7243316234466879],
 [-0.944576480417799]],
 "layer2": 2, "Wmean2": -0.19675750121667773, "Wmax2": 2.068015827044663, "Wmin2": -1.979499658676631, "Wstd2": 1.0499447097231527, "bmean2": -0.25266891699544186, "bmax2": 0.7243316234466879, "bmin2": -0.944576480417799, "bstd2": 0.7105265976469549, "A2": [[0.015216827340727657, 0.9984983418465122, 0.00029204857537391696, 2.620607575743309e-09, 4.126345396641228e-08, 0.9997017515403404, 0.9995534048359166, 0.9998173049671977, 1.1804412070663239e-07, 0.9998857751951706, 0.00834875619983813, 6.2763683724716514e-06, 6.853553016442294e-06, 1.067686435155539e-09, 0.9998406079894878, 2.3819578589953444e-09, 0.9986975409343618, 4.176622345307332e-10, 1.255852317005402e-05, 0.0033441908802151078, 0.9999766037514117, 7.556307934352664e-12, 7.342434066772083e-06, 6.264287140448621e-08, 1.900641681850827e-08, 2.3093042089203052e-08],
 [0.9837559583957379, 0.0015016581527290815, 0.998604540434995, 6.892084548528849e-06, 0.0013608669920985297, 0.00029824845965342403, 0.00044659516406255194, 0.00018269503277011217, 0.0014936021222072423, 0.0001142248048278235, 0.8732559205363482, 0.006416267892829631, 0.9999775613312796, 0.0003889666623366862, 0.0001593920105108374, 0.0006424903725169363, 0.0013024590651585291, 5.367971057516921e-06, 0.02528302843575206, 0.9966557877420277, 2.3396248588030082e-05, 0.00037266517037015965, 0.9922217526793041, 4.1495693213415166e-05, 0.9952377740034747, 0.00297185238388417],
 [0.0010272142635343706, 7.587544685632535e-13, 0.0011034109896309531, 0.999993105294844, 0.9986390917444475, 6.3032665505857854e-15, 2.0786307153995943e-14, 3.2214288189283306e-14, 0.998506279833672, 1.5240452942295364e-15, 0.1183953232638137, 0.993577455738798, 1.558511570384686e-05, 0.9996110322699768, 1.469888933486293e-15, 0.9993575072455252, 4.795032343938067e-13, 0.9999946316112803, 0.974704413041078, 2.137775719881954e-08, 1.7504617920832417e-16, 0.9996273348220734, 0.007770904886629094, 0.9999584416639152, 0.0047622069901084, 0.9970281245230738]],
 "Z2": [[-1.7338819254452524, 8.625343660289428, -5.430941560683052, -11.76676898281315, -12.158329659835331, 10.41382672361172, 9.94277158930215, 10.141793251250323, -11.266240109155845, 10.943102601768658, -4.017952802496383, -8.55540257338551, -7.736940787674403, -14.539073795473396, 11.035745543024042, -14.190067255738082, 8.414949267935754, -13.205373589811646, -8.643824132664545, -0.675579062330168, 11.607123616728597, -19.253238659710213, -9.15419343913954, -10.052527941023438, -14.657164932348959, -12.94436228395022],
 [2.4350940536859804, 2.1256611007967416, 2.7062524207025227, -3.8920463076344807, -1.754674327410751, 2.2965413549412013, 2.229360237260911, 1.5342836801209323, -1.8205972759543787, 1.8658747539169662, 0.6321632913904186, -1.625602199411658, 4.153780125035944, -1.7333189748667577, 2.2917610326087248, -1.6848829238471668, 1.7727513632064782, -3.7440860783756453, -1.0363350679853232, 5.021601625020466, 0.9442121480473082, -1.5394304542428205, 2.6598380587730723, -3.556632908602538, 3.1165506536337895, -1.1791976332085945],
 [-4.429433263149653, -19.280251716117828, -4.101700142558778, 7.993083769377112, 4.843597125614217, -22.283583379238646, -21.56126365066901, -20.92439034522018, 4.684472432037726, -23.174191384367187, -1.3660361499518219, 3.4168731984738128, -6.915391656764346, 6.11830890068798, -23.117684604687188, 5.664633102628045, -19.94977317932469, 8.390969103200378, 2.61566583311491, -12.635963397030116, -24.67433484033852, 6.355027019154635, -2.189721947913242, 6.533246446300732, -2.225719809650581, 4.636395888832727]],
 "W2": [[-0.2959065364131177, 1.3854197694979655, -1.2432925127568362, -0.5028719655029841, 0.47954421552318266, -0.47306681581648247, -0.5063451536332799, 1.193945351116486, 0.5808516182081814, -1.8790608086118021],
 [0.5545694124316587, -0.6654744101411525, -0.9779220670070053, -1.0060666280668886, 0.11124281444898723, -0.7772358312308999, -0.21793115572901392, 0.582151125946284, -1.2679245083125996, 0.9806978976197392],
 [-1.1944777028171876, -0.4992381615788115, 0.8725456022954466, 1.7747854453861251, -1.979499658676631, 2.068015827044663, -0.4176577035584144, -1.9400267763830872, -0.0007971562262591139, -0.6416985635565976]],
 "b2": [[-0.5377618940152145],
 [0.7243316234466879],
 [-0.944576480417799]]}, 
 
 {"epoch": 6, "layer1": 1, "Wmean1": -0.19707012162619061, "Wmax1": 2.0749832737596274, "Wmin1": -1.9794880087531685, "Wstd1": 1.0527101683616076, "bmean1": -0.2526886784496602, "bmax1": 0.7240163751496519, "bmin1": -0.943803138184286, "bstd1": 0.7102004283967315, "A1": [[2.088700188202776e-10, 0.9900551396858804, 0.9982011260267835, 3.843956044536503e-13, 0.9997018344936524, 0.9997784300601618, 0.9997784300601618, 1.0480828183900894e-11, 3.608760905032746e-07, 0.008500046566324249, 0.9997870494730776, 0.0007584264040763059, 0.00021113605386378627, 2.0885507002382668e-08, 7.75493963592061e-06, 0.9999183937648357, 0.0012012331827516288, 1.0371051619979297e-05, 7.663141844475373e-11, 0.9998705066746042, 1.822756668624923e-09, 0.001325442763375959, 0.00025099590440275365, 0.9998372247835668, 0.00015145640216385897, 6.717831565303724e-10],
 [6.107234851278164e-06, 0.009944860314116968, 0.0017988739694742555, 3.293536947502358e-06, 0.00029816550634253585, 0.00022156993983465015, 0.00022156993983465015, 5.805933126031015e-06, 0.7717174380988256, 0.8629250100024307, 0.00021295052690575503, 0.9992415600486779, 0.9667258790059994, 0.9924452850128388, 0.9898610584006641, 8.160623514143667e-05, 0.9948657380468402, 0.548627603279542, 0.00026909646456458236, 0.00012949332538924935, 4.031466586604196e-06, 0.9986601553287138, 0.9977481958170431, 0.0001627752164290166, 0.9993373706769492, 3.4590309549411676e-05],
 [0.9999938925562787, 2.5999154400279567e-15, 3.742187348838906e-12, 0.9999967064626681, 5.147588369132163e-15, 3.597841268309457e-15, 3.597841268309457e-15, 0.9999941940563932, 0.22828220102508384, 0.12857494343124504, 1.6478445777227885e-14, 1.3547245826571696e-08, 0.03306298494013684, 0.007554694101654093, 0.010131186659700012, 2.2832327976375973e-14, 0.003933028770408104, 0.4513620256688381, 0.999730903458804, 6.6244230217262635e-15, 0.9999959667106567, 1.4401907910245364e-05, 0.0020008082785541123, 4.3286834914671315e-15, 0.0005111729208868964, 0.9999654090186675]],
 "Z1": [[-13.982072662906752, 8.846815757845405, 7.630990219841827, -19.49562297215795, 10.461535551772869, 10.698591758502044, 10.698591758502044, -16.590730394866668, -13.122964205934412, -4.032081905261399, 10.260704450716071, -1.6161749395372387, -6.630518744689929, -14.75139341954368, -9.20487712719686, 10.120963940092262, -4.248205628873633, -9.967155460377484, -17.112043496620327, 10.391393811823919, -11.821575893901906, -2.5970760156507717, -5.290360325499784, 10.709936979987097, -5.397078164310214, -13.80017400475694],
 [-3.6988001343337333, 4.246110985982233, 1.312196331385356, -3.5320673300730934, 2.3439719265195404, 2.2840410901339543, 2.2840410901339543, -3.3658871903976437, 1.4526301624206734, 0.5881742456230614, 1.806466736638828, 5.5673311248784, 1.7986487831465858, 2.9252335474471765, 2.5521127273081867, 0.7074406617910249, 2.471053481130011, 0.9090012847661934, -2.040470174125139, 1.439642093985557, -4.120040396140801, 4.027591955608364, 2.9974592672798823, 1.9869594192313649, 3.397471735656752, -2.9510254794973854],
 [8.30723020658698, -24.7264870748808, -18.678560109099227, 9.091477887003233, -22.438414306010372, -22.559629024008895, -22.559629024008895, 8.690737214149463, 0.23459427962032908, -1.3156415954398508, -21.47580576059085, -12.548992717721621, -1.576851819540556, -1.9527692297619732, -2.0298334064118775, -21.289553419854286, -3.062144501734095, 0.713851126837199, 6.179701331436992, -22.25648980435693, 8.30133590149772, -7.11921716771772, -3.214490430201084, -22.36341317421512, -4.180668043349355, 7.320876914877006]],
 "W1": [[-0.2961613721670936, 1.3864309334238782, -1.2438043380553077, -0.5033046236984686, 0.4804287571803871, -0.47312016724569794, -0.5064372430995674, 1.1957062239348306, 0.5820192459154967, -1.8823950831995695],
 [0.5548931603779521, -0.6666131532716528, -0.9885181601117898, -1.0168962312527818, 0.11027915171004714, -0.7845418732136293, -0.21665950778960205, 0.583723769443812, -1.269271506043531, 0.9736097850611375],
 [-1.1947756449844156, -0.4983489456017274, 0.8830684954090156, 1.7865628670041862, -1.9794880087531685, 2.0749832737596274, -0.42286861813109783, -1.946287629820084, -0.000507066114381972, -0.6338101394525227]],
 "b1": [[-0.5382792723143465],
 [0.7240163751496519],
 [-0.943803138184286]],
 "layer2": 2, "Wmean2": -0.19707012162619061, "Wmax2": 2.0749832737596274, "Wmin2": -1.9794880087531685, "Wstd2": 1.0527101683616076, "bmean2": -0.2526886784496602, "bmax2": 0.7240163751496519, "bmin2": -0.943803138184286, "bstd2": 0.7102004283967315, "A2": [[2.088700188202776e-10, 0.9900551396858804, 0.9982011260267835, 3.843956044536503e-13, 0.9997018344936524, 0.9997784300601618, 0.9997784300601618, 1.0480828183900894e-11, 3.608760905032746e-07, 0.008500046566324249, 0.9997870494730776, 0.0007584264040763059, 0.00021113605386378627, 2.0885507002382668e-08, 7.75493963592061e-06, 0.9999183937648357, 0.0012012331827516288, 1.0371051619979297e-05, 7.663141844475373e-11, 0.9998705066746042, 1.822756668624923e-09, 0.001325442763375959, 0.00025099590440275365, 0.9998372247835668, 0.00015145640216385897, 6.717831565303724e-10],
 [6.107234851278164e-06, 0.009944860314116968, 0.0017988739694742555, 3.293536947502358e-06, 0.00029816550634253585, 0.00022156993983465015, 0.00022156993983465015, 5.805933126031015e-06, 0.7717174380988256, 0.8629250100024307, 0.00021295052690575503, 0.9992415600486779, 0.9667258790059994, 0.9924452850128388, 0.9898610584006641, 8.160623514143667e-05, 0.9948657380468402, 0.548627603279542, 0.00026909646456458236, 0.00012949332538924935, 4.031466586604196e-06, 0.9986601553287138, 0.9977481958170431, 0.0001627752164290166, 0.9993373706769492, 3.4590309549411676e-05],
 [0.9999938925562787, 2.5999154400279567e-15, 3.742187348838906e-12, 0.9999967064626681, 5.147588369132163e-15, 3.597841268309457e-15, 3.597841268309457e-15, 0.9999941940563932, 0.22828220102508384, 0.12857494343124504, 1.6478445777227885e-14, 1.3547245826571696e-08, 0.03306298494013684, 0.007554694101654093, 0.010131186659700012, 2.2832327976375973e-14, 0.003933028770408104, 0.4513620256688381, 0.999730903458804, 6.6244230217262635e-15, 0.9999959667106567, 1.4401907910245364e-05, 0.0020008082785541123, 4.3286834914671315e-15, 0.0005111729208868964, 0.9999654090186675]],
 "Z2": [[-13.982072662906752, 8.846815757845405, 7.630990219841827, -19.49562297215795, 10.461535551772869, 10.698591758502044, 10.698591758502044, -16.590730394866668, -13.122964205934412, -4.032081905261399, 10.260704450716071, -1.6161749395372387, -6.630518744689929, -14.75139341954368, -9.20487712719686, 10.120963940092262, -4.248205628873633, -9.967155460377484, -17.112043496620327, 10.391393811823919, -11.821575893901906, -2.5970760156507717, -5.290360325499784, 10.709936979987097, -5.397078164310214, -13.80017400475694],
 [-3.6988001343337333, 4.246110985982233, 1.312196331385356, -3.5320673300730934, 2.3439719265195404, 2.2840410901339543, 2.2840410901339543, -3.3658871903976437, 1.4526301624206734, 0.5881742456230614, 1.806466736638828, 5.5673311248784, 1.7986487831465858, 2.9252335474471765, 2.5521127273081867, 0.7074406617910249, 2.471053481130011, 0.9090012847661934, -2.040470174125139, 1.439642093985557, -4.120040396140801, 4.027591955608364, 2.9974592672798823, 1.9869594192313649, 3.397471735656752, -2.9510254794973854],
 [8.30723020658698, -24.7264870748808, -18.678560109099227, 9.091477887003233, -22.438414306010372, -22.559629024008895, -22.559629024008895, 8.690737214149463, 0.23459427962032908, -1.3156415954398508, -21.47580576059085, -12.548992717721621, -1.576851819540556, -1.9527692297619732, -2.0298334064118775, -21.289553419854286, -3.062144501734095, 0.713851126837199, 6.179701331436992, -22.25648980435693, 8.30133590149772, -7.11921716771772, -3.214490430201084, -22.36341317421512, -4.180668043349355, 7.320876914877006]],
 "W2": [[-0.2961613721670936, 1.3864309334238782, -1.2438043380553077, -0.5033046236984686, 0.4804287571803871, -0.47312016724569794, -0.5064372430995674, 1.1957062239348306, 0.5820192459154967, -1.8823950831995695],
 [0.5548931603779521, -0.6666131532716528, -0.9885181601117898, -1.0168962312527818, 0.11027915171004714, -0.7845418732136293, -0.21665950778960205, 0.583723769443812, -1.269271506043531, 0.9736097850611375],
 [-1.1947756449844156, -0.4983489456017274, 0.8830684954090156, 1.7865628670041862, -1.9794880087531685, 2.0749832737596274, -0.42286861813109783, -1.946287629820084, -0.000507066114381972, -0.6338101394525227]],
 "b2": [[-0.5382792723143465],
 [0.7240163751496519],
 [-0.943803138184286]]}, 
 
 {"epoch": 7, "layer1": 1, "Wmean1": -0.19782394375771784, "Wmax1": 2.0759780165744206, "Wmin1": -1.9801941439008517, "Wstd1": 1.0549723921044722, "bmean1": -0.25291068916551507, "bmax1": 0.7256461754045068, "bmin1": -0.9456135101218434, "bstd1": 0.7115999038805131, "A1": [[5.277475506116503e-05, 5.766544674337267e-05, 4.598352167439295e-08, 0.0012906065637728805, 0.9997979931652542, 0.9998745010661396, 1.7756036565962803e-09, 7.988586134349319e-10, 0.9995081111320306, 4.4671684776146996e-11, 6.855207316639861e-06, 4.1274284914246896e-13, 0.0006910417408176143, 0.999828982103119, 7.887928393110514e-06, 0.9987281664482266, 1.7685024481836026e-08, 0.9998455342553094, 4.88501287164944e-06, 1.9398165844671018e-08, 0.9982433511569593, 0.9995655364858038, 0.00014529707702035403, 0.015052451229541472, 0.001084116515576037, 7.043159435434606e-05],
 [0.9983353053240088, 0.18037901926964897, 2.7401939597132796e-05, 0.9986961521686228, 0.000202006834738823, 0.00012549893385420196, 0.0004399576267984483, 0.0002675755371883805, 0.0004918888678990316, 3.977257894780099e-06, 0.9999756289018216, 1.2278992359837103e-05, 0.9809894725242522, 0.00017101789687839605, 0.4181584722497049, 0.0012718335514121557, 0.002113194972358395, 0.0001544657446894745, 0.004633706493647932, 0.9938244461717263, 0.0017566488395086637, 0.0004344635141804938, 0.9993874687665005, 0.9839292800043056, 0.998915722968099, 0.999897539725192],
 [0.0016119199209299676, 0.8195633152836077, 0.9999725520768813, 1.3241267604288164e-05, 7.104428915338806e-15, 6.149139573175709e-15, 0.9995600405975978, 0.999732423663953, 7.02400758086963e-14, 0.9999960226974336, 1.7515890861815738e-05, 0.9999877210072274, 0.0183194857349302, 2.5452961240504446e-15, 0.5818336398219021, 3.612182928198167e-13, 0.9978867873426172, 1.0812959149800503e-15, 0.9953614084934805, 0.006175534430107913, 3.5319945044163903e-12, 1.5599306346777937e-14, 0.0004672341564791421, 0.001018268766152896, 1.6051632489067414e-07, 3.2028680453745446e-05]],
 "Z1": [[-6.817967732552693, -8.054740169896927, -10.123820927110385, -2.5938450993452244, 10.007673753005605, 10.414029112662549, -14.26772927502684, -14.617198199244793, 9.631880908274278, -15.056066692196406, -7.786011390304052, -19.921868649799876, -5.267379001372314, 10.544143604697775, -10.245286028233462, 8.482888207771467, -13.01675307590672, 11.114522591909548, -8.618199699290955, -14.745850126855878, 7.646345967774845, 10.014590643383658, -5.401312905670324, -1.7435380262013802, -1.7912125245294097, -5.750039916232323],
 [3.029843791058754, -0.006582742082500315, -3.733734956864731, 4.0574931687191755, 1.500666754451716, 1.4309413248578982, -1.8474360298343426, -1.8954697085027812, 2.0151151729189616, -3.6593033742533927, 4.104466240580474, -2.713537706626964, 1.9907377774094437, 1.870572290389362, 0.6329961923335177, 1.8168651723553144, -1.325759717781803, 2.3391388661557, -1.7632592543105416, 3.0060424911470527, 1.3037568078989876, 2.273626612553158, 3.434804479871892, 2.4364751480263847, 5.034692505232292, 3.810726230274487],
 [-3.398819440095499, 1.5071286142887081, 6.77113435369454, -7.173374404233378, -22.57018223420081, -22.308309610208767, 5.880956052372893, 6.33037132883411, -20.65448444814416, 8.77561059571454, -6.847911427839868, 8.59407070830474, -1.9898586631119821, -23.060214759230952, 0.9633202760824185, -20.16513307928717, 4.831679105413588, -23.3459390822416, 3.606489555091617, -2.0749226602472604, -18.721054227794298, -21.77652474528945, -4.233262821441021, -4.436974979343337, -10.609092816316453, -6.538050096591211]],
 "W1": [[-0.2964089516074745, 1.387485041147869, -1.2443799404562685, -0.503828839331852, 0.4814358928238281, -0.4731712387473561, -0.5065493543673385, 1.1978058227310822, 0.583304578995953, -1.8857008483352142],
 [0.5567288492664556, -0.6676784486314598, -0.9892630627071415, -1.0213962553761, 0.10924973903802905, -0.7855727569286771, -0.2148993929625193, 0.5862833593380513, -1.2705051112015786, 0.9784502072847834],
 [-1.204555367740548, -0.4989654123829274, 0.8839376829472795, 1.7916385224468863, -1.9801941439008517, 2.0759780165744206, -0.43015138744218717, -1.9550641172254273, -0.0007082160915802983, -0.6380231798896708]],
 "b1": [[-0.5387647327792087],
 [0.7256461754045068],
 [-0.9456135101218434]],
 "layer2": 2, "Wmean2": -0.19782394375771784, "Wmax2": 2.0759780165744206, "Wmin2": -1.9801941439008517, "Wstd2": 1.0549723921044722, "bmean2": -0.25291068916551507, "bmax2": 0.7256461754045068, "bmin2": -0.9456135101218434, "bstd2": 0.7115999038805131, "A2": [[5.277475506116503e-05, 5.766544674337267e-05, 4.598352167439295e-08, 0.0012906065637728805, 0.9997979931652542, 0.9998745010661396, 1.7756036565962803e-09, 7.988586134349319e-10, 0.9995081111320306, 4.4671684776146996e-11, 6.855207316639861e-06, 4.1274284914246896e-13, 0.0006910417408176143, 0.999828982103119, 7.887928393110514e-06, 0.9987281664482266, 1.7685024481836026e-08, 0.9998455342553094, 4.88501287164944e-06, 1.9398165844671018e-08, 0.9982433511569593, 0.9995655364858038, 0.00014529707702035403, 0.015052451229541472, 0.001084116515576037, 7.043159435434606e-05],
 [0.9983353053240088, 0.18037901926964897, 2.7401939597132796e-05, 0.9986961521686228, 0.000202006834738823, 0.00012549893385420196, 0.0004399576267984483, 0.0002675755371883805, 0.0004918888678990316, 3.977257894780099e-06, 0.9999756289018216, 1.2278992359837103e-05, 0.9809894725242522, 0.00017101789687839605, 0.4181584722497049, 0.0012718335514121557, 0.002113194972358395, 0.0001544657446894745, 0.004633706493647932, 0.9938244461717263, 0.0017566488395086637, 0.0004344635141804938, 0.9993874687665005, 0.9839292800043056, 0.998915722968099, 0.999897539725192],
 [0.0016119199209299676, 0.8195633152836077, 0.9999725520768813, 1.3241267604288164e-05, 7.104428915338806e-15, 6.149139573175709e-15, 0.9995600405975978, 0.999732423663953, 7.02400758086963e-14, 0.9999960226974336, 1.7515890861815738e-05, 0.9999877210072274, 0.0183194857349302, 2.5452961240504446e-15, 0.5818336398219021, 3.612182928198167e-13, 0.9978867873426172, 1.0812959149800503e-15, 0.9953614084934805, 0.006175534430107913, 3.5319945044163903e-12, 1.5599306346777937e-14, 0.0004672341564791421, 0.001018268766152896, 1.6051632489067414e-07, 3.2028680453745446e-05]],
 "Z2": [[-6.817967732552693, -8.054740169896927, -10.123820927110385, -2.5938450993452244, 10.007673753005605, 10.414029112662549, -14.26772927502684, -14.617198199244793, 9.631880908274278, -15.056066692196406, -7.786011390304052, -19.921868649799876, -5.267379001372314, 10.544143604697775, -10.245286028233462, 8.482888207771467, -13.01675307590672, 11.114522591909548, -8.618199699290955, -14.745850126855878, 7.646345967774845, 10.014590643383658, -5.401312905670324, -1.7435380262013802, -1.7912125245294097, -5.750039916232323],
 [3.029843791058754, -0.006582742082500315, -3.733734956864731, 4.0574931687191755, 1.500666754451716, 1.4309413248578982, -1.8474360298343426, -1.8954697085027812, 2.0151151729189616, -3.6593033742533927, 4.104466240580474, -2.713537706626964, 1.9907377774094437, 1.870572290389362, 0.6329961923335177, 1.8168651723553144, -1.325759717781803, 2.3391388661557, -1.7632592543105416, 3.0060424911470527, 1.3037568078989876, 2.273626612553158, 3.434804479871892, 2.4364751480263847, 5.034692505232292, 3.810726230274487],
 [-3.398819440095499, 1.5071286142887081, 6.77113435369454, -7.173374404233378, -22.57018223420081, -22.308309610208767, 5.880956052372893, 6.33037132883411, -20.65448444814416, 8.77561059571454, -6.847911427839868, 8.59407070830474, -1.9898586631119821, -23.060214759230952, 0.9633202760824185, -20.16513307928717, 4.831679105413588, -23.3459390822416, 3.606489555091617, -2.0749226602472604, -18.721054227794298, -21.77652474528945, -4.233262821441021, -4.436974979343337, -10.609092816316453, -6.538050096591211]],
 "W2": [[-0.2964089516074745, 1.387485041147869, -1.2443799404562685, -0.503828839331852, 0.4814358928238281, -0.4731712387473561, -0.5065493543673385, 1.1978058227310822, 0.583304578995953, -1.8857008483352142],
 [0.5567288492664556, -0.6676784486314598, -0.9892630627071415, -1.0213962553761, 0.10924973903802905, -0.7855727569286771, -0.2148993929625193, 0.5862833593380513, -1.2705051112015786, 0.9784502072847834],
 [-1.204555367740548, -0.4989654123829274, 0.8839376829472795, 1.7916385224468863, -1.9801941439008517, 2.0759780165744206, -0.43015138744218717, -1.9550641172254273, -0.0007082160915802983, -0.6380231798896708]],
 "b2": [[-0.5387647327792087],
 [0.7256461754045068],
 [-0.9456135101218434]]}, 
 
 {"epoch": 8, "layer1": 1, "Wmean1": -0.19846867517365016, "Wmax1": 2.079511687316089, "Wmin1": -1.9805876119012162, "Wstd1": 1.057574908939093, "bmean1": -0.253023610250883, "bmax1": 0.7262454243381387, "bmin1": -0.9460687857707926, "bstd1": 0.7120869691539912, "A1": [[1.56869276342517e-08, 0.0015935539452420315, 0.0002899931681034044, 2.826340375925057e-08, 1.2141814019992662e-08, 2.9074602349618113e-10, 9.976997530875358e-06, 0.9998008108737042, 0.9994460571712849, 0.9998443618551948, 0.00014361802432743585, 9.767912937356146e-06, 0.013000960413083674, 0.9995709358555003, 5.227622762323757e-05, 0.9997785799110158, 0.001154378012212268, 0.9903071848251686, 0.9997879277965283, 0.00023811150841877396, 0.9985467743301771, 0.0010686982881943396, 0.9998673576784738, 0.9982634328736573, 8.731160599341348e-08, 0.9999222830779562],
 [0.0018267867360778505, 0.9907015632858481, 0.9984956454298982, 0.0008361949922709852, 0.0007266745584222088, 0.0025234434504257794, 0.5581178483702603, 0.00019918912628965149, 0.000553942828321923, 0.0001556381448018494, 0.9993872748133108, 0.018265577413977576, 0.9860041901416904, 0.0004290641444862508, 0.9983014655119018, 0.00022142008898191974, 0.9951591809147001, 0.009692815174829516, 0.00021207220346902887, 0.9978966733941691, 0.0014532256693032821, 0.9989311488756555, 0.0001326423215212487, 0.0017365671232229172, 0.001008392755290814, 7.771692202524177e-05],
 [0.9981731975769944, 0.007704882768909957, 0.0012143614019984829, 0.9991637767443253, 0.9992733132997638, 0.9974765562588283, 0.44187217463220885, 6.091492473676673e-15, 3.932810532300805e-13, 3.437681515667488e-15, 0.0004691071623617498, 0.981724654673085, 0.000994849445226001, 1.3467404334720214e-14, 0.001646258260474959, 2.1237823071603717e-15, 0.003686441073087526, 1.983694985021994e-15, 2.834523007372929e-15, 0.0018652150974122013, 5.195586875053288e-13, 1.5283615023267682e-07, 4.9522434519890745e-15, 3.1197965191895866e-12, 0.9989915199331032, 1.8592630275760796e-14]],
 "Z1": [[-13.052869799425082, -4.1305463354453735, -5.479863121013148, -12.258108372710918, -12.833078429522894, -16.76187230921846, -10.006110787258478, 10.043654665817256, 9.161418181955694, 10.771532320298457, -5.4158127108679, -8.717092023317079, -1.9694780001844123, 10.049906372372176, -6.836650618863292, 10.810121676264428, -4.264043870104602, 8.911975089922292, 10.762450096830229, -5.313480423465846, 8.717176838386475, -1.7939972221759721, 10.640347344209795, 7.674400414034767, -11.351667110591436, 10.174456976308242],
 [-1.3876284306600952, 2.3019002988856836, 2.6642845852646824, -1.963059077919487, -1.8334996227797788, -0.785432169502243, 0.9259324331523513, 1.522598073581304, 1.6635232037502847, 2.0037111408340973, 3.4319277677789177, -1.1834212951703302, 2.359159371383586, 2.2964313993246046, 3.020618231483467, 2.3948943152068125, 2.4952971537212596, 4.285344814647787, 2.3040784326479877, 3.0271855060776867, 2.1846615272248027, 5.0462472792701085, 1.7126256310205965, 1.320293458532342, -1.997282218487473, 0.7120971586303023],
 [4.915739833699483, -2.554658789333668, -4.0477468629138755, 5.122753076728656, 5.392805257049392, 5.194172059124446, 0.6923829378612922, -22.688029398859943, -19.402279612202456, -22.532291158198156, -4.2321386436832915, 2.800871308590688, -4.539665097449533, -21.88816859419017, -3.386932077050143, -22.97523466783392, -3.1029440376551847, -24.932099949052038, -22.734240531730205, -3.2550878510221795, -19.567165500527686, -10.646582700880314, -22.29845570305129, -18.817114843700708, 4.901106339624337, -21.441476418190987]],
 "W1": [[-0.29665557909546325, 1.3885360864814147, -1.244971082990342, -0.5043587373443854, 0.48241135490529513, -0.47322353513819687, -0.5066521745514192, 1.1997729662074148, 0.5845410562902803, -1.8890724389858002],
 [0.5581210770000451, -0.6687880649820305, -0.9941003330750535, -1.0283519675043964, 0.1082253233652449, -0.7892695039951911, -0.21315562138537816, 0.5889561584822277, -1.2717822883310468, 0.9785437267893646],
 [-1.2115447133268276, -0.498979347491017, 0.888828627447892, 1.799331371181064, -1.9805876119012162, 2.079511687316089, -0.4374039556423103, -1.9638124460419593, -0.0007127617295440797, -0.637417527164259]],
 "b1": [[-0.5392474693199951],
 [0.7262454243381387],
 [-0.9460687857707926]],
 "layer2": 2, "Wmean2": -0.19846867517365016, "Wmax2": 2.079511687316089, "Wmin2": -1.9805876119012162, "Wstd2": 1.057574908939093, "bmean2": -0.253023610250883, "bmax2": 0.7262454243381387, "bmin2": -0.9460687857707926, "bstd2": 0.7120869691539912, "A2": [[1.56869276342517e-08, 0.0015935539452420315, 0.0002899931681034044, 2.826340375925057e-08, 1.2141814019992662e-08, 2.9074602349618113e-10, 9.976997530875358e-06, 0.9998008108737042, 0.9994460571712849, 0.9998443618551948, 0.00014361802432743585, 9.767912937356146e-06, 0.013000960413083674, 0.9995709358555003, 5.227622762323757e-05, 0.9997785799110158, 0.001154378012212268, 0.9903071848251686, 0.9997879277965283, 0.00023811150841877396, 0.9985467743301771, 0.0010686982881943396, 0.9998673576784738, 0.9982634328736573, 8.731160599341348e-08, 0.9999222830779562],
 [0.0018267867360778505, 0.9907015632858481, 0.9984956454298982, 0.0008361949922709852, 0.0007266745584222088, 0.0025234434504257794, 0.5581178483702603, 0.00019918912628965149, 0.000553942828321923, 0.0001556381448018494, 0.9993872748133108, 0.018265577413977576, 0.9860041901416904, 0.0004290641444862508, 0.9983014655119018, 0.00022142008898191974, 0.9951591809147001, 0.009692815174829516, 0.00021207220346902887, 0.9978966733941691, 0.0014532256693032821, 0.9989311488756555, 0.0001326423215212487, 0.0017365671232229172, 0.001008392755290814, 7.771692202524177e-05],
 [0.9981731975769944, 0.007704882768909957, 0.0012143614019984829, 0.9991637767443253, 0.9992733132997638, 0.9974765562588283, 0.44187217463220885, 6.091492473676673e-15, 3.932810532300805e-13, 3.437681515667488e-15, 0.0004691071623617498, 0.981724654673085, 0.000994849445226001, 1.3467404334720214e-14, 0.001646258260474959, 2.1237823071603717e-15, 0.003686441073087526, 1.983694985021994e-15, 2.834523007372929e-15, 0.0018652150974122013, 5.195586875053288e-13, 1.5283615023267682e-07, 4.9522434519890745e-15, 3.1197965191895866e-12, 0.9989915199331032, 1.8592630275760796e-14]],
 "Z2": [[-13.052869799425082, -4.1305463354453735, -5.479863121013148, -12.258108372710918, -12.833078429522894, -16.76187230921846, -10.006110787258478, 10.043654665817256, 9.161418181955694, 10.771532320298457, -5.4158127108679, -8.717092023317079, -1.9694780001844123, 10.049906372372176, -6.836650618863292, 10.810121676264428, -4.264043870104602, 8.911975089922292, 10.762450096830229, -5.313480423465846, 8.717176838386475, -1.7939972221759721, 10.640347344209795, 7.674400414034767, -11.351667110591436, 10.174456976308242],
 [-1.3876284306600952, 2.3019002988856836, 2.6642845852646824, -1.963059077919487, -1.8334996227797788, -0.785432169502243, 0.9259324331523513, 1.522598073581304, 1.6635232037502847, 2.0037111408340973, 3.4319277677789177, -1.1834212951703302, 2.359159371383586, 2.2964313993246046, 3.020618231483467, 2.3948943152068125, 2.4952971537212596, 4.285344814647787, 2.3040784326479877, 3.0271855060776867, 2.1846615272248027, 5.0462472792701085, 1.7126256310205965, 1.320293458532342, -1.997282218487473, 0.7120971586303023],
 [4.915739833699483, -2.554658789333668, -4.0477468629138755, 5.122753076728656, 5.392805257049392, 5.194172059124446, 0.6923829378612922, -22.688029398859943, -19.402279612202456, -22.532291158198156, -4.2321386436832915, 2.800871308590688, -4.539665097449533, -21.88816859419017, -3.386932077050143, -22.97523466783392, -3.1029440376551847, -24.932099949052038, -22.734240531730205, -3.2550878510221795, -19.567165500527686, -10.646582700880314, -22.29845570305129, -18.817114843700708, 4.901106339624337, -21.441476418190987]],
 "W2": [[-0.29665557909546325, 1.3885360864814147, -1.244971082990342, -0.5043587373443854, 0.48241135490529513, -0.47322353513819687, -0.5066521745514192, 1.1997729662074148, 0.5845410562902803, -1.8890724389858002],
 [0.5581210770000451, -0.6687880649820305, -0.9941003330750535, -1.0283519675043964, 0.1082253233652449, -0.7892695039951911, -0.21315562138537816, 0.5889561584822277, -1.2717822883310468, 0.9785437267893646],
 [-1.2115447133268276, -0.498979347491017, 0.888828627447892, 1.799331371181064, -1.9805876119012162, 2.079511687316089, -0.4374039556423103, -1.9638124460419593, -0.0007127617295440797, -0.637417527164259]],
 "b2": [[-0.5392474693199951],
 [0.7262454243381387],
 [-0.9460687857707926]]}, 
 
 {"epoch": 9, "layer1": 1, "Wmean1": -0.19914377395435204, "Wmax1": 2.082317960310573, "Wmin1": -1.9810588473795625, "Wstd1": 1.0601480054365902, "bmean1": -0.25315490504527544, "bmax1": 0.7270397848632562, "bmin1": -0.9467956202980243, "bstd1": 0.7127487290698956, "A1": [[0.9994564602370611, 0.0001408764544772369, 0.9985731706982058, 0.9998794867517361, 0.9998928506284118, 5.785682944340168e-11, 0.9999241204935824, 0.9998705489576911, 8.740990810438567e-12, 9.740039689224014e-06, 2.1509348044733298e-07, 4.229140494198407e-12, 0.9996096431375485, 1.494020779378154e-09, 2.704385971919673e-10, 0.012884743322278768, 0.00018757548351439106, 3.968676903417546e-06, 8.193991331256021e-12, 1.7252400868157974e-10, 0.0002872849066631283, 0.9998515181481826, 0.9996647360587655, 0.01480522357798243, 0.9997930483772628, 0.9995807008717266],
 [0.0005435397625905138, 0.9993991493412346, 0.0014268293013298928, 0.00012051324825931129, 0.00010714937158753353, 5.959967276214766e-06, 7.587950640157361e-05, 0.00012945104230449223, 4.976414763421159e-06, 0.5517723559605074, 0.08225072430838044, 0.00018589992819933123, 0.000390356862438917, 3.318388964655263e-06, 0.0023588952759822034, 0.9861374077385465, 0.9918949510622577, 0.003631089641296986, 0.0002735788670252967, 5.117690003378999e-06, 0.9984911826354889, 0.00014848185181651736, 0.0003352639412164214, 0.9842059925712734, 0.00020695162273474903, 0.0004192991282615256],
 [3.483589324779717e-13, 0.00045997420428816894, 4.643146569638367e-13, 4.618210035704085e-15, 6.532792182921413e-16, 0.9999940399748669, 1.619301258832805e-14, 4.329733651883001e-15, 0.9999950235764956, 0.44821790399980344, 0.9177490605981392, 0.9998141000675715, 1.2652739141201964e-14, 0.9999966801170146, 0.9976411044535792, 0.0009778489391746, 0.007917473454227957, 0.9963649416817997, 0.9997264211247806, 0.9999948821374726, 0.0012215324578480214, 8.040480835313787e-16, 1.8238320825258306e-14, 0.0009887838507441184, 2.4794810344433415e-15, 1.1862148177587831e-14]],
 "Z1": [[9.192847610108402, -5.4280883129284, 8.746350638814185, 10.48619074515683, 10.86215167961467, -15.046734876100105, 10.209837832977291, 10.67631740431324, -16.686821776280997, -10.029421409027849, -12.914419138939909, -19.438224422672985, 9.894060998486367, -11.91614947196138, -16.795516202828203, -1.9741660430160533, -6.026595462767947, -8.684020226104824, -19.061450590558216, -14.076489873176888, -5.492790552003746, 11.191538747659735, 9.749555181173033, -1.7525971723009732, 10.799124808284967, 10.084188239841405],
 [1.6759836038036728, 3.4389379168929626, 2.1954779187118607, 1.4625603986511033, 1.7209721338732407, -3.5041308286505655, 0.7235497974569165, 1.724239063728052, -3.434625061856782, 0.9152242400342812, -0.060209111598975906, -1.839504135764964, 2.0460022262254887, -4.210385774600253, -0.8141020349130641, 2.363585737393675, 2.546595678644275, -1.8651649326768198, -1.7377512114194769, -3.7788125567340463, 2.6607356196888112, 2.3766394233565213, 1.7492980491988572, 2.4442579819281702, 2.3163062827171843, 2.307681644077568],
 [-19.49215173387016, -4.244801199553135, -19.650435445502985, -22.522457937382484, -24.102268208184412, 8.526308778776622, -21.544282852063752, -22.39682350332039, 8.776170814930813, 0.70736818446018, 2.3519426913974906, 6.750611996490777, -22.10645123871779, 8.405642049929652, 5.233098155899977, -4.552610046059637, -2.2839493802988047, 3.749415885209462, 6.465895787879466, 8.403989717326583, -4.0454035190322, -23.565185360578766, -21.88536097319323, -4.458856759847409, -22.831395335611745, -21.980816262884154]],
 "W1": [[-0.29688620022482304, 1.3896339360067484, -1.2455676184414155, -0.5048862350040713, 0.48348613611320496, -0.4732742536184724, -0.5067531858701877, 1.2020083583493377, 0.5858755387145309, -1.8924176444800191],
 [0.5596429266171236, -0.6699386273106902, -0.9980316915557169, -1.0350548784768276, 0.10710015990267993, -0.7922025690731115, -0.21142314171607154, 0.5914414908394663, -1.273144016791476, 0.979615056151212],
 [-1.2194169452013164, -0.4991011378724351, 0.892831183723318, 1.8067523525638556, -1.9810588473795625, 2.082317960310573, -0.44461195192278447, -1.972687337956528, -0.0007525080139407406, -0.6378095270131624]],
 "b1": [[-0.5397088797010582],
 [0.7270397848632562],
 [-0.9467956202980243]],
 "layer2": 2, "Wmean2": -0.19914377395435204, "Wmax2": 2.082317960310573, "Wmin2": -1.9810588473795625, "Wstd2": 1.0601480054365902, "bmean2": -0.25315490504527544, "bmax2": 0.7270397848632562, "bmin2": -0.9467956202980243, "bstd2": 0.7127487290698956, "A2": [[0.9994564602370611, 0.0001408764544772369, 0.9985731706982058, 0.9998794867517361, 0.9998928506284118, 5.785682944340168e-11, 0.9999241204935824, 0.9998705489576911, 8.740990810438567e-12, 9.740039689224014e-06, 2.1509348044733298e-07, 4.229140494198407e-12, 0.9996096431375485, 1.494020779378154e-09, 2.704385971919673e-10, 0.012884743322278768, 0.00018757548351439106, 3.968676903417546e-06, 8.193991331256021e-12, 1.7252400868157974e-10, 0.0002872849066631283, 0.9998515181481826, 0.9996647360587655, 0.01480522357798243, 0.9997930483772628, 0.9995807008717266],
 [0.0005435397625905138, 0.9993991493412346, 0.0014268293013298928, 0.00012051324825931129, 0.00010714937158753353, 5.959967276214766e-06, 7.587950640157361e-05, 0.00012945104230449223, 4.976414763421159e-06, 0.5517723559605074, 0.08225072430838044, 0.00018589992819933123, 0.000390356862438917, 3.318388964655263e-06, 0.0023588952759822034, 0.9861374077385465, 0.9918949510622577, 0.003631089641296986, 0.0002735788670252967, 5.117690003378999e-06, 0.9984911826354889, 0.00014848185181651736, 0.0003352639412164214, 0.9842059925712734, 0.00020695162273474903, 0.0004192991282615256],
 [3.483589324779717e-13, 0.00045997420428816894, 4.643146569638367e-13, 4.618210035704085e-15, 6.532792182921413e-16, 0.9999940399748669, 1.619301258832805e-14, 4.329733651883001e-15, 0.9999950235764956, 0.44821790399980344, 0.9177490605981392, 0.9998141000675715, 1.2652739141201964e-14, 0.9999966801170146, 0.9976411044535792, 0.0009778489391746, 0.007917473454227957, 0.9963649416817997, 0.9997264211247806, 0.9999948821374726, 0.0012215324578480214, 8.040480835313787e-16, 1.8238320825258306e-14, 0.0009887838507441184, 2.4794810344433415e-15, 1.1862148177587831e-14]],
 "Z2": [[9.192847610108402, -5.4280883129284, 8.746350638814185, 10.48619074515683, 10.86215167961467, -15.046734876100105, 10.209837832977291, 10.67631740431324, -16.686821776280997, -10.029421409027849, -12.914419138939909, -19.438224422672985, 9.894060998486367, -11.91614947196138, -16.795516202828203, -1.9741660430160533, -6.026595462767947, -8.684020226104824, -19.061450590558216, -14.076489873176888, -5.492790552003746, 11.191538747659735, 9.749555181173033, -1.7525971723009732, 10.799124808284967, 10.084188239841405],
 [1.6759836038036728, 3.4389379168929626, 2.1954779187118607, 1.4625603986511033, 1.7209721338732407, -3.5041308286505655, 0.7235497974569165, 1.724239063728052, -3.434625061856782, 0.9152242400342812, -0.060209111598975906, -1.839504135764964, 2.0460022262254887, -4.210385774600253, -0.8141020349130641, 2.363585737393675, 2.546595678644275, -1.8651649326768198, -1.7377512114194769, -3.7788125567340463, 2.6607356196888112, 2.3766394233565213, 1.7492980491988572, 2.4442579819281702, 2.3163062827171843, 2.307681644077568],
 [-19.49215173387016, -4.244801199553135, -19.650435445502985, -22.522457937382484, -24.102268208184412, 8.526308778776622, -21.544282852063752, -22.39682350332039, 8.776170814930813, 0.70736818446018, 2.3519426913974906, 6.750611996490777, -22.10645123871779, 8.405642049929652, 5.233098155899977, -4.552610046059637, -2.2839493802988047, 3.749415885209462, 6.465895787879466, 8.403989717326583, -4.0454035190322, -23.565185360578766, -21.88536097319323, -4.458856759847409, -22.831395335611745, -21.980816262884154]],
 "W2": [[-0.29688620022482304, 1.3896339360067484, -1.2455676184414155, -0.5048862350040713, 0.48348613611320496, -0.4732742536184724, -0.5067531858701877, 1.2020083583493377, 0.5858755387145309, -1.8924176444800191],
 [0.5596429266171236, -0.6699386273106902, -0.9980316915557169, -1.0350548784768276, 0.10710015990267993, -0.7922025690731115, -0.21142314171607154, 0.5914414908394663, -1.273144016791476, 0.979615056151212],
 [-1.2194169452013164, -0.4991011378724351, 0.892831183723318, 1.8067523525638556, -1.9810588473795625, 2.082317960310573, -0.44461195192278447, -1.972687337956528, -0.0007525080139407406, -0.6378095270131624]],
 "b2": [[-0.5397088797010582],
 [0.7270397848632562],
 [-0.9467956202980243]]}, 
 
 {"epoch": 10, "layer1": 1, "Wmean1": -0.1998023905430565, "Wmax1": 2.083214301623079, "Wmin1": -1.9817231247691758, "Wstd1": 1.0624121148606336, "bmean1": -0.25333976450745227, "bmax1": 0.728315654650599, "bmin1": -0.9481375675754282, "bstd1": 0.7138343974665591, "A1": [[0.9997926390059952, 0.99834563255711, 3.701491157898465e-11, 2.2635284398552149e-07, 0.9998977256682271, 1.6673134927245608e-06, 0.0006574279233471586, 0.999731035538306, 0.9996869079558354, 0.0007144061105116551, 1.7661841133353044e-08, 0.9994712261557442, 0.9998877345229654, 0.9998754595236182, 0.9998011675247588, 6.660668454926306e-05, 0.9995967180975889, 0.00827092614035252, 0.9998011675247588, 8.370693546871271e-08, 6.041484443541047e-10, 1.8159948062844919e-10, 4.3634592355891735e-06, 0.999910759477702, 8.802833022595233e-12, 0.9995377201137158],
 [0.00020736099399624035, 0.0016543674402684618, 3.301268204145719e-06, 0.09322187091044795, 0.00010227433177231436, 0.007150040351765901, 0.9816110095413305, 0.00026896446169072575, 0.00031309204410519416, 0.9992855832569896, 0.994303093563208, 0.0005287738439332928, 0.00011226547701860075, 0.00012454047637777934, 0.00019883247523891763, 0.9999041683552353, 0.00040328190239994173, 0.8672036031174812, 0.00019883247523891763, 0.04636827365591109, 3.449961397369307e-05, 5.771446315828973e-06, 0.0043485386584991076, 8.924052228586807e-05, 0.00032255617815697983, 0.00046227988623414516],
 [8.655812501331055e-15, 2.621616178297349e-12, 0.9999966986947809, 0.906777902736708, 6.121142960682228e-16, 0.9928482923347415, 0.01773156253532243, 3.323080757852234e-15, 5.937801415727274e-14, 1.0632498843405246e-08, 0.005696888774950929, 3.225099688675945e-13, 1.612570203994814e-14, 4.018900381974985e-15, 2.303836195752023e-15, 2.92249602154408e-05, 1.1095503063243548e-14, 0.12452547074216616, 2.303836195752023e-15, 0.9536316426371535, 0.9999654997818779, 0.9999942283720847, 0.9956470978822652, 1.213376742814091e-14, 0.9996774438130401, 5.016705002467148e-14]],
 "Z1": [[10.413197763180388, 7.721722704212333, -15.147452902919555, -12.928477378491449, 10.88926654660185, -9.731820872761858, -5.304366080215172, 10.58571580352168, 9.442426999211714, -1.611241906410886, -14.812306752091926, 9.216473973138765, 10.259533755336989, 10.7034153644778, 10.826853997873537, -5.776684688201501, 10.110244080397305, -4.066666285402688, 10.826853997873537, -13.221558911346712, -13.911953356343076, -14.097014986944679, -8.696807754311948, 10.025749898017523, -19.082111138692305, 9.721946814911673],
 [1.9323557944423504, 1.319041887099589, -3.7489564931257116, -7.949829576570089e-05, 1.7015169983572185, -1.3681612375972025, 2.0042491722576536, 2.365053504396837, 1.3737268002486362, 5.632102396619636, 3.0338394449726915, 1.6720531531219807, 1.1650018661682418, 1.7126601292813048, 2.3040049293681664, 3.839925092408557, 2.2947727127565547, 0.5858610094443117, 2.3040049293681664, 0.0032452794667108265, -2.9593146001092028, -3.7303853247361207, -1.7924777726863126, 0.7016638067031769, -1.665396867887167, 2.0430691657278928],
 [-21.967140188486148, -18.9438516847589, 8.872244064594858, 2.2748356910599075, -24.140243824372245, 3.5652986373777518, -2.009599691327547, -22.751899298978714, -21.012112228810874, -12.72653352890006, -2.128282441440425, -19.54563946110204, -21.498715968699187, -22.444228153809924, -22.87714790007962, -6.600466483280994, -22.021589054477282, -1.354902496864153, -22.87714790007962, 3.0269072895751625, 7.315213322235405, 8.332196751151695, 3.641075254632022, -22.01694499000951, 6.37351376495662, -20.901008756049013]],
 "W1": [[-0.29714074659510137, 1.3907465759391926, -1.2461088317813187, -0.5053389225460589, 0.48459768615355747, -0.4733277087780204, -0.506849813894712, 1.204341298067346, 0.5872687399129962, -1.8958647725925113],
 [0.5612217185358088, -0.6710761269856862, -0.9990883439512658, -1.0404442969516672, 0.10595318181251401, -0.7931293045712566, -0.20997439879312693, 0.5935766308554234, -1.2745097140456827, 0.98403902235182],
 [-1.2274699579807236, -0.4995863801748893, 0.8939974860042429, 1.812733979924639, -1.9817231247691758, 2.083214301623079, -0.45057832071940884, -1.9810638050674148, -0.0009108670771396691, -0.6415769001971537]],
 "b1": [[-0.5401973805975276],
 [0.728315654650599],
 [-0.9481375675754282]],
 "layer2": 2, "Wmean2": -0.1998023905430565, "Wmax2": 2.083214301623079, "Wmin2": -1.9817231247691758, "Wstd2": 1.0624121148606336, "bmean2": -0.25333976450745227, "bmax2": 0.728315654650599, "bmin2": -0.9481375675754282, "bstd2": 0.7138343974665591, "A2": [[0.9997926390059952, 0.99834563255711, 3.701491157898465e-11, 2.2635284398552149e-07, 0.9998977256682271, 1.6673134927245608e-06, 0.0006574279233471586, 0.999731035538306, 0.9996869079558354, 0.0007144061105116551, 1.7661841133353044e-08, 0.9994712261557442, 0.9998877345229654, 0.9998754595236182, 0.9998011675247588, 6.660668454926306e-05, 0.9995967180975889, 0.00827092614035252, 0.9998011675247588, 8.370693546871271e-08, 6.041484443541047e-10, 1.8159948062844919e-10, 4.3634592355891735e-06, 0.999910759477702, 8.802833022595233e-12, 0.9995377201137158],
 [0.00020736099399624035, 0.0016543674402684618, 3.301268204145719e-06, 0.09322187091044795, 0.00010227433177231436, 0.007150040351765901, 0.9816110095413305, 0.00026896446169072575, 0.00031309204410519416, 0.9992855832569896, 0.994303093563208, 0.0005287738439332928, 0.00011226547701860075, 0.00012454047637777934, 0.00019883247523891763, 0.9999041683552353, 0.00040328190239994173, 0.8672036031174812, 0.00019883247523891763, 0.04636827365591109, 3.449961397369307e-05, 5.771446315828973e-06, 0.0043485386584991076, 8.924052228586807e-05, 0.00032255617815697983, 0.00046227988623414516],
 [8.655812501331055e-15, 2.621616178297349e-12, 0.9999966986947809, 0.906777902736708, 6.121142960682228e-16, 0.9928482923347415, 0.01773156253532243, 3.323080757852234e-15, 5.937801415727274e-14, 1.0632498843405246e-08, 0.005696888774950929, 3.225099688675945e-13, 1.612570203994814e-14, 4.018900381974985e-15, 2.303836195752023e-15, 2.92249602154408e-05, 1.1095503063243548e-14, 0.12452547074216616, 2.303836195752023e-15, 0.9536316426371535, 0.9999654997818779, 0.9999942283720847, 0.9956470978822652, 1.213376742814091e-14, 0.9996774438130401, 5.016705002467148e-14]],
 "Z2": [[10.413197763180388, 7.721722704212333, -15.147452902919555, -12.928477378491449, 10.88926654660185, -9.731820872761858, -5.304366080215172, 10.58571580352168, 9.442426999211714, -1.611241906410886, -14.812306752091926, 9.216473973138765, 10.259533755336989, 10.7034153644778, 10.826853997873537, -5.776684688201501, 10.110244080397305, -4.066666285402688, 10.826853997873537, -13.221558911346712, -13.911953356343076, -14.097014986944679, -8.696807754311948, 10.025749898017523, -19.082111138692305, 9.721946814911673],
 [1.9323557944423504, 1.319041887099589, -3.7489564931257116, -7.949829576570089e-05, 1.7015169983572185, -1.3681612375972025, 2.0042491722576536, 2.365053504396837, 1.3737268002486362, 5.632102396619636, 3.0338394449726915, 1.6720531531219807, 1.1650018661682418, 1.7126601292813048, 2.3040049293681664, 3.839925092408557, 2.2947727127565547, 0.5858610094443117, 2.3040049293681664, 0.0032452794667108265, -2.9593146001092028, -3.7303853247361207, -1.7924777726863126, 0.7016638067031769, -1.665396867887167, 2.0430691657278928],
 [-21.967140188486148, -18.9438516847589, 8.872244064594858, 2.2748356910599075, -24.140243824372245, 3.5652986373777518, -2.009599691327547, -22.751899298978714, -21.012112228810874, -12.72653352890006, -2.128282441440425, -19.54563946110204, -21.498715968699187, -22.444228153809924, -22.87714790007962, -6.600466483280994, -22.021589054477282, -1.354902496864153, -22.87714790007962, 3.0269072895751625, 7.315213322235405, 8.332196751151695, 3.641075254632022, -22.01694499000951, 6.37351376495662, -20.901008756049013]],
 "W2": [[-0.29714074659510137, 1.3907465759391926, -1.2461088317813187, -0.5053389225460589, 0.48459768615355747, -0.4733277087780204, -0.506849813894712, 1.204341298067346, 0.5872687399129962, -1.8958647725925113],
 [0.5612217185358088, -0.6710761269856862, -0.9990883439512658, -1.0404442969516672, 0.10595318181251401, -0.7931293045712566, -0.20997439879312693, 0.5935766308554234, -1.2745097140456827, 0.98403902235182],
 [-1.2274699579807236, -0.4995863801748893, 0.8939974860042429, 1.812733979924639, -1.9817231247691758, 2.083214301623079, -0.45057832071940884, -1.9810638050674148, -0.0009108670771396691, -0.6415769001971537]],
 "b2": [[-0.5401973805975276],
 [0.728315654650599],
 [-0.9481375675754282]]}, 
 
 {"epoch": 11, "layer1": 1, "Wmean1": -0.20058708480724466, "Wmax1": 2.084384475759207, "Wmin1": -1.9889272917466696, "Wstd1": 1.064694507467943, "bmean1": -0.2535298407918902, "bmax1": 0.7296453330087763, "bmin1": -0.9495533835285924, "bstd1": 0.7149681236820785, "A1": [[1.1743445746883243e-08, 0.9998076679824424, 0.9914797077643671, 0.9986499044194076, 0.0032274057769046426, 0.9997991074255349, 2.791372346788384e-08, 7.345419591930146e-06, 2.928735884707384e-10, 0.0007022406176718912, 4.161166234767387e-08, 0.9998076679824424, 6.407511695893171e-06, 3.1491388645933286e-07, 0.9998480942083305, 8.73721723472692e-08, 0.002608342256739461, 3.5314054366562375e-13, 0.0031611038325200062, 9.50130211591171e-12, 9.73423475578291e-06, 0.9998586582292094, 1.635983464756214e-09, 0.9983870096945361, 6.44102962272304e-05, 0.0010733255831533095],
 [0.0007646792920361554, 0.00019233201755551306, 0.008520292235631468, 0.0013500955801839598, 0.9967725574957043, 0.00020089257445708033, 0.0009132236191125549, 0.4327320010264706, 0.0029292393985872827, 0.9992977493373026, 2.7178757358340657e-05, 0.00019233201755551306, 0.9925001409981357, 0.8178735024691627, 0.0001519057916678994, 0.05170085692554889, 0.9967519942970808, 3.8101153103717547e-06, 0.996838880298986, 6.212670392915479e-06, 0.019509383854788752, 0.00014134177078789902, 0.00045854484778514473, 0.001612990303000959, 0.9999085005924296, 0.9957314769552492],
 [0.9992353089645182, 2.14570901298438e-15, 1.454405572766044e-15, 4.0838830547701675e-13, 3.6727391140041305e-08, 8.063774680840738e-15, 0.999086748467164, 0.5672606535539376, 0.997070760308539, 1.0045025328811428e-08, 0.9999727796309794, 2.14570901298438e-15, 0.007493451490168507, 0.182126182616951, 1.6573789312842513e-15, 0.9482990557022788, 0.0006396634461797838, 0.9999961898843364, 1.5868493916150044e-08, 0.9999937873201058, 0.9804808819104555, 2.6002931780181307e-15, 0.9995414535162314, 2.4630030040507055e-12, 2.7089111343116125e-05, 0.0031951974615974537]],
 "Z1": [[-12.897907732272584, 10.850733822012236, 9.030733415911417, 8.787701251107986, -0.7545417100653686, 10.43619893049827, -12.32248760761102, -10.322398962409702, -16.834648738384484, -1.6106021943774118, -10.228493078667261, 10.850733822012236, -9.272724096104094, -13.20014958118079, 10.668118806830885, -13.238606037102173, -3.08178184991399, -19.65865631427128, -0.6668395613895365, -16.732447693897143, -8.76698121479762, 10.85829756920083, -14.376784923689051, 7.738444069127658, -5.7814731246655775, -4.283742402935069],
 [-1.8139912096413475, 2.2946387512477684, 4.27398557456906, 2.181472369987005, 4.97830225750691, 1.9236595950395254, -1.9268699986527587, 0.6613979834886814, -0.7163811802887036, 5.649929760717351, -3.746682583853221, 2.2946387512477684, 2.677787332904336, 1.5697694338376798, 1.8760207032346035, 0.052202039434092073, 2.864005268278728, -3.464597141846945, 5.086828310306859, -3.3417751715019626, -1.1639793908875053, 1.9941092267499556, -1.8332156746618695, 1.3103928700667031, 3.8686724300690045, 2.548973366652453],
 [5.361297844931938, -22.924380182435907, -25.124888905475668, -19.73750568511444, -12.13820808824174, -22.014994782081683, 5.070746112071265, 0.9320982869188897, 5.113697761979301, -12.765556059074907, 6.766365064665711, -22.924380182435907, -2.2084103172266274, 0.06776150958139138, -23.365268273304924, 2.961397595204475, -4.4873098250685945, 9.013250152124343, -12.868935771324175, 8.647138355285433, 2.753168183110889, -22.72471327450275, 5.853778130596755, -18.989581415416932, -6.64761477261411, -3.1928553638959505]],
 "W1": [[-0.2974074204080022, 1.3918122865499876, -1.2466997080753304, -0.5058764134779272, 0.4855804201675949, -0.47338165748926964, -0.506965624398026, 1.206338900377913, 0.5885057158535684, -1.899298080380017],
 [0.5632773099315099, -0.6721523096396227, -1.0000476430626186, -1.0449711507408708, 0.10495004431317422, -0.7943434070075893, -0.2081190405766986, 0.5957650959862992, -1.275690566449759, 0.9885926922131291],
 [-1.2383646265122714, -0.5002201139518404, 0.895079950505507, 1.817841527802437, -1.9824262503984253, 2.084384475759207, -0.4582528118957204, -1.9889272917466696, -0.0011176886389543917, -0.6454791588280535]],
 "b1": [[-0.5406814718558546],
 [0.7296453330087763],
 [-0.9495533835285924]],
 "layer2": 2, "Wmean2": -0.20058708480724466, "Wmax2": 2.084384475759207, "Wmin2": -1.9889272917466696, "Wstd2": 1.064694507467943, "bmean2": -0.2535298407918902, "bmax2": 0.7296453330087763, "bmin2": -0.9495533835285924, "bstd2": 0.7149681236820785, "A2": [[1.1743445746883243e-08, 0.9998076679824424, 0.9914797077643671, 0.9986499044194076, 0.0032274057769046426, 0.9997991074255349, 2.791372346788384e-08, 7.345419591930146e-06, 2.928735884707384e-10, 0.0007022406176718912, 4.161166234767387e-08, 0.9998076679824424, 6.407511695893171e-06, 3.1491388645933286e-07, 0.9998480942083305, 8.73721723472692e-08, 0.002608342256739461, 3.5314054366562375e-13, 0.0031611038325200062, 9.50130211591171e-12, 9.73423475578291e-06, 0.9998586582292094, 1.635983464756214e-09, 0.9983870096945361, 6.44102962272304e-05, 0.0010733255831533095],
 [0.0007646792920361554, 0.00019233201755551306, 0.008520292235631468, 0.0013500955801839598, 0.9967725574957043, 0.00020089257445708033, 0.0009132236191125549, 0.4327320010264706, 0.0029292393985872827, 0.9992977493373026, 2.7178757358340657e-05, 0.00019233201755551306, 0.9925001409981357, 0.8178735024691627, 0.0001519057916678994, 0.05170085692554889, 0.9967519942970808, 3.8101153103717547e-06, 0.996838880298986, 6.212670392915479e-06, 0.019509383854788752, 0.00014134177078789902, 0.00045854484778514473, 0.001612990303000959, 0.9999085005924296, 0.9957314769552492],
 [0.9992353089645182, 2.14570901298438e-15, 1.454405572766044e-15, 4.0838830547701675e-13, 3.6727391140041305e-08, 8.063774680840738e-15, 0.999086748467164, 0.5672606535539376, 0.997070760308539, 1.0045025328811428e-08, 0.9999727796309794, 2.14570901298438e-15, 0.007493451490168507, 0.182126182616951, 1.6573789312842513e-15, 0.9482990557022788, 0.0006396634461797838, 0.9999961898843364, 1.5868493916150044e-08, 0.9999937873201058, 0.9804808819104555, 2.6002931780181307e-15, 0.9995414535162314, 2.4630030040507055e-12, 2.7089111343116125e-05, 0.0031951974615974537]],
 "Z2": [[-12.897907732272584, 10.850733822012236, 9.030733415911417, 8.787701251107986, -0.7545417100653686, 10.43619893049827, -12.32248760761102, -10.322398962409702, -16.834648738384484, -1.6106021943774118, -10.228493078667261, 10.850733822012236, -9.272724096104094, -13.20014958118079, 10.668118806830885, -13.238606037102173, -3.08178184991399, -19.65865631427128, -0.6668395613895365, -16.732447693897143, -8.76698121479762, 10.85829756920083, -14.376784923689051, 7.738444069127658, -5.7814731246655775, -4.283742402935069],
 [-1.8139912096413475, 2.2946387512477684, 4.27398557456906, 2.181472369987005, 4.97830225750691, 1.9236595950395254, -1.9268699986527587, 0.6613979834886814, -0.7163811802887036, 5.649929760717351, -3.746682583853221, 2.2946387512477684, 2.677787332904336, 1.5697694338376798, 1.8760207032346035, 0.052202039434092073, 2.864005268278728, -3.464597141846945, 5.086828310306859, -3.3417751715019626, -1.1639793908875053, 1.9941092267499556, -1.8332156746618695, 1.3103928700667031, 3.8686724300690045, 2.548973366652453],
 [5.361297844931938, -22.924380182435907, -25.124888905475668, -19.73750568511444, -12.13820808824174, -22.014994782081683, 5.070746112071265, 0.9320982869188897, 5.113697761979301, -12.765556059074907, 6.766365064665711, -22.924380182435907, -2.2084103172266274, 0.06776150958139138, -23.365268273304924, 2.961397595204475, -4.4873098250685945, 9.013250152124343, -12.868935771324175, 8.647138355285433, 2.753168183110889, -22.72471327450275, 5.853778130596755, -18.989581415416932, -6.64761477261411, -3.1928553638959505]],
 "W2": [[-0.2974074204080022, 1.3918122865499876, -1.2466997080753304, -0.5058764134779272, 0.4855804201675949, -0.47338165748926964, -0.506965624398026, 1.206338900377913, 0.5885057158535684, -1.899298080380017],
 [0.5632773099315099, -0.6721523096396227, -1.0000476430626186, -1.0449711507408708, 0.10495004431317422, -0.7943434070075893, -0.2081190405766986, 0.5957650959862992, -1.275690566449759, 0.9885926922131291],
 [-1.2383646265122714, -0.5002201139518404, 0.895079950505507, 1.817841527802437, -1.9824262503984253, 2.084384475759207, -0.4582528118957204, -1.9889272917466696, -0.0011176886389543917, -0.6454791588280535]],
 "b2": [[-0.5406814718558546],
 [0.7296453330087763],
 [-0.9495533835285924]]}, 
 
 {"epoch": 12, "layer1": 1, "Wmean1": -0.20122368157456683, "Wmax1": 2.08631877161232, "Wmin1": -1.9979102386973642, "Wstd1": 1.0670879490993506, "bmean1": -0.25366000710249687, "bmax1": 0.730421664270247, "bmin1": -0.9502512902738728, "bstd1": 0.7156132277122631, "A1": [[0.9998824836912797, 0.008114829615857574, 4.510746510648107e-05, 9.276462395487912e-06, 0.9996955915500675, 9.833768702923392e-05, 0.9988714722881131, 0.9999044727008205, 2.357957585614513e-07, 0.9998620350863581, 9.558321062223574e-06, 0.9998121089595363, 0.0001649035025803259, 1.5622537751676752e-08, 3.721062850926019e-11, 0.0009849100576971917, 0.9996181309861563, 0.9998182217483316, 6.311201527174601e-10, 0.9916555408241877, 6.326691088448958e-11, 0.9998909552697322, 7.240320811984183e-06, 6.158968917296821e-06, 0.9996456526745946, 0.9986747843854129],
 [0.0001175163087169234, 0.8712907256507768, 0.9986590788308505, 0.6238917280475219, 0.00030440844991776677, 0.9898120396505481, 0.0011285277116582471, 9.55272991788058e-05, 0.10883692156858157, 0.00013796491363945136, 0.01944518326818717, 0.00018789104046178294, 0.9935533065643655, 0.995619401566697, 3.583798112272398e-06, 0.9990149712408823, 0.00038186901383422745, 0.00018177825165927773, 4.009220178243952e-05, 0.008344459175811041, 7.776531178601746e-06, 0.0001090447302641583, 0.4408296082121551, 0.9929494853897822, 0.00035434732539509366, 0.0013252156142091374],
 [3.416329320180539e-15, 0.12059444473336568, 0.0012958137040429522, 0.37609899549008274, 1.4679963522608132e-14, 0.010089622662422588, 2.2861889898076597e-13, 6.526704955394479e-16, 0.8911628426356598, 2.3697262180571277e-15, 0.9805452584107506, 1.9468227647646164e-15, 0.006281789933054227, 0.004380582810765242, 0.9999964161646772, 1.187014205308294e-07, 9.483447129029317e-15, 9.20463414714631e-15, 0.9999599071670974, 1.2925980224656967e-15, 0.9999922234055545, 3.663640930969573e-15, 0.5591631514670328, 0.0070443556413005756, 1.0170158096100918e-14, 3.7796202129862913e-13]],
 "Z1": [[10.752776742076565, -4.083556530398409, -6.881858852791494, -10.075059783711326, 9.820008156060492, -6.80718717104171, 8.608487728003992, 11.17780920218671, -12.965176826206791, 10.8847356218946, -8.785199951165085, 10.878202624908383, -6.055823425772294, -14.830197593705599, -15.19601105341664, -1.8005722187280777, 10.15836488633201, 10.428226716277132, -13.958675847626756, 9.063776597998922, -15.117224954739509, 10.56070037131638, -10.340347697464857, -9.28669403467393, 9.966287927547768, 8.808874387685277],
 [1.7039608288701495, 0.5927259699672196, 3.123262127927898, 1.0411920691034684, 1.7231724377468471, 2.40967583253956, 1.822775487162667, 1.9218062379979408, 0.07721836076397992, 1.9963624422029707, -1.1672573702016782, 2.2987421984396823, 2.6478590991136537, 3.139963422560972, -3.7206717652929746, 5.12140249999708, 2.288313924394596, 1.8156854998388379, -2.8994797042926925, 4.2859985349296155, -3.3979664795792064, 1.4370570314747821, 0.6764004899020977, 2.7038316563747413, 2.0214093570140665, 2.1840203770969695],
 [-22.557315453135104, -1.3848165152857153, -3.5240124893287277, 0.5350676231476051, -22.031980245711278, -2.176331797141612, -20.49710308127764, -23.787554538932977, 2.179894905929198, -22.791128369917413, 2.753252040355916, -22.99418716897183, -2.415773655706528, -2.286219857698489, 8.818412045584619, -10.824266553782765, -22.130481695255906, -21.890660814977007, 7.224808913899863, -25.209966163884697, 8.3664259269299, -22.67950953009811, 0.9141833587146805, -2.24462145776834, -22.252676301962698, -19.793782194919142]],
 "W1": [[-0.29766867075295533, 1.392860574964261, -1.2472444348200804, -0.5063393336393901, 0.48650791906682433, -0.4734351609644619, -0.5070621147874805, 1.2082050427117907, 0.5897285073514326, -1.9027774964221777],
 [0.5646904949883939, -0.6732340567984931, -1.002097908365157, -1.0509058646666654, 0.10399474916907854, -0.7963598974659571, -0.20661935412632626, 0.5986628382210851, -1.2769041918870916, 0.9918638081359479],
 [-1.245326172932236, -0.5005501247668958, 0.8972228019752599, 1.8244084684797062, -1.9829992435670978, 2.08631877161232, -0.4644410308021144, -1.9979102386973642, -0.0012253908934120772, -0.6480737375577487]],
 "b1": [[-0.5411503953038648],
 [0.730421664270247],
 [-0.9502512902738728]],
 "layer2": 2, "Wmean2": -0.20122368157456683, "Wmax2": 2.08631877161232, "Wmin2": -1.9979102386973642, "Wstd2": 1.0670879490993506, "bmean2": -0.25366000710249687, "bmax2": 0.730421664270247, "bmin2": -0.9502512902738728, "bstd2": 0.7156132277122631, "A2": [[0.9998824836912797, 0.008114829615857574, 4.510746510648107e-05, 9.276462395487912e-06, 0.9996955915500675, 9.833768702923392e-05, 0.9988714722881131, 0.9999044727008205, 2.357957585614513e-07, 0.9998620350863581, 9.558321062223574e-06, 0.9998121089595363, 0.0001649035025803259, 1.5622537751676752e-08, 3.721062850926019e-11, 0.0009849100576971917, 0.9996181309861563, 0.9998182217483316, 6.311201527174601e-10, 0.9916555408241877, 6.326691088448958e-11, 0.9998909552697322, 7.240320811984183e-06, 6.158968917296821e-06, 0.9996456526745946, 0.9986747843854129],
 [0.0001175163087169234, 0.8712907256507768, 0.9986590788308505, 0.6238917280475219, 0.00030440844991776677, 0.9898120396505481, 0.0011285277116582471, 9.55272991788058e-05, 0.10883692156858157, 0.00013796491363945136, 0.01944518326818717, 0.00018789104046178294, 0.9935533065643655, 0.995619401566697, 3.583798112272398e-06, 0.9990149712408823, 0.00038186901383422745, 0.00018177825165927773, 4.009220178243952e-05, 0.008344459175811041, 7.776531178601746e-06, 0.0001090447302641583, 0.4408296082121551, 0.9929494853897822, 0.00035434732539509366, 0.0013252156142091374],
